svm_type c_svc
kernel_type rbf
gamma 2
nr_class 2
total_sv 141
rho 16.7086
label 1 2
nr_sv 65 76
SV
2048 1:0.141903 2:-0.582638 
2048 1:-0.732888 2:-0.676127 
2048 1:0.161937 2:0.145242 
2048 1:-0.589316 2:-0.54591 
2048 1:0.141903 2:0.131886 
2048 1:0.252087 2:0.398998 
2048 1:0.292154 2:0.278798 
2048 1:0.572621 2:0.739566 
2048 1:0.285476 2:0.492487 
2048 1:0.365609 2:0.495826 
2048 1:0.238731 2:0.439065 
2048 1:0.412354 2:0.24207 
2048 1:-0.589316 2:0.0951586 
2048 1:0.429048 2:0.238731 
2048 1:0.0684474 2:0.155259 
2048 1:0.57596 2:0.732888 
2048 1:0.265442 2:0.419032 
2048 1:0.158598 2:-0.585977 
2048 1:-0.595993 2:-0.0784641 
2048 1:0.265442 2:0.245409 
2048 1:0.161937 2:-0.188648 
413.7013723309657 1:0.579299 2:0.719533 
2048 1:-0.398998 2:-0.595993 
36.7594219619042 1:0.125209 2:0.0584307 
2048 1:0.572621 2:0.776294 
2048 1:0.268781 2:0.42571 
2048 1:-0.505843 2:0.165275 
2048 1:0.128548 2:0.0550918 
2048 1:-0.69616 2:-0.709516 
1959.012421917231 1:0.148581 2:-0.0784641 
2048 1:0.432387 2:0.268781 
335.3672991188948 1:0.572621 2:0.789649 
2048 1:0.499165 2:0.352254 
2048 1:0.262104 2:0.352254 
2048 1:-0.0283806 2:0.15192 
2048 1:0.0350584 2:0.138564 
2048 1:-0.585977 2:-0.592654 
1195.58808994102 1:0.429048 2:0.445743 
2048 1:-0.572621 2:-0.535893 
2048 1:0.442404 2:0.288815 
2048 1:0.258765 2:0.398998 
2048 1:0.305509 2:0.238731 
2048 1:-0.555927 2:-0.555927 
2048 1:-0.669449 2:-0.752922 
2048 1:0.662771 2:0.579299 
2048 1:0.589316 2:0.599332 
2048 1:-0.669449 2:-0.702838 
2048 1:-0.906511 2:-0.669449 
923.9415579301951 1:0.348915 2:0.459098 
2048 1:-0.669449 2:-0.90985 
2048 1:0.479132 2:0.318865 
2048 1:0.15192 2:-0.111853 
2048 1:0.338898 2:0.479132 
2048 1:0.729549 2:0.572621 
2048 1:0.495826 2:0.312187 
2048 1:0.325543 2:0.248748 
2048 1:0.111853 2:0.0984975 
2048 1:0.345576 2:0.495826 
2048 1:0.459098 2:0.452421 
2048 1:-0.579299 2:0.131886 
2048 1:0.131886 2:-0.542571 
2048 1:0.57596 2:0.599332 
2048 1:-0.582638 2:0.145242 
2048 1:-0.569282 2:0.135225 
2048 1:0.472454 2:0.288815 
-2048 1:0.202003 2:0.345576 
-2048 1:0.168614 2:-0.549249 
-144.6028702769295 1:0.30217 2:0.525876 
-2048 1:-0.512521 2:-0.599332 
-2048 1:-0.659432 2:-0.819699 
-2048 1:0.429048 2:0.542571 
-2048 1:0.232053 2:0.402337 
-2048 1:-0.599332 2:-0.422371 
-866.0873072110116 1:0.772955 2:0.549249 
-2048 1:-0.662771 2:-0.809683 
-635.6368195462165 1:0.398998 2:0.191987 
-2020.945625623455 1:0.175292 2:0.0450751 
-1129.455660242744 1:-0.599332 2:-0.429048 
-2048 1:0.222037 2:0.185309 
-2048 1:-0.609349 2:-0.048414 
-839.8230579318762 1:0.171953 2:-0.502504 
-2048 1:0.325543 2:0.208681 
-2048 1:-0.659432 2:-0.692821 
-2048 1:0.278798 2:0.222037 
-2048 1:0.559265 2:0.833055 
-904.7228119948105 1:0.128548 2:-0.609349 
-2048 1:0.228715 2:0.342237 
-86.80948862717921 1:0.191987 2:0.30217 
-2048 1:0.555927 2:0.749583 
-279.2408411322453 1:0.382304 2:-0.843072 
-2048 1:0.409015 2:0.222037 
-2048 1:-0.138564 2:-0.602671 
-1414.71345732527 1:-0.372287 2:0.185309 
-470.6806361683617 1:0.465776 2:0.215359 
-1505.729000585161 1:0.54591 2:0.368948 
-1.535878702388192 1:-0.562604 2:0.188648 
-2048 1:-0.599332 2:0.0784641 
-1742.133869916574 1:-0.722871 2:-0.656093 
-2048 1:0.388982 2:0.519199 
-2048 1:0.542571 2:0.479132 
-2048 1:0.609349 2:0.555927 
-2048 1:0.168614 2:0.148581 
-2048 1:-0.45576 2:0.168614 
-2048 1:0.215359 2:0.365609 
-221.1993621670173 1:-0.175292 2:-0.60601 
-2048 1:0.168614 2:-0.335559 
-25.55169908865728 1:-0.8798 2:0.419032 
-2048 1:0.202003 2:0.33222 
-2048 1:-0.519199 2:-0.599332 
-206.317427678866 1:-0.833055 2:0.419032 
-2048 1:0.449082 2:0.51586 
-1114.019239872151 1:-0.616027 2:0.0450751 
-2048 1:0.205342 2:0.191987 
-2048 1:0.268781 2:0.202003 
-2048 1:0.445743 2:0.529215 
-2048 1:0.215359 2:0.188648 
-2048 1:0.51586 2:0.48581 
-652.229594934954 1:0.539232 2:0.509182 
-2048 1:0.168614 2:-0.222037 
-2048 1:0.519199 2:0.459098 
-2048 1:0.465776 2:0.512521 
-2048 1:0.168614 2:-0.0684474 
-2048 1:0.175292 2:0.138564 
-403.3734975776115 1:-0.659432 2:-0.946578 
-2048 1:0.532554 2:0.348915 
-2048 1:0.535893 2:0.462437 
-2048 1:0.325543 2:0.525876 
-2048 1:-0.502504 2:0.168614 
-1780.831067100025 1:-0.903172 2:-0.659432 
-2048 1:0.278798 2:0.235392 
-2048 1:0.562604 2:0.749583 
-2048 1:0.222037 2:0.395659 
-399.1718823574109 1:0.976628 2:0.565943 
-2048 1:0.542571 2:0.419032 
-2048 1:0.0383973 2:0.168614 
-2048 1:-0.60601 2:0.108514 
-307.5590671392948 1:-0.532554 2:-0.599332 
-2048 1:-0.66611 2:-0.692821 
-2048 1:0.0684474 2:0.168614 
-2048 1:0.392321 2:0.222037 
-2048 1:-0.732888 2:-0.656093 
