svm_type c_svc
kernel_type rbf
gamma 2
nr_class 2
total_sv 2356
rho -6.37739
label 1 2
nr_sv 1243 1113
SV
2048 1:0.274131 2:-0.47651 3:0.289575 4:0.167785 
661.3049116293321 1:-0.965251 3:-0.980695 4:-0.61745 
2048 1:-0.003861 2:0.885906 3:-0.042471 4:-0.657718 
620.5496184660147 1:0.6139 2:0.228188 3:0.72973 4:-0.369128 
2036.040841026818 1:0.027027 2:-0.946309 3:0.142857 4:0.442953 
2048 1:-0.436293 2:-0.57047 3:0.019305 
2048 1:0.725869 2:-0.436242 3:0.509653 4:-0.100671 
2048 1:-0.108108 2:-0.973154 3:-0.745174 4:-0.657718 
816.4752442582642 1:-0.509653 2:0.892617 3:-0.799228 4:-0.66443 
2048 1:0.46332 2:0.825503 3:0.849421 4:0.731544 
2048 1:0.679537 2:-0.47651 3:0.482625 4:-0.0604027 
2048 1:0.992278 2:-0.315436 3:0.490347 4:0.328859 
2048 1:-0.46332 2:-0.422819 3:-0.710425 4:-0.785235 
1372.938514887252 1:0.945946 2:0.134228 3:0.772201 4:-0.308725 
2048 1:0.123552 2:-0.630872 3:-0.818533 4:0.302013 
2048 1:-0.3861 2:-0.194631 4:-0.234899 
2048 1:-0.416988 2:-0.295302 3:-0.880309 4:0.0402685 
1761.585516396275 1:0.675676 2:0.241611 3:0.953668 4:0.409396 
2048 1:0.459459 2:-0.228188 3:0.756757 4:-0.52349 
2048 1:-0.00772201 2:-0.758389 3:-0.969112 4:-0.322148 
356.2980108277047 1:0.988417 2:-0.557047 3:0.3861 4:-0.402685 
2048 1:-0.772201 2:-0.134228 3:-0.451737 4:0.328859 
2048 1:-0.880309 2:-0.369128 3:-0.027027 4:-0.161074 
2048 1:-0.23166 2:-0.0536913 3:-0.262548 4:-0.0738255 
2048 1:-0.65251 2:0.315436 3:0.030888 4:-0.275168 
2048 1:-0.034749 2:0.966443 3:-0.0579151 4:-0.362416 
2048 1:-0.166023 2:-0.771812 3:0.123552 4:0.530201 
83.28825483216208 1:-0.579151 2:0.604027 3:-0.872587 4:-0.805369 
2048 1:0.640927 2:0.268456 3:0.934363 4:0.389262 
2048 1:-0.416988 2:-0.865772 3:-0.640927 4:0.147651 
2048 1:0.733591 2:-0.395973 3:0.606178 4:0.973154 
2048 1:0.548263 2:-0.416107 3:0.343629 4:-0.348993 
319.0730684416557 1:0.590734 2:0.248322 3:0.795367 4:-0.557047 
402.0708457038322 1:-0.57529 2:0.469799 3:-0.80695 4:0.912752 
2048 1:-0.833977 2:-0.409396 4:-0.114094 
2048 1:0.525097 2:-0.0134228 3:0.984556 4:-0.355705 
1043.246257512517 1:-0.930502 2:-0.120805 3:-0.930502 4:-0.147651 
176.5356768873247 1:-0.293436 2:0.422819 3:-0.617761 4:0.463087 
1783.197873009835 1:-0.888031 2:0.530201 3:-0.853282 4:0.00671141 
31.8885388499255 1:0.996139 2:0.758389 3:0.868726 4:-0.872483 
976.0750160288507 1:0.316602 2:0.993289 3:0.598456 4:-0.604027 
2048 1:-0.11583 2:-0.684564 3:-0.76834 4:0.946309 
2048 1:-0.899614 2:0.0134228 3:-0.756757 4:0.637584 
979.2974231769711 1:0.046332 2:-0.657718 3:-0.185328 4:0.167785 
351.3750600046008 1:0.451737 2:-0.469799 3:0.698842 4:-0.637584 
559.8704192936267 1:-0.548263 2:0.986577 3:-0.220077 4:0.563758 
2048 1:0.46332 2:0.38255 3:0.362934 4:-0.986577 
1931.127915300217 1:-0.837838 2:0.825503 3:-0.683398 4:0.0671141 
324.7463797292674 1:0.3861 2:-0.838926 3:0.567568 4:-0.409396 
268.5475828730714 1:-0.467181 2:-0.563758 3:-0.841699 4:0.536913 
1107.456880419888 1:-0.783784 2:0.107383 3:-0.911197 4:-0.838926 
540.1510830782636 1:0.0810811 2:-0.899329 3:-0.216216 4:0.744966 
79.22487516627412 1:-0.227799 2:-0.959732 3:-0.853282 4:0.899329 
2048 1:0.718147 2:-0.610738 3:0.30888 4:0.691275 
2048 1:-0.583012 2:0.61745 3:-0.432432 4:-0.409396 
2048 1:-0.571429 2:0.0201342 3:-0.023166 4:-0.543624 
382.9185848958851 1:0.00772201 2:0.657718 3:-0.895753 4:-0.879195 
2048 1:0.0540541 2:-0.885906 3:-0.899614 4:-0.610738 
2048 1:-0.694981 2:-0.0134228 3:-0.416988 4:-0.744966 
2048 1:-0.146718 2:-0.805369 3:0.0617761 4:0.577181 
2048 1:-0.694981 2:0.751678 3:-0.235521 4:-0.744966 
1104.763729215793 1:0.528958 2:0.85906 3:0.88417 4:-0.805369 
2048 1:-0.737452 2:0.0738255 3:-0.274131 4:0.422819 
687.7423072015091 1:0.277992 2:-0.986577 3:0.389961 4:0.0939597 
2048 1:-0.617761 2:0.926174 3:-0.320463 4:0.0402685 
2048 1:0.895753 2:0.033557 3:0.621622 4:0.348993 
2048 1:0.00772201 2:-0.657718 3:0.131274 4:0.798658 
2048 1:-0.366795 2:0.697987 3:-0.003861 4:-0.718121 
2048 1:0.868726 2:0.557047 3:0.702703 4:0.765101 
2048 1:-0.625483 2:0.530201 3:0.00772201 4:-0.0872483 
2048 1:0.621622 2:0.33557 3:0.714286 4:-0.100671 
101.403448208077 1:-0.945946 2:0.597315 3:-0.872587 4:-0.879195 
2048 1:0.679537 2:0.0604027 3:0.459459 4:0.248322 
2048 1:-0.042471 2:0.362416 3:0.142857 4:-0.516779 
2048 1:-0.72973 3:-0.285714 4:-0.912752 
2048 1:-0.455598 2:-0.281879 3:-0.455598 4:-0.536913 
1771.472297299312 1:0.428571 2:-0.395973 3:0.555985 
2048 1:0.42471 2:0.100671 3:0.555985 4:0.993289 
230.7724248867872 1:-0.65251 2:-0.959732 3:-0.837838 4:0.221477 
2048 1:0.0733591 2:-0.879195 4:0.0604027 
227.7578598190744 1:-0.571429 2:0.785235 3:-0.637066 4:0.389262 
2048 1:-0.46332 2:-0.966443 3:-0.0579151 4:-0.167785 
352.4892809995753 1:-0.200772 2:0.362416 3:-0.111969 4:-0.0402685 
878.3735340798909 1:0.895753 2:-0.0536913 3:0.949807 4:0.838926 
2048 1:-0.223938 2:-0.751678 3:-0.749035 4:0.885906 
2048 1:0.656371 2:-0.563758 3:0.532819 4:0.302013 
2048 1:-0.675676 2:0.436242 3:-0.158301 4:-0.704698 
28.55566215314296 1:-0.00772201 2:0.892617 3:0.03861 4:-0.637584 
1258.270552965104 1:0.980695 2:0.127517 3:0.65251 4:0.38255 
85.28052632960673 1:-0.980695 2:-0.704698 3:-0.65251 4:0.651007 
2048 1:-0.0540541 2:-0.503356 3:-0.0965251 4:0.422819 
2048 1:-0.509653 2:0.885906 3:-0.428571 4:-0.402685 
2048 1:0.498069 2:0.234899 3:0.436293 4:0.100671 
2048 1:0.718147 2:0.449664 3:0.934363 4:-0.375839 
2048 1:0.76834 2:-0.389262 3:0.397683 4:0.187919 
2048 1:-0.405405 2:-0.234899 3:-0.0540541 4:0.416107 
561.1696174109534 1:-0.262548 2:0.838926 3:-0.030888 4:-0.503356 
651.9597827763085 1:-0.949807 2:-0.671141 3:-0.980695 4:0.912752 
2048 1:0.799228 2:0.0604027 3:0.749035 4:0.583893 
393.9490423412907 1:0.328185 2:0.120805 3:0.247104 4:-0.543624 
327.8810861316138 1:-0.633205 2:0.449664 3:-0.0926641 4:1 
2048 1:-0.0579151 2:-0.248322 3:-0.532819 4:-0.624161 
2048 1:-0.277992 2:-0.785235 3:-0.189189 4:0.422819 
924.4877831503715 1:0.525097 2:0.0134228 3:0.934363 4:0.61745 
2048 1:-0.749035 2:0.0671141 3:-0.42471 4:0.181208 
2048 1:0.718147 2:0.919463 3:0.393822 4:-0.221477 
310.2337844664332 1:0.698842 2:-0.255034 3:0.818533 4:-0.765101 
2048 1:-0.0888031 2:-0.57047 3:-0.625483 4:0.322148 
2048 1:0.297297 2:0.832215 3:0.351351 4:0.677852 
1528.991850728554 1:0.559846 2:-0.0805369 3:0.266409 4:0.979866 
2048 1:0.749035 2:0.610738 3:0.250965 4:-0.402685 
1044.120126541267 1:-0.555985 2:0.979866 3:-0.88417 4:0.00671141 
1280.344847610154 1:-0.864865 2:-0.66443 3:-0.486486 4:-0.536913 
2048 1:0.455598 2:0.214765 3:0.818533 4:0.268456 
2048 1:0.895753 2:-0.268456 3:0.637066 4:-0.0939597 
2048 1:0.571429 2:0.255034 3:0.818533 4:-0.14094 
2048 1:-0.471042 2:0.255034 3:-0.505792 4:-0.644295 
2048 1:-0.791506 2:-0.791946 3:-0.0772201 4:0.785235 
1261.636356017431 1:-0.104247 2:-0.0738255 3:-0.888031 4:0.161074 
58.28599500581788 1:-0.822394 2:0.0536913 3:-0.548263 4:-0.0671141 
2048 1:0.3861 2:0.14094 3:0.76834 4:0.61745 
2048 1:0.0772201 2:0.38255 3:0.003861 4:-0.684564 
952.0266831711316 1:-0.617761 2:-0.865772 3:-0.474903 4:-0.402685 
639.2695926178769 1:-0.942085 2:-0.38255 3:0.135135 4:0.261745 
2048 1:-0.868726 2:-0.590604 3:0.00772201 4:-0.684564 
89.20409239939912 1:0.552124 2:0.899329 3:0.864865 4:0.0536913 
2048 1:-0.976834 2:-0.187919 3:-0.644788 4:0.107383 
2048 1:0.911197 2:0.395973 3:0.737452 4:0.577181 
1362.511251447146 1:-0.223938 2:-0.919463 3:-0.0926641 4:0.0134228 
2048 1:-0.34749 2:-0.704698 3:-0.216216 4:0.255034 
2048 1:0.003861 2:-0.926174 3:-0.876448 4:0.95302 
2048 1:-0.0733591 2:0.993289 4:-0.288591 
2048 1:-0.521236 2:0.261745 3:-0.0849421 4:0.402685 
2048 1:-0.111969 2:0.986577 3:-0.0965251 4:-0.731544 
2048 1:0.494208 2:0.181208 3:0.297297 4:0.14094 
10.49020636745529 1:0.138996 2:0.261745 3:-0.891892 4:-0.369128 
1838.86421438671 1:0.00772201 2:-0.651007 3:-0.849421 4:0.0201342 
534.6008844389148 1:-0.930502 2:-0.288591 3:-0.127413 4:0.711409 
280.5593126852046 1:-0.764479 2:-0.838926 3:-0.722008 4:0.442953 
2048 1:0.69112 2:0.771812 3:0.679537 4:-0.577181 
965.742009388813 1:0.57529 2:0.912752 3:0.687259 4:-0.771812 
1540.045949273265 1:0.899614 2:-0.724832 3:0.332046 4:0.852349 
1824.646138829568 1:-0.675676 2:0.114094 3:0.034749 4:0.0738255 
1607.581942218074 1:0.830116 2:-0.919463 3:0.482625 4:-0.0536913 
2048 1:-0.891892 2:0.107383 3:-0.741313 4:-0.738255 
988.5650425172996 1:0.142857 2:0.959732 3:-0.478764 4:-0.657718 
2048 1:0.111969 2:-0.510067 3:-0.918919 4:-0.832215 
2048 1:0.779923 2:-0.422819 3:0.293436 4:0.926174 
965.7030778974264 1:-0.938224 2:0.0402685 3:-0.0501931 4:0.718121 
2048 1:-0.629344 2:0.342282 3:-0.853282 4:-0.818792 
2048 1:0.019305 2:0.812081 3:-0.440154 4:-0.234899 
2048 1:-0.3861 2:-0.201342 3:-0.162162 4:0.630872 
579.156744757778 1:-0.857143 2:-0.563758 3:-0.911197 4:-0.369128 
1589.474575347183 1:0.888031 2:0.691275 3:0.694981 4:0.785235 
2047.88076972289 1:-0.142857 2:0.557047 3:-0.602317 4:0.402685 
2048 1:-0.027027 2:-0.33557 3:-0.675676 4:-0.724832 
420.0892009538794 1:0.123552 2:-0.644295 3:-0.65251 4:-0.973154 
599.5129612436444 1:0.849421 2:-0.912752 3:0.432432 4:0.174497 
2048 1:0.667954 2:-0.469799 3:0.401544 4:-0.0738255 
428.8489214540102 1:0.100386 2:-0.604027 3:-0.841699 4:-0.932886 
2048 1:-0.0810811 2:-0.134228 3:-0.027027 4:0.516779 
2048 1:-0.725869 2:0.590604 3:-0.196911 4:-0.932886 
2048 1:-0.598456 2:0.107383 3:-0.366795 4:-0.758389 
696.0853875721103 1:0.772201 2:-0.463087 3:0.760618 4:0.100671 
2048 1:0.111969 2:0.268456 3:0.011583 4:-0.42953 
2048 1:0.548263 2:0.328859 3:0.525097 4:0.255034 
508.3842388377888 1:-0.903475 2:-0.671141 3:-0.69112 4:0.503356 
91.82733920602364 1:-0.490347 2:0.187919 3:-0.30888 4:-1 
819.0252641383319 1:0.393822 2:-0.597315 3:0.328185 4:-0.255034 
2048 1:0.324324 2:-0.295302 3:0.444015 4:0.986577 
948.2812252945121 1:-0.92278 2:-0.214765 3:-0.540541 4:0.624161 
1432.194851185781 1:0.633205 2:-0.147651 3:0.316602 4:-0.90604 
1106.803918574103 1:-0.969112 2:-0.563758 3:0.104247 4:-0.563758 
1493.130654223871 1:0.119691 2:-0.644295 3:-0.965251 4:0.590604 
2048 1:-0.204633 2:0.0201342 3:-0.019305 4:-0.134228 
2048 1:0.733591 2:-0.127517 3:0.660232 4:0.0536913 
34.65572531146597 1:1 2:-0.684564 3:0.957529 4:0.785235 
886.6863856113545 1:0.57529 2:-0.436242 3:0.332046 4:-0.939597 
2048 1:0.610039 2:-0.812081 3:0.447876 4:-0.154362 
163.1185815691701 1:0.343629 2:-0.369128 3:0.370656 4:-0.543624 
2048 1:-0.965251 2:-0.147651 3:-0.127413 4:-0.228188 
2048 1:0.46332 2:0.919463 3:0.725869 4:-0.255034 
819.4797200695508 1:0.389961 2:-0.174497 3:0.772201 4:-0.926174 
2048 1:-0.88417 2:0.463087 3:-0.11583 4:-0.724832 
1052.690442568434 1:-0.46332 2:-0.979866 3:-0.644788 4:0.0604027 
1502.651799223178 1:0.413127 2:-0.308725 3:0.953668 4:-0.228188 
2048 1:-0.945946 2:0.765101 3:-0.374517 4:-0.684564 
1664.754782230542 1:-0.667954 2:0.00671141 3:-0.150579 4:0.395973 
2048 1:0.563707 2:-0.805369 3:0.235521 4:0.161074 
2048 1:0.853282 2:0.610738 3:0.586873 4:-0.516779 
2048 1:-0.0772201 2:-0.369128 3:-0.737452 4:-0.167785 
2048 1:0.698842 2:0.610738 3:0.239382 4:-0.791946 
2048 1:0.733591 2:-0.637584 3:0.733591 4:0.268456 
2048 1:-0.023166 2:-0.416107 3:0.123552 4:0.416107 
2048 1:0.015444 2:-0.798658 3:-0.559846 4:-0.0536913 
1202.449000279254 1:-0.911197 2:0.731544 4:-0.0872483 
2048 1:0.552124 2:-0.167785 3:0.416988 4:-0.436242 
2048 1:-0.119691 2:0.778523 3:-0.023166 4:-0.114094 
1790.893906034566 1:-0.571429 2:-0.161074 3:0.150579 4:-0.899329 
328.0065700619504 1:0.822394 2:-0.315436 3:0.57529 4:-0.577181 
2048 1:-0.436293 2:-0.61745 3:-0.127413 4:-0.0872483 
365.1122102080122 1:-0.517375 2:0.791946 3:0.003861 4:-0.0872483 
2048 1:0.752896 2:0.879195 3:0.779923 4:0.583893 
2048 1:-0.015444 2:-0.489933 3:-0.374517 4:-0.0536913 
2048 1:0.980695 2:0.275168 3:0.46332 4:-0.395973 
2048 1:0.0772201 2:0.812081 3:-0.899614 4:-0.402685 
2048 1:0.100386 2:-0.516779 3:0.027027 4:0.342282 
2048 1:0.799228 2:0.234899 3:0.818533 4:0.489933 
1914.693534929208 1:-0.621622 2:-0.248322 3:-0.015444 4:-0.315436 
2048 1:-0.0501931 2:-0.302013 3:-0.953668 4:-0.731544 
2048 1:-0.675676 2:0.127517 3:-0.517375 4:0.711409 
2048 1:0.003861 2:-0.275168 3:-0.293436 4:0.241611 
2048 1:0.277992 2:0.691275 3:0.455598 4:-0.0939597 
2048 1:0.285714 2:-0.395973 3:0.888031 4:0.684564 
90.36774712284473 1:-0.918919 2:-0.791946 3:-0.996139 4:-0.268456 
2048 1:0.687259 2:0.33557 3:0.42471 4:-0.362416 
2048 1:0.301158 2:0.174497 3:0.837838 4:0.711409 
2048 1:-0.586873 2:0.0536913 3:-0.015444 4:-0.597315 
2048 1:-0.953668 2:-0.348993 3:-0.19305 4:-0.778523 
631.2439659550347 1:-0.378378 2:-0.161074 3:-0.0694981 4:0.375839 
216.1610216751771 1:-0.949807 2:-0.939597 3:-0.795367 4:0.288591 
2048 1:0.0501931 2:0.416107 3:0.146718 4:0.778523 
1472.32585211893 1:-0.945946 2:-0.657718 3:-0.687259 4:0.409396 
539.1966611752144 1:-0.930502 2:-0.0872483 3:0.0617761 4:0.174497 
2048 1:-0.0656371 2:-0.557047 3:-0.72973 4:0.348993 
1843.155962368185 1:-0.440154 2:-0.979866 3:-0.0772201 4:-0.637584 
2048 1:-0.034749 2:-0.201342 3:0.023166 4:-0.671141 
1989.114380320244 1:0.436293 2:-0.657718 3:0.718147 4:0.85906 
2048 1:0.69112 2:0.100671 3:0.984556 4:0.503356 
1682.310009679992 1:-0.401544 2:-0.751678 3:-0.498069 4:-0.33557 
2048 1:-0.166023 2:-0.134228 3:-0.783784 4:0.234899 
2048 1:0.409266 2:-0.201342 3:0.250965 4:0.691275 
650.364276661988 1:-0.216216 2:0.825503 3:-0.0617761 4:-0.214765 
1956.242024101212 1:0.428571 2:-0.14094 3:0.953668 4:-0.221477 
2048 1:-0.30888 2:-0.832215 3:-0.0617761 4:0.912752 
5.493150451254375 1:-0.042471 2:-0.496644 3:-0.96139 4:0.348993 
2048 1:0.374517 2:0.174497 3:0.667954 4:0.369128 
2048 1:-0.0579151 2:-0.355705 3:0.0733591 4:0.684564 
2048 1:0.378378 2:-0.583893 3:0.362934 4:0.744966 
511.306051076375 1:-0.826255 2:-0.510067 3:-0.841699 4:0.241611 
2048 1:0.119691 2:0.798658 3:-0.633205 4:-0.489933 
929.8636382989597 1:-0.239382 2:-0.919463 3:0.111969 4:0.798658 
1570.651157117994 1:0.84556 2:0.281879 3:0.34749 4:0.704698 
470.1005161730944 1:-0.262548 2:-0.912752 3:-0.378378 4:-0.791946 
622.7800703239584 1:-0.926641 2:-0.604027 3:-0.162162 4:0.530201 
1652.753231630665 1:0.764479 2:-0.0872483 3:0.65251 4:-0.107383 
2048 1:0.841699 2:0.0738255 3:0.301158 4:0.127517 
2048 1:0.459459 2:0.348993 3:0.84556 4:0.785235 
2048 1:-0.756757 2:-0.456376 3:-0.189189 4:-0.744966 
672.3852499403338 1:-0.0926641 2:1 3:0.015444 4:0.33557 
2048 1:-0.042471 2:-0.563758 3:-0.374517 4:-0.959732 
2048 1:-0.374517 2:-0.66443 3:-0.27027 4:-0.0805369 
296.9413269783483 1:-0.899614 2:0.986577 3:-0.490347 4:0.268456 
2048 1:0.899614 2:-0.731544 3:0.702703 4:0.637584 
876.095243657913 1:0.374517 2:0.738255 3:0.837838 4:-0.979866 
2048 1:-0.19305 2:0.114094 3:-0.405405 4:-0.604027 
210.582047605381 1:0.301158 2:-0.416107 3:0.644788 4:0.0201342 
1275.274057812392 1:-0.911197 2:-0.114094 3:-0.571429 4:0.785235 
2048 1:0.401544 2:-0.302013 3:0.694981 4:0.932886 
1668.204785293045 1:-0.011583 2:0.147651 3:-0.598456 4:0.0671141 
2048 1:-0.297297 2:0.248322 3:-0.258687 4:-0.0805369 
2048 1:0.104247 2:0.785235 3:-0.0888031 4:0.42953 
2048 1:0.552124 2:0.221477 3:0.586873 4:-0.395973 
2048 1:-0.911197 2:0.912752 3:-0.003861 4:-0.268456 
2048 1:0.606178 2:-0.644295 3:0.625483 4:-0.42953 
2048 1:0.362934 2:0.704698 3:0.559846 4:-0.201342 
2048 1:-0.119691 2:0.536913 3:-0.409266 4:-0.234899 
2048 1:-0.19305 2:-0.765101 3:0.138996 4:0.268456 
2048 1:0.362934 2:-0.268456 3:0.80695 4:-0.42953 
2048 1:-0.46332 2:-0.483221 3:-0.370656 4:0.52349 
681.892201088243 1:0.111969 2:0.214765 3:0.0926641 4:0.47651 
1199.76351323374 1:-0.108108 2:-0.167785 3:-0.23166 4:0.979866 
2048 1:-0.243243 2:0.0134228 3:-0.440154 4:-0.355705 
963.8571070372939 1:0.135135 2:-0.543624 3:0.023166 4:0.919463 
2048 1:-0.0810811 2:-0.369128 3:-0.189189 4:0.302013 
2048 1:0.482625 2:0.0939597 3:0.864865 4:-0.0469799 
2048 1:0.011583 2:-0.724832 3:-0.378378 4:-0.691275 
208.7791754656494 1:-0.861004 2:-0.872483 3:-0.702703 4:0.557047 
1199.198331803622 1:-0.776062 2:0.0268456 3:-0.868726 4:-0.550336 
1098.31141032529 1:0.444015 2:1 3:0.868726 4:0.389262 
558.3898845257941 1:-0.305019 2:0.939597 3:-0.822394 4:-0.691275 
2025.471536392733 1:-0.795367 2:0.912752 3:-0.656371 4:0.402685 
2048 1:-0.915058 2:-0.644295 3:-0.034749 4:-0.362416 
290.0518113551028 1:0.548263 2:-0.825503 3:0.992278 4:-0.395973 
1532.995154321801 1:0.382239 2:-0.167785 3:0.949807 4:0.785235 
2048 1:-0.606178 2:0.328859 3:-0.517375 4:0.167785 
2048 1:0.332046 2:0.677852 3:0.281853 4:-0.416107 
964.0822927242136 1:0.949807 2:0.395973 3:0.980695 4:0.778523 
2048 1:0.432432 2:0.751678 3:0.996139 4:0.825503 
1718.683614291905 1:-0.756757 2:-0.516779 3:-0.822394 4:-0.221477 
271.1913974306252 1:0.926641 2:-0.973154 3:0.598456 4:0.926174 
2048 1:-0.196911 2:-0.134228 3:-0.258687 4:0.463087 
2048 1:-0.11583 2:0.00671141 3:-0.135135 4:-0.0939597 
2048 1:-0.042471 2:0.973154 3:-0.0965251 4:0.362416 
167.1890617383119 1:-0.96139 2:0.758389 3:0.123552 4:-0.926174 
2048 1:0.432432 2:-0.107383 3:0.517375 4:-0.95302 
2048 1:-0.710425 2:0.409396 3:-0.752896 4:0.208054 
2048 1:-0.23166 2:-0.818792 3:-0.861004 4:0.134228 
1673.786682095445 1:0.339768 2:-0.114094 3:0.467181 4:-0.61745 
62.16183763776347 1:-0.532819 2:-0.751678 3:-0.0849421 4:0.738255 
92.84951076488832 1:-0.243243 2:-0.100671 3:-0.957529 4:-0.973154 
2048 1:0.617761 2:-0.52349 3:0.945946 4:-0.510067 
2048 1:0.11583 2:-0.422819 3:-0.88417 4:0.342282 
2048 1:-0.46332 2:-0.342282 3:-0.0965251 4:0.0268456 
2048 1:0.725869 2:-0.409396 3:0.749035 4:0.0134228 
765.9162443197697 1:-0.030888 2:-0.0268456 3:-0.861004 4:-0.697987 
2048 1:-0.471042 2:-0.120805 3:-0.772201 4:-0.845638 
1525.252783833125 1:0.11583 2:-0.644295 3:-0.694981 4:0.946309 
2048 1:0.027027 2:0.0134228 3:-0.644788 4:0.33557 
2048 1:0.760618 2:-0.322148 3:0.830116 4:0.228188 
617.1868740000183 1:0.694981 2:0.892617 3:0.389961 4:-0.436242 
426.8632851070054 1:-0.567568 2:-0.704698 3:0.0540541 4:-0.711409 
1909.827519561674 1:-0.891892 2:0.134228 3:-0.942085 4:-0.42953 
1126.728815562114 1:-0.76834 2:-0.879195 3:-0.957529 4:-0.503356 
2048 1:0.0501931 2:0.0536913 3:-0.814672 4:-0.644295 
2048 1:0.355212 2:0.0201342 3:0.953668 4:0.503356 
1640.358837096169 1:-0.208494 2:-0.127517 3:-0.305019 4:0.805369 
751.2193802112124 1:0.0888031 2:0.322148 3:0.135135 4:0.409396 
2048 1:-0.0617761 2:0.610738 3:-0.108108 4:-0.657718 
56.71463819843886 1:-0.185328 2:-0.865772 3:-0.945946 4:0.563758 
2048 1:-0.864865 2:-0.208054 3:-0.42471 4:-0.295302 
2048 1:0.428571 2:0.261745 3:0.764479 4:-0.704698 
63.14518077154208 1:-0.710425 2:-0.127517 3:-0.494208 4:0.255034 
29.64954420810537 1:0.683398 2:-0.838926 3:0.810811 4:-0.442953 
356.9081195133973 1:0.274131 2:0.161074 3:0.254826 4:0.751678 
2048 1:0.397683 2:0.637584 3:0.872587 4:0.187919 
21.93699208415163 1:0.111969 2:-0.966443 3:-0.57529 4:-0.120805 
1915.613421467912 1:-0.343629 2:0.0939597 3:-0.76834 4:0.0536913 
1015.600054304561 1:-0.617761 2:0.308725 3:-0.818533 4:0.362416 
2046.546546417897 1:0.969112 2:0.536913 3:0.96139 4:0.436242 
2048 1:0.733591 2:0.677852 3:0.698842 4:0.295302 
409.3623239411791 1:0.517375 2:-0.0268456 3:0.945946 4:-0.61745 
2048 1:0.610039 2:0.255034 3:0.945946 4:-0.758389 
1716.507183539542 1:-0.903475 2:-0.845638 3:-0.521236 4:0.395973 
2048 1:-0.428571 2:-0.536913 3:-0.162162 4:0.174497 
2048 1:-0.150579 2:-0.825503 3:0.027027 4:-0.885906 
2048 1:-0.19305 2:0.295302 3:-0.0501931 4:-0.577181 
2048 1:0.756757 2:-0.865772 3:0.243243 4:0.181208 
245.3449405066934 1:-0.559846 2:0.818792 3:-0.015444 4:-0.590604 
143.6640287314474 1:-0.776062 2:-0.738255 3:0.015444 4:0.42953 
795.156387088164 1:0.953668 2:0.791946 3:0.718147 4:0.127517 
1848.660707711917 1:-0.945946 2:-0.248322 3:-0.301158 4:-0.765101 
376.4312286658454 1:0.733591 2:0.0604027 3:0.945946 4:-0.697987 
425.5618641539469 1:-0.702703 2:-0.66443 3:-0.826255 4:0.0536913 
451.3041905727275 1:0.980695 2:-0.697987 3:0.702703 4:0.959732 
2048 1:-0.586873 2:-0.362416 3:0.0926641 4:0.214765 
2048 1:-0.100386 2:0.691275 3:0.003861 4:0.0604027 
2048 1:0.015444 2:0.912752 3:0.11583 4:0.234899 
2048 1:-0.706564 2:0.355705 3:-0.637066 4:0.0939597 
2048 1:0.305019 2:0.100671 3:0.864865 4:0.865772 
558.8613851144016 1:-0.00772201 2:-0.302013 3:-0.841699 4:0.503356 
2048 1:0.416988 2:0.718121 3:0.57529 4:-0.0805369 
703.7849023055153 1:0.266409 2:0.744966 3:0.702703 4:0.865772 
2048 1:0.490347 2:0.167785 3:0.864865 4:0.355705 
1049.207923962576 1:-0.138996 2:-0.939597 3:-0.216216 4:0.671141 
336.6456746490949 1:-0.15444 2:0.872483 3:0.123552 4:-0.899329 
1434.129765260184 1:-0.718147 2:0.979866 3:-0.749035 4:-0.604027 
2048 1:0.0617761 2:0.161074 3:-0.378378 4:-0.758389 
1701.488606056241 1:-0.042471 2:-0.0671141 3:-0.80695 4:-0.946309 
347.6324079632225 1:-0.208494 2:-0.932886 3:-0.818533 4:0.590604 
2048 1:-0.208494 2:-0.0604027 3:-0.034749 4:-0.322148 
603.3320205820554 1:0.285714 2:-0.805369 3:0.84556 4:-0.449664 
1987.029318690345 1:-0.969112 2:-0.201342 3:0.127413 4:-0.47651 
2003.498525033983 1:-0.478764 2:0.993289 3:-0.57529 4:0.489933 
2048 1:0.0540541 2:0.248322 3:-0.0810811 4:0.0134228 
1660.384188531685 1:0.00772201 2:-0.0469799 3:-1 4:0.771812 
752.9539309501495 1:0.374517 2:-0.456376 3:0.783784 4:0.389262 
2048 1:0.003861 2:-0.261745 3:-0.903475 4:0.651007 
1921.297143598804 1:0.413127 2:-0.90604 3:0.471042 4:-0.0939597 
2048 1:-0.555985 2:1 3:-0.11583 4:-0.711409 
1296.554154485327 1:0.521236 2:-0.456376 3:0.830116 4:-0.248322 
2048 1:-0.405405 2:0.0268456 3:-0.027027 4:-0.302013 
2048 1:-0.046332 2:-0.483221 3:-0.420849 4:-0.778523 
781.5879126679326 1:-0.212355 2:-0.0402685 3:-0.142857 4:-0.919463 
1670.765094309361 1:0.610039 2:0.939597 3:0.733591 4:0.127517 
2048 1:0.324324 2:0.704698 3:0.671815 4:0.281879 
2048 1:-0.799228 2:-0.436242 3:0.150579 4:-0.47651 
2048 1:0.447876 2:0.355705 3:0.478764 4:-0.47651 
2048 1:-0.023166 2:-0.637584 3:-0.0888031 4:0.879195 
2048 1:-0.756757 2:-0.825503 3:-0.891892 4:0.0738255 
2048 1:-0.687259 2:0.14094 3:-0.776062 4:-0.208054 
2048 1:-0.177606 2:0.738255 3:-0.011583 4:-0.248322 
2048 1:0.03861 2:-0.791946 3:-0.0540541 4:-0.261745 
2048 1:-0.0694981 2:-0.704698 3:-0.586873 4:0.530201 
2048 1:-0.208494 2:0.557047 3:-0.030888 4:-0.0134228 
2048 1:-0.698842 2:0.95302 3:-0.69112 4:0.610738 
2048 1:-0.0540541 2:-0.52349 3:-0.498069 4:-0.630872 
340.9019668454574 1:0.409266 2:-0.791946 3:0.772201 4:0.711409 
2048 2:-0.738255 3:-0.714286 4:0.134228 
2048 1:-0.150579 2:-0.718121 3:-0.617761 4:-0.939597 
1033.341113292013 1:0.027027 2:-0.805369 3:-0.648649 4:-0.228188 
2048 1:-0.0579151 2:0.362416 3:-0.042471 4:-0.604027 
34.83059689630587 1:0.416988 2:0.771812 3:0.583012 4:-0.557047 
2048 1:0.258687 2:0.85906 3:0.864865 4:-0.456376 
935.485539408574 1:-0.405405 2:-0.0872483 3:-0.362934 4:0.221477 
2048 1:0.513514 2:-0.395973 3:0.745174 4:0.85906 
2048 1:0.451737 2:0.348993 3:0.837838 4:-0.442953 
196.7605199885238 1:-0.957529 2:-0.0939597 3:-0.378378 4:-0.852349 
2048 1:-0.146718 2:0.395973 3:0.146718 4:-0.61745 
304.0677347674524 1:-0.0617761 2:1 3:-0.212355 4:0.718121 
2048 1:0.03861 2:0.355705 3:-0.0694981 4:-0.557047 
2048 1:-0.0501931 2:-0.530201 3:-0.822394 4:-0.416107 
1085.565058206307 1:0.011583 2:-0.147651 3:-0.683398 4:-0.0402685 
2048 1:0.316602 2:-0.503356 3:0.274131 4:0.85906 
115.7633714233361 1:0.432432 2:0.194631 3:0.235521 4:-0.818792 
2048 1:-0.698842 2:0.986577 3:-0.783784 4:-0.295302 
1935.501557836896 1:-0.579151 2:-0.275168 3:-0.428571 4:-0.288591 
160.071782492611 1:-0.416988 2:-0.134228 3:-0.0579151 4:0.651007 
2048 1:0.281853 2:0.959732 3:0.72973 4:0.463087 
717.4458094262645 1:-0.903475 2:0.0469799 3:-0.362934 4:0.154362 
1932.2555245527 1:-0.393822 2:-0.120805 3:-0.285714 4:-0.0268456 
1895.156087270863 1:0.779923 2:0.583893 3:0.254826 4:-0.778523 
825.6511861423668 1:0.698842 2:0.187919 3:0.501931 4:0.14094 
37.8834839770896 1:-0.011583 2:-0.597315 3:-0.555985 4:-0.805369 
467.9196309323335 1:-0.513514 2:0.422819 3:-0.945946 4:-0.691275 
1399.023635629486 1:0.741313 2:0.778523 3:0.795367 4:0.255034 
863.9424555681342 1:0.96139 2:-0.52349 3:0.972973 4:0.812081 
2048 1:-0.15444 2:-0.724832 3:-0.579151 4:0.127517 
677.5851154800093 1:-0.509653 2:-0.348993 3:-0.0810811 4:-0.14094 
2048 1:0.482625 2:0.805369 3:0.617761 4:-0.536913 
2048 1:-0.428571 2:-0.52349 3:-0.602317 4:0.543624 
2048 1:-0.324324 2:-0.154362 3:-0.316602 4:0.691275 
2048 1:0.027027 2:-0.785235 3:-0.297297 4:-0.85906 
202.5448560288216 1:0.378378 2:-0.885906 3:0.46332 4:-0.42953 
1841.61231254916 1:0.945946 2:-0.550336 3:0.664093 4:0.0604027 
1397.300741175775 1:0.150579 2:0.181208 3:-0.895753 4:0.697987 
1767.864823648491 1:-0.555985 2:-0.852349 3:-0.370656 4:-0.697987 
2048 1:-0.370656 2:-0.201342 3:-0.702703 4:-0.838926 
2048 1:0.57529 2:0.919463 3:0.328185 4:0.0536913 
2048 1:0.104247 2:-0.872483 3:0.0501931 4:0.483221 
2048 1:0.003861 2:0.496644 3:-0.03861 4:-0.590604 
2048 1:0.72973 2:0.677852 3:0.810811 4:-0.416107 
1489.746497749141 1:0.374517 2:-0.449664 3:0.776062 4:-0.456376 
2048 1:0.486486 2:-0.697987 3:0.312741 4:0.771812 
2048 1:-0.934363 2:0.778523 3:-0.413127 4:-0.315436 
1795.965096515154 1:-0.772201 2:0.939597 3:-0.3861 4:-0.100671 
430.9634347131106 1:1 2:-0.483221 3:0.258687 4:-0.402685 
2048 1:0.555985 2:-0.610738 3:0.718147 4:-0.302013 
2048 1:-0.042471 2:0.114094 3:-0.027027 4:-0.657718 
1997.666065981048 1:0.749035 2:0.127517 3:0.876448 4:0.557047 
2048 1:-0.034749 2:-0.416107 3:-0.849421 4:0.483221 
8.865058611755483 1:-0.53668 2:0.248322 3:-0.324324 4:0.328859 
2048 1:-0.127413 2:-0.758389 3:-0.972973 4:0.704698 
1562.788316346604 1:-0.220077 2:-0.979866 3:-0.393822 4:0.798658 
2048 1:0.409266 2:-0.241611 3:0.451737 4:0.993289 
2048 1:-0.0579151 2:-0.483221 3:-0.872587 4:0.167785 
2048 1:-0.482625 2:-0.52349 3:-0.185328 4:-0.0402685 
2048 1:0.351351 2:-0.214765 3:0.656371 4:-0.536913 
2048 1:-0.540541 2:0.510067 3:-0.042471 4:-0.731544 
2048 1:-0.745174 2:0.0469799 3:-0.459459 4:-0.597315 
2048 1:-0.633205 2:0.0469799 3:-0.718147 4:0.33557 
1008.341514239056 1:-0.679537 2:0.14094 3:-0.698842 4:-0.798658 
2048 1:0.335907 2:0.114094 3:0.467181 4:0.261745 
2048 1:-0.776062 2:0.134228 3:-0.517375 4:0.288591 
252.7885184039278 1:0.247104 2:-0.939597 3:0.586873 4:-0.120805 
2048 1:-0.23166 2:-0.85906 3:-0.911197 4:-0.47651 
2048 1:0.953668 2:0.456376 3:0.810811 4:-0.536913 
2048 1:-0.841699 2:-0.422819 3:-0.494208 4:0.107383 
2048 1:0.671815 2:-0.201342 3:0.664093 4:0.194631 
2048 1:0.046332 2:-0.778523 3:-0.146718 4:-0.033557 
727.6065968353166 1:0.756757 2:0.0134228 3:0.984556 4:-0.0939597 
528.5312472149647 1:0.0733591 2:0.389262 3:-0.019305 4:-0.738255 
2048 1:-0.92278 2:0.0671141 3:-0.011583 4:-0.691275 
929.1875347124138 1:0.930502 2:-0.0738255 3:0.683398 4:0.879195 
2048 1:-0.648649 2:0.785235 3:-0.92278 4:-0.691275 
1090.774466268287 1:-0.899614 2:-0.919463 3:-0.494208 4:-0.47651 
2048 1:-0.420849 2:-0.241611 3:-0.332046 4:0.597315 
2048 1:-0.204633 2:-1 3:-0.015444 4:-0.181208 
1884.764278207038 1:-0.567568 2:-0.302013 3:-0.127413 4:-0.738255 
2048 1:0.023166 2:0.785235 3:-0.100386 4:-0.66443 
2048 1:-0.173745 2:-0.0872483 3:-0.034749 4:0.0939597 
2048 1:0.498069 2:-0.691275 3:0.362934 4:0.986577 
1459.973340525699 1:-0.444015 2:-0.275168 3:-0.760618 4:-0.583893 
2048 1:-0.849421 2:-0.630872 3:0.019305 4:-0.214765 
411.0044953570639 1:0.471042 2:0.0738255 3:0.274131 4:-0.973154 
271.5391574692432 1:-0.88417 2:-0.852349 3:-0.482625 4:0.691275 
2048 1:0.559846 2:-0.456376 3:0.420849 4:-0.241611 
1593.548388356416 1:-0.509653 2:0.187919 3:0.0579151 4:-0.838926 
464.0247287120604 1:-0.88417 2:0.38255 3:-0.965251 4:-0.288591 
2048 1:-0.444015 2:-0.342282 3:0.100386 4:0.657718 
2048 1:-0.810811 2:-0.536913 3:-0.0656371 4:-0.590604 
164.5967186152101 1:0.965251 2:0.275168 3:0.722008 4:-0.57047 
2048 1:0.702703 2:0.348993 3:0.544402 4:-0.033557 
1535.211763952913 1:-0.861004 2:0.107383 3:-0.0733591 4:0.261745 
48.71309757991416 1:-0.945946 2:-0.402685 3:-0.046332 4:0.939597 
1705.96141230813 1:-0.953668 2:-0.248322 3:-0.0656371 4:0.281879 
222.0241834826253 1:-0.841699 2:0.993289 4:-1 
2048 1:-0.332046 2:0.630872 3:-0.366795 4:-0.718121 
1180.057841316088 1:-0.204633 2:0.221477 3:-0.351351 4:-0.691275 
2048 1:-0.023166 2:-0.651007 3:-0.579151 4:-0.630872 
2048 1:-0.0540541 2:-0.979866 3:-0.220077 4:-0.865772 
36.39887309636898 1:-0.803089 2:-0.818792 3:-0.505792 4:0.275168 
2048 1:-0.505792 2:-0.503356 3:-0.003861 4:-0.449664 
2048 1:-0.401544 2:0.516779 3:0.030888 4:0.939597 
1619.020298465292 1:-1 2:-0.536913 3:-0.69112 4:0.147651 
2048 1:0.0579151 2:-0.845638 3:-0.227799 4:-1 
1507.968091707572 1:-0.42471 2:-0.194631 3:-0.474903 4:1 
1452.300762372235 1:0.749035 2:-0.536913 3:0.637066 4:1 
2048 1:-0.416988 2:-0.577181 3:0.0501931 4:0.100671 
693.1655404387369 1:-0.455598 2:0.885906 3:-0.791506 4:0.114094 
2048 1:-0.0617761 2:-0.0469799 3:-0.127413 4:-0.194631 
2048 1:0.660232 2:-0.778523 3:0.370656 4:0.744966 
227.4398507040233 1:-0.772201 2:-0.14094 3:-0.447876 4:-0.127517 
2048 1:0.111969 2:0.550336 3:0.03861 4:-0.85906 
1523.863098640663 1:-0.795367 2:0.0268456 3:-0.409266 4:-0.993289 
1754.721889494904 1:0.138996 2:0.959732 3:-0.722008 4:0.85906 
2028.931330510846 1:0.015444 2:0.879195 3:0.0849421 4:-0.979866 
531.1924885256151 1:-0.459459 2:1 3:-0.432432 4:-0.0402685 
2048 1:-0.03861 2:-0.697987 3:-0.393822 4:-0.194631 
2048 1:-0.451737 2:-0.489933 3:-0.772201 4:0.214765 
2048 1:-0.00772201 2:0.38255 3:-0.138996 4:-0.107383 
1762.143982155257 1:-0.432432 2:-0.946309 3:-0.142857 4:-0.845638 
2048 1:-0.0926641 2:-0.221477 3:-0.814672 4:-0.409396 
647.5823334689436 1:-0.239382 2:-0.959732 3:-0.100386 4:-0.744966 
2048 1:-0.478764 2:-0.402685 3:-0.0579151 4:-0.993289 
1178.222898148585 1:-0.548263 2:0.932886 3:-0.0926641 4:0.0402685 
1059.251040925133 1:0.818533 2:0.744966 3:0.57529 4:0.255034 
2048 1:0.003861 2:-0.0805369 3:0.015444 4:-0.275168 
10.37347727625477 1:0.849421 2:-1 3:0.339768 4:-0.38255 
814.9061903300473 1:-0.629344 2:0.355705 3:-0.899614 4:-0.201342 
262.5692262426068 1:0.27027 2:-0.47651 3:0.833977 4:-0.671141 
2048 1:0.918919 2:-0.651007 3:0.610039 4:0.208054 
2048 1:-0.841699 2:-0.275168 3:-0.420849 4:-0.577181 
2048 1:0.791506 2:0.61745 3:0.710425 4:-0.214765 
640.8474261168521 1:-0.872587 2:0.563758 3:-0.853282 4:-0.624161 
2048 1:0.876448 2:0.302013 3:0.428571 4:-0.288591 
482.6688155833916 1:0.888031 2:0.738255 3:0.92278 4:0.47651 
122.2792708212398 1:-0.756757 2:-0.966443 3:-0.915058 4:-0.154362 
604.6872940970757 1:-0.440154 2:0.456376 3:-0.127413 4:-0.973154 
2048 1:0.142857 2:-0.651007 3:-0.926641 4:0.0872483 
122.1848635289961 1:-0.965251 2:0.85906 3:-0.84556 4:-0.221477 
2048 1:-0.243243 2:-0.100671 3:-0.498069 4:-0.248322 
1312.251812624595 1:-0.204633 2:0.449664 3:-0.799228 4:0.187919 
524.0244339520725 1:-0.683398 2:0.691275 3:-0.907336 4:-0.791946 
2048 1:-0.042471 2:0.0536913 3:-0.351351 4:0.288591 
2048 1:-0.0694981 2:-0.52349 3:-0.583012 4:-0.100671 
2048 1:-0.455598 2:0.899329 3:0.034749 4:0.0671141 
214.1877325326645 1:-0.0849421 2:0.986577 3:-0.0888031 4:0.939597 
905.4835359737501 1:0.830116 2:-0.973154 3:0.756757 4:0.369128 
2048 1:0.749035 2:0.181208 3:0.949807 4:-0.47651 
2048 1:-0.0579151 2:-0.637584 3:0.0733591 4:0.348993 
1199.049673471497 1:-0.915058 2:-0.402685 3:-0.934363 4:-0.181208 
2048 1:0.015444 2:-0.0738255 3:-0.818533 4:0.422819 
2048 1:0.00772201 2:0.208054 3:-0.169884 4:-0.758389 
2048 1:-0.343629 2:-0.765101 3:-0.586873 4:-0.644295 
2048 1:0.250965 2:-0.557047 3:0.355212 4:-0.161074 
1197.695863943404 1:-0.46332 2:-0.342282 4:0.973154 
2048 1:-0.285714 2:0.181208 3:-0.501931 4:0.187919 
681.5626863567354 1:-0.606178 2:-0.281879 3:0.003861 4:-0.785235 
2048 1:0.57529 2:-0.14094 3:0.988417 4:0.416107 
2048 1:-0.725869 2:-0.0738255 3:-0.359073 4:-0.14094 
2048 1:-0.382239 2:0.268456 3:-0.718147 4:0.0402685 
978.427065168661 1:-0.926641 2:-0.95302 3:-0.861004 4:0.234899 
2048 1:-0.590734 2:0.0939597 3:-0.791506 4:0.765101 
1644.980033649532 1:0.888031 2:-0.100671 3:0.625483 4:-0.416107 
1293.040766564483 1:-0.0926641 2:0.711409 3:-0.965251 4:-0.791946 
2048 1:0.428571 2:0.731544 3:0.687259 4:0.744966 
2048 1:-0.030888 2:-0.697987 3:-0.625483 4:0.812081 
2048 1:0.316602 2:-0.409396 3:0.579151 4:0.201342 
2048 1:0.150579 2:-0.919463 3:-0.332046 4:-0.0201342 
1546.360036513355 1:-0.722008 2:0.0671141 3:-0.123552 4:0.778523 
306.1578944046769 1:-0.810811 2:0.261745 3:-0.123552 4:-0.973154 
1130.308935570478 1:-0.030888 2:0.973154 3:-0.532819 4:-0.248322 
2048 1:0.393822 2:0.134228 3:0.88417 4:0.174497 
2048 1:0.0540541 2:0.281879 3:0.100386 4:-0.885906 
2048 1:0.776062 2:0.187919 3:0.378378 4:0.66443 
2048 1:-0.00772201 2:0.416107 3:-0.455598 4:-0.42953 
2048 1:-0.528958 2:0.61745 3:-0.764479 4:0.127517 
649.707685878866 1:-0.637066 2:0.798658 3:-0.749035 4:-0.0469799 
363.0033159048517 1:-0.586873 2:-0.0201342 3:-0.895753 4:-0.174497 
1606.576993177555 1:0.111969 2:0.355705 3:0.00772201 4:0.221477 
2048 1:-0.0810811 2:-0.369128 3:-0.942085 4:0.261745 
1636.360429004312 1:-0.552124 2:0.114094 3:-0.895753 4:-0.295302 
499.0510972253043 1:0.837838 2:-0.154362 3:0.918919 4:-0.295302 
2048 1:-0.0579151 2:-0.268456 3:-0.374517 4:-0.758389 
1126.848583237492 1:-0.752896 2:-0.208054 3:-0.907336 4:0.0738255 
2048 1:-0.0501931 2:-0.154362 3:-0.227799 4:0.536913 
2048 1:-0.046332 2:-0.510067 3:-0.853282 4:-0.194631 
911.3581085468057 1:-0.131274 2:-0.0872483 3:-0.135135 4:0.758389 
2048 1:0.586873 2:-0.00671141 3:0.378378 4:0.134228 
998.9329854814652 1:-0.11583 2:0.791946 3:-0.150579 4:-0.979866 
2048 1:0.123552 2:-0.879195 3:-0.03861 4:0.0805369 
493.760600177011 1:-0.0579151 2:-0.33557 3:-0.517375 4:0.47651 
2048 1:-0.594595 2:0.0201342 3:-0.490347 4:-0.543624 
2048 1:0.776062 2:0.697987 3:0.328185 4:-0.557047 
1346.490837618803 1:-0.243243 2:-0.845638 3:-0.679537 4:-0.90604 
2009.999849727921 1:0.135135 2:0.174497 3:-0.602317 4:0.315436 
39.07845770481708 1:0.942085 2:-0.0469799 3:0.841699 4:0.778523 
1460.412483636821 1:-0.760618 2:-0.355705 3:-0.185328 4:-0.959732 
2048 1:-0.316602 2:-0.738255 3:-0.0772201 4:0.671141 
2048 1:-0.714286 2:0.0536913 3:-0.741313 4:0.389262 
2048 1:0.57529 2:-0.14094 3:0.69112 4:0.348993 
2048 1:-0.247104 2:0.0872483 3:-0.525097 4:0.187919 
2048 1:0.521236 2:0.852349 3:0.305019 4:-0.604027 
97.75633126432898 1:-0.223938 2:0.0469799 3:0.104247 4:-1 
2048 1:-0.583012 2:-0.0604027 3:-0.281853 4:-0.758389 
2048 1:-0.181467 2:-0.818792 3:-0.104247 4:-0.993289 
345.640650291735 1:0.586873 2:0.959732 3:0.405405 4:0.14094 
2048 1:-0.965251 2:-0.114094 3:-0.6139 4:0.302013 
727.530453615035 1:-0.247104 2:-0.912752 3:-0.830116 4:0.033557 
2048 1:0.853282 2:0.342282 3:0.30888 4:0.127517 
2048 1:0.671815 2:-0.885906 3:0.683398 4:0.704698 
2048 1:-0.409266 2:0.194631 3:-0.023166 4:-0.47651 
2048 1:-0.436293 2:-0.208054 3:-0.0926641 4:-0.604027 
2048 1:-0.142857 2:-0.865772 3:-0.023166 4:-0.765101 
2048 1:0.528958 2:-0.489933 3:0.243243 4:-0.463087 
2048 1:-0.0965251 2:-0.181208 3:-0.814672 4:0.281879 
1306.947653104055 1:-0.451737 2:-0.208054 3:-0.19305 4:0.369128 
2048 1:-0.671815 2:-0.691275 3:0.034749 4:0.798658 
17.44474405002475 1:-0.88417 2:-0.624161 3:0.146718 4:0.711409 
2048 1:-0.239382 2:0.812081 3:-0.903475 4:-0.697987 
2048 1:-0.814672 2:0.348993 3:-0.378378 4:-0.704698 
2048 1:0.65251 2:0.328859 3:0.625483 4:0.261745 
2048 1:-0.525097 2:0.275168 3:-0.0579151 4:-0.234899 
2048 1:0.737452 2:-0.342282 3:0.324324 4:-0.389262 
2048 1:-0.235521 2:-0.825503 3:-0.003861 4:0.0872483 
1230.341182080881 1:-0.42471 2:-0.704698 3:-0.996139 4:-0.724832 
2048 1:0.0965251 2:0.671141 3:-0.030888 4:0.577181 
2048 1:-0.11583 2:-0.14094 3:-0.76834 4:0.114094 
1986.659485762401 1:0.447876 2:-0.697987 3:0.478764 4:0.959732 
2048 1:-0.042471 2:-0.33557 3:-0.664093 4:-0.724832 
2048 1:-0.567568 2:-0.838926 3:0.100386 4:-0.510067 
992.0520616366684 1:0.0617761 2:-0.919463 3:-0.888031 4:0.228188 
1009.372496291325 1:-0.478764 2:0.61745 3:0.0501931 4:0.0805369 
859.6479389314235 1:0.745174 2:-0.0201342 3:0.84556 4:-0.348993 
2048 1:-0.247104 2:0.832215 3:0.138996 4:-0.557047 
2048 1:0.420849 2:0.0939597 3:0.420849 4:0.765101 
675.952607311571 1:0.803089 2:-0.302013 3:0.509653 4:-0.033557 
2048 1:-0.494208 2:-0.52349 3:-0.471042 4:-0.550336 
1232.491962417059 1:-0.262548 2:0.409396 3:-0.602317 4:0.939597 
2048 1:-0.220077 2:0.791946 3:-0.474903 4:-0.42953 
2048 1:0.718147 2:-0.281879 3:0.702703 4:0.825503 
886.8535922476764 1:-0.837838 2:0.100671 3:-0.637066 4:-0.85906 
2048 1:-0.266409 2:0.671141 3:0.015444 4:-0.0671141 
299.7332670371187 1:-0.104247 2:0.295302 3:-0.915058 4:-0.268456 
1984.58551454961 1:0.0888031 2:0.221477 3:-0.138996 4:0.805369 
2048 1:0.903475 2:-0.201342 3:0.258687 4:0.147651 
2048 1:-0.455598 2:-0.550336 3:-0.343629 4:-0.0201342 
2048 1:0.710425 2:-0.355705 3:0.498069 4:0.147651 
273.6812110857306 1:0.030888 2:0.644295 3:-0.872587 4:0.147651 
271.4349039497133 1:-0.992278 2:0.161074 3:-0.0694981 4:-0.33557 
2048 1:-0.135135 2:-0.0671141 3:-0.420849 4:-0.33557 
2048 1:-0.266409 2:-0.14094 3:-0.359073 4:-0.751678 
595.9592311179634 1:0.138996 2:0.536913 3:-0.362934 4:-0.14094 
2048 1:-0.00772201 2:-0.248322 3:-0.965251 4:-0.771812 
751.6577475298419 1:-0.19305 2:0.838926 3:-0.810811 4:0.979866 
1896.415395544169 1:0.104247 2:0.738255 3:-0.243243 4:0.0402685 
2048 1:-0.413127 2:-0.161074 3:-0.389961 4:-0.0536913 
2048 1:-0.169884 2:-0.791946 3:-0.42471 4:-0.302013 
2048 1:0.405405 2:-0.288591 3:0.440154 4:0.174497 
2048 1:0.382239 2:0.986577 3:0.42471 4:-0.187919 
1485.676262207375 1:-0.617761 2:-0.791946 3:0.011583 4:-0.872483 
2048 1:-0.625483 2:-0.0939597 3:-0.212355 4:-0.778523 
2048 1:0.980695 2:-0.436242 3:0.725869 4:-0.201342 
2048 1:-0.583012 2:0.550336 3:0.0501931 4:-0.718121 
1106.796471464294 1:0.119691 2:0.765101 3:-0.389961 4:0.543624 
2048 1:0.444015 2:-0.201342 3:0.583012 4:0.033557 
1642.855711223622 1:-0.401544 2:0.986577 3:-0.416988 4:-0.604027 
196.1263729867316 1:-0.135135 2:0.442953 3:-0.679537 4:0.966443 
654.5589783661303 1:-0.0540541 2:-0.369128 3:-0.586873 4:-0.308725 
2048 1:-0.196911 2:-0.114094 3:-0.359073 4:-0.818792 
1742.195132697482 1:-0.440154 2:0.691275 3:-0.428571 4:0.268456 
308.8076102298168 1:-0.656371 2:0.348993 3:-0.150579 4:-0.033557 
2048 1:0.610039 2:-0.805369 3:0.857143 4:-0.355705 
2048 1:-0.6139 2:0.422819 3:-0.625483 4:0.469799 
2048 1:0.135135 2:-0.456376 3:-0.517375 4:-0.187919 
2048 1:-0.745174 2:0.469799 3:-0.451737 4:-0.483221 
2048 1:-0.656371 2:0.154362 3:-0.532819 4:0.90604 
2048 1:0.401544 2:0.731544 3:0.888031 4:-0.187919 
758.1781768790858 1:0.127413 2:-0.932886 3:-0.791506 4:0.85906 
2048 1:0.907336 3:0.34749 4:-0.201342 
2048 1:-0.30888 2:0.456376 3:-0.339768 4:-0.731544 
2048 1:0.586873 2:-0.00671141 3:0.760618 4:-0.14094 
124.8712283315417 1:-0.84556 2:1 3:0.0579151 4:0.483221 
120.6710355401465 1:-0.478764 2:0.926174 3:0.0694981 4:0.147651 
1841.330386637406 1:-0.328185 2:0.61745 3:0.00772201 4:-0.362416 
2048 1:-0.138996 2:0.697987 3:-0.258687 4:-0.785235 
494.043728642003 1:0.706564 2:0.624161 3:0.899614 4:0.946309 
1414.439553951731 1:0.745174 2:-0.879195 3:0.332046 4:0.973154 
1796.748615362816 1:-0.548263 2:0.342282 4:0.295302 
2048 1:0.629344 2:-0.0805369 3:0.366795 4:-0.114094 
2048 1:-0.011583 2:0.208054 3:-0.706564 4:0.134228 
521.1221450141443 1:-0.204633 2:0.798658 3:-0.918919 4:-0.872483 
2048 1:0.752896 2:-0.436242 3:0.69112 4:0.704698 
2048 1:-0.447876 2:-0.174497 3:-0.629344 4:-0.0134228 
2048 1:-0.895753 2:0.355705 3:-0.019305 4:-0.261745 
1274.978405472424 1:-0.980695 2:0.718121 3:-0.301158 4:-0.791946 
2048 1:-0.714286 2:-0.174497 3:-0.440154 4:-0.255034 
754.1832552955681 1:-0.830116 2:-0.95302 3:-0.220077 4:0.0536913 
2048 2:-0.597315 3:0.023166 4:-0.932886 
24.5674604893897 1:0.104247 2:0.697987 3:-0.942085 4:0.597315 
761.2090650559221 1:0.030888 2:-0.66443 3:0.011583 4:0.577181 
1453.928615153517 1:-0.857143 2:-0.677852 3:-0.80695 4:-0.691275 
278.7472815697204 1:-0.42471 2:-0.208054 3:-0.872587 4:0.731544 
2048 1:-0.015444 2:-0.0805369 3:-0.30888 4:-0.0738255 
228.761776481556 1:-0.162162 2:-0.785235 3:-0.888031 4:1 
961.4782962306666 1:-0.011583 2:-0.308725 3:-0.992278 4:-0.241611 
1694.895118705428 1:0.969112 2:-0.979866 3:0.440154 4:0.818792 
529.2587363143278 1:0.0772201 2:0.14094 3:-0.513514 4:-0.657718 
2048 1:-0.490347 2:-0.328859 3:-0.617761 4:0.00671141 
1074.196599125865 1:-0.610039 2:-0.489933 3:-0.96139 4:-0.765101 
1448.402666833895 1:-0.671815 2:0.463087 3:-0.416988 4:-0.214765 
2048 1:0.644788 2:0.261745 3:0.490347 4:0.912752 
2048 1:-0.339768 2:0.483221 3:0.042471 4:-0.852349 
2048 1:-0.405405 2:-0.107383 3:-0.459459 4:0.234899 
2048 1:0.679537 2:-0.42953 3:0.80695 4:0.255034 
2048 1:-0.200772 2:0.0604027 3:0.0772201 4:0.14094 
2048 1:-0.181467 2:0.912752 3:0.00772201 4:-0.731544 
2048 1:-0.528958 2:-0.308725 3:-0.772201 4:-0.033557 
2048 1:-0.0926641 2:-0.268456 3:-0.482625 4:0.489933 
2048 1:0.150579 2:-0.516779 3:-0.749035 4:0.409396 
399.2851272929028 1:-0.27027 2:0.0268456 3:-0.305019 4:-0.107383 
1519.578529811055 1:-0.27027 2:-0.926174 3:-0.378378 4:0.342282 
2048 1:-0.644788 2:0.0939597 3:-0.525097 4:0.161074 
2048 1:-0.127413 2:-0.127517 3:-0.868726 4:-0.281879 
384.2858284748551 1:-0.455598 2:-0.234899 3:-0.984556 4:0.677852 
2048 1:0.606178 2:-0.0939597 3:0.683398 4:-0.409396 
195.318899798792 1:-0.0733591 2:-0.0872483 3:-0.741313 4:0.812081 
2048 1:0.733591 2:0.718121 3:0.737452 4:0.100671 
1041.378298377021 1:0.0540541 2:-0.805369 3:-0.467181 4:0.52349 
1738.78660237083 1:-0.138996 2:-0.0872483 3:-0.694981 4:-0.979866 
2048 1:-0.312741 2:-0.114094 3:-0.027027 4:-0.590604 
2048 1:-0.72973 2:-0.543624 3:-0.756757 4:0.0536913 
2048 1:0.733591 2:0.731544 3:0.637066 4:-0.456376 
1224.229554959814 1:0.675676 3:0.602317 4:0.986577 
2048 1:-0.0694981 2:-0.375839 3:-0.733591 4:-0.791946 
2048 1:-0.416988 2:-0.577181 3:-0.521236 4:0.832215 
2048 1:-0.277992 2:-0.033557 3:-0.119691 4:-0.704698 
2048 1:0.27027 2:0.120805 3:0.521236 4:-0.0671141 
943.7166539559718 1:0.698842 2:0.812081 3:0.301158 4:0.946309 
2048 1:-0.0926641 2:0.52349 3:-0.42471 4:-0.47651 
2048 1:-0.88417 2:-0.449664 3:0.138996 4:-0.42953 
2048 2:-0.744966 3:-0.216216 4:0.691275 
1951.693158841297 1:-0.015444 2:-0.0536913 3:-0.868726 4:0.979866 
2048 1:-0.169884 2:-0.85906 3:-0.733591 4:-0.261745 
354.4360614042927 1:0.0733591 2:-0.912752 3:-0.212355 4:0.818792 
590.2798683866354 1:-0.428571 2:-0.557047 3:-0.969112 4:0.845638 
1595.651649601059 1:-0.382239 2:-0.167785 3:-0.274131 4:0.825503 
2048 1:-0.220077 2:-0.778523 3:-0.891892 4:-0.879195 
2048 1:0.679537 2:0.85906 3:0.540541 4:-0.503356 
437.7591136949291 1:-0.687259 2:-0.879195 3:0.135135 4:0.147651 
1402.616594682254 1:0.84556 2:-0.61745 3:0.351351 4:-0.14094 
1176.114654524101 1:0.432432 2:0.275168 3:0.374517 4:-0.805369 
572.2988396905545 1:0.876448 2:-0.872483 3:0.436293 4:-0.161074 
2048 1:0.694981 2:-0.838926 3:0.640927 4:-0.120805 
691.9794714413415 1:-0.837838 2:-0.926174 3:0.127413 4:0.704698 
1331.038563254646 1:-0.409266 2:-0.677852 3:-0.374517 4:0.57047 
2048 1:-0.220077 2:-0.845638 3:-0.332046 4:0.657718 
2048 1:0.0579151 2:-0.845638 3:-0.772201 4:0.161074 
1219.69588609323 1:-0.474903 2:0.362416 3:-0.606178 4:0.778523 
2048 1:0.034749 2:0.852349 3:-0.0617761 4:-0.288591 
974.0675016901604 1:-0.80695 2:0.765101 3:-0.895753 4:-0.114094 
928.5851809204337 1:0.135135 2:-0.456376 3:-0.698842 4:0.0536913 
2048 1:-0.015444 2:-0.355705 3:-0.355212 4:0.865772 
2048 1:-0.756757 2:0.583893 3:-0.0733591 4:-0.449664 
211.906646246629 1:-0.918919 2:-0.0805369 3:-0.841699 4:0.845638 
396.2633004371727 1:0.316602 2:0.731544 3:0.428571 4:-0.66443 
1871.895567182347 1:-0.671815 2:0.530201 3:-0.196911 4:-0.0939597 
2048 1:0.791506 2:0.704698 3:0.69112 4:-0.0939597 
313.6100552041817 1:-0.799228 2:-0.852349 3:-0.212355 4:0.583893 
2048 1:-0.644788 2:0.85906 3:-0.0617761 4:-0.295302 
2048 1:0.027027 2:0.95302 3:-0.0617761 4:-0.167785 
2048 1:0.366795 2:-0.449664 3:0.459459 4:-0.315436 
900.2074720804241 1:0.293436 2:0.711409 3:0.633205 4:-0.751678 
2048 1:-0.011583 2:-0.95302 3:-0.250965 4:0.899329 
2048 1:0.965251 2:-0.147651 3:0.3861 4:0.66443 
1514.977341064245 1:0.741313 2:-0.436242 3:0.397683 4:0.00671141 
203.466907644673 1:0.127413 2:0.187919 3:-0.104247 4:0.959732 
2048 1:0.011583 2:0.926174 3:-0.818533 4:0.657718 
1838.02219705563 1:-0.46332 2:0.0872483 3:-0.498069 4:-0.637584 
2048 1:0.393822 2:0.691275 3:0.324324 4:0.0872483 
579.8578754714645 1:0.992278 2:-0.234899 3:0.72973 4:-0.107383 
2048 1:0.015444 2:-0.926174 3:-0.266409 4:0.711409 
2048 1:-0.0694981 2:-0.355705 3:-0.795367 4:-0.248322 
1711.181626889422 1:-0.420849 2:-0.315436 3:-0.185328 4:0.973154 
2048 1:-0.621622 2:0.536913 3:-0.196911 4:-0.791946 
2048 1:0.416988 2:-0.697987 3:0.698842 4:0.469799 
578.2402579643672 1:-0.779923 2:0.590604 3:-0.027027 4:-0.563758 
1.307250107013838 1:-0.583012 2:-0.0536913 3:-0.494208 4:-0.449664 
2048 1:-0.027027 2:-0.362416 3:-0.440154 4:0.993289 
2048 1:0.389961 2:0.0604027 3:0.513514 4:0.208054 
2048 1:0.795367 2:-0.456376 3:0.656371 4:0.147651 
2048 1:-0.3861 2:-0.731544 3:0.0656371 4:0.288591 
71.07929763581483 1:0.6139 2:-0.0671141 3:0.861004 4:0.436242 
718.2321334315417 1:-0.266409 2:-0.107383 3:-0.397683 4:-0.852349 
2048 1:-0.420849 2:0.308725 3:-0.737452 4:0.342282 
2048 1:0.648649 2:-0.114094 3:0.525097 4:-0.114094 
84.4056033917288 1:0.509653 2:0.167785 3:0.370656 4:-0.489933 
573.6543617135003 1:0.042471 2:0.852349 3:-0.420849 4:0.946309 
651.4564460176447 1:0.72973 2:0.489933 3:0.413127 4:-0.892617 
779.3678036081027 1:0.0926641 2:0.516779 3:-0.467181 4:-0.362416 
2048 1:0.42471 2:-0.120805 3:0.262548 4:-0.389262 
2048 1:-0.0772201 2:0.422819 3:-0.660232 4:0.147651 
474.702170757409 1:0.123552 2:0.731544 3:-0.46332 4:0.751678 
2048 2:-0.90604 3:-0.111969 4:0.939597 
2048 1:-0.378378 2:-0.832215 3:-0.65251 4:0.442953 
144.5046326348807 1:0.362934 2:0.778523 3:0.444015 4:0.0469799 
2048 1:-0.606178 2:0.302013 3:0.138996 4:-0.47651 
1293.694948415324 1:-0.042471 2:0.724832 3:-0.208494 4:-0.14094 
2048 2:-0.0671141 3:-0.733591 4:0.785235 
227.1167320188227 1:-0.0810811 2:0.812081 3:-0.555985 4:0.0738255 
2048 1:-0.490347 2:-0.275168 3:0.027027 4:-0.630872 
1111.048720694193 1:-0.436293 2:0.516779 3:-0.247104 4:-0.872483 
2048 1:-0.486486 2:0.892617 3:-0.0849421 4:-0.704698 
2048 1:-0.0540541 2:-0.469799 3:0.0888031 4:0.33557 
2048 1:0.142857 2:-0.872483 3:0.0540541 4:0.14094 
2037.164360259802 1:0.0965251 2:0.194631 3:-0.505792 4:-0.483221 
338.545607740089 1:1 2:-0.671141 3:0.822394 4:0.919463 
2048 1:0.0733591 2:0.208054 3:0.030888 4:0.120805 
2048 1:-0.0617761 2:-0.463087 3:0.023166 4:0.610738 
2048 1:-0.019305 2:-0.718121 3:-0.444015 4:-0.932886 
2048 1:-0.440154 2:-0.583893 3:-0.003861 4:-0.348993 
2048 1:-0.181467 2:0.194631 3:-0.455598 4:-0.38255 
2048 1:0.710425 2:0.268456 3:0.903475 4:0.738255 
1210.66579571166 1:1 2:0.818792 3:0.80695 4:-0.0268456 
2048 1:-0.911197 2:-0.0872483 3:-0.30888 4:0.0536913 
2048 1:-0.698842 2:0.993289 3:-0.953668 4:-0.758389 
1317.761694674714 1:0.285714 2:0.939597 3:0.857143 4:-0.0939597 
2048 1:-0.200772 2:-0.120805 3:-0.501931 4:0.0201342 
2048 2:-0.322148 3:-0.640927 4:-0.744966 
698.5564983271386 1:0.46332 2:0.00671141 3:0.420849 4:-0.302013 
394.6912172307567 1:-0.019305 2:-0.147651 3:-0.826255 4:0.275168 
492.0644547031596 1:0.382239 2:-0.57047 3:0.891892 4:-0.66443 
2048 1:-0.544402 2:-0.42953 3:-0.72973 4:0.120805 
1621.331826360341 1:0.034749 2:-0.852349 3:-0.517375 4:-0.328859 
1790.353681669186 1:0.447876 2:-0.033557 3:0.841699 4:0.704698 
920.8942804172734 1:0.293436 2:-0.409396 3:0.332046 4:-0.838926 
2048 1:-0.660232 2:0.805369 3:0.034749 4:-0.919463 
9.393294004927412 1:-0.0810811 2:0.832215 3:-0.965251 4:-0.677852 
572.1195324796353 1:-0.316602 2:-0.805369 3:-0.895753 4:-0.134228 
1983.408685390067 1:0.741313 2:-0.375839 3:0.915058 4:0.90604 
2048 1:-0.53668 2:0.328859 3:-0.532819 4:0.167785 
74.4335187662958 1:0.621622 2:-0.563758 3:0.606178 4:-0.0872483 
2048 1:-0.436293 2:-0.456376 3:-0.339768 4:-0.865772 
2048 1:0.482625 2:0.0872483 3:0.428571 4:0.234899 
2048 1:0.301158 2:0.973154 3:0.494208 4:0.0469799 
1209.322305073566 1:-0.027027 2:-0.543624 3:-0.525097 4:-0.530201 
2048 1:0.764479 2:-0.208054 3:0.810811 4:-0.342282 
1629.241858678129 1:-0.949807 2:-0.697987 3:-0.142857 4:-0.865772 
2048 1:-0.833977 2:-0.33557 3:-0.042471 4:-0.134228 
627.4964107980761 1:0.447876 2:-0.261745 3:0.996139 4:0.147651 
2048 1:0.247104 2:-0.791946 3:0.34749 4:-0.261745 
323.5739301610089 1:0.880309 2:0.95302 3:0.996139 4:0.778523 
2048 1:0.455598 2:-0.785235 3:0.440154 4:0.308725 
78.52014548629037 1:-0.003861 2:0.973154 3:-0.965251 4:0.0402685 
2048 1:0.57529 2:-0.704698 3:0.250965 4:-0.38255 
2048 1:0.046332 2:0.275168 3:-0.0965251 4:-0.651007 
2048 1:-0.227799 2:-0.899329 3:0.019305 4:-0.771812 
2048 1:-0.239382 2:-0.0872483 3:0.030888 4:0.939597 
1133.747470104131 1:-0.857143 2:0.751678 3:0.0810811 4:-0.986577 
2048 1:0.864865 2:-0.651007 3:0.447876 4:-0.268456 
2048 1:0.718147 2:0.530201 3:0.467181 4:-0.0939597 
2048 1:0.830116 2:-0.838926 3:0.749035 4:0.610738 
793.5770261070957 1:-0.397683 2:0.0671141 3:-0.787645 4:-0.791946 
2048 1:0.749035 2:0.57047 3:0.528958 4:-0.765101 
1915.584107301335 1:0.953668 2:0.416107 3:0.702703 4:-0.248322 
2048 1:-0.200772 2:-0.778523 3:-0.525097 4:0.0805369 
974.8016094334384 1:0.621622 2:-0.181208 3:0.482625 4:-0.818792 
1386.424429743313 1:-0.498069 2:0.261745 3:-0.706564 4:0.543624 
2048 1:-0.030888 2:-0.583893 3:-0.173745 4:0.718121 
2048 1:-0.015444 2:-0.449664 3:-0.409266 4:-0.181208 
680.9531968634423 1:0.042471 2:0.926174 3:-0.517375 4:0.563758 
2048 1:-0.235521 2:-0.912752 3:-0.250965 4:-0.818792 
2048 1:0.0810811 2:0.114094 3:-0.702703 4:-0.0805369 
1049.603423898026 1:-0.513514 2:-0.416107 3:-0.123552 4:0.422819 
2048 1:-0.355212 2:0.691275 3:-0.200772 4:-0.114094 
9.645983044399209 1:-0.988417 2:0.275168 3:-0.84556 4:-0.90604 
2048 1:-0.590734 2:-0.362416 3:-0.15444 4:-0.724832 
1735.104054297045 1:-0.440154 2:-0.0604027 3:-0.949807 4:-0.66443 
2048 1:-0.003861 2:-0.718121 3:-0.671815 4:-0.657718 
2048 1:0.382239 2:-0.0604027 3:0.370656 4:0.134228 
2048 1:-0.722008 2:0.315436 3:-0.046332 4:0.469799 
1758.092713410548 1:-0.0849421 2:0.630872 3:-0.027027 4:-0.496644 
219.9636502789538 1:-0.455598 2:0.852349 3:-0.15444 4:-0.812081 
2048 1:0.258687 2:0.684564 3:0.583012 4:-0.107383 
2048 1:0.108108 2:-0.395973 3:0.135135 4:0.677852 
2048 1:-0.030888 3:0.03861 4:0.241611 
760.3234325710381 1:0.706564 2:0.758389 3:0.814672 4:-0.946309 
2048 1:0.540541 2:0.838926 3:0.6139 4:-0.912752 
285.1008438262335 1:0.579151 2:-0.550336 3:0.467181 4:-0.402685 
962.2658577559941 1:0.467181 2:0.932886 3:0.749035 4:0.812081 
2048 1:-0.857143 2:0.865772 3:-0.19305 4:-0.771812 
161.4179978019129 1:-0.104247 2:-0.100671 3:-0.517375 4:-0.0201342 
303.8183393689206 1:0.0965251 2:-0.879195 3:0.150579 4:-0.90604 
2048 1:0.737452 2:-0.0201342 3:0.833977 4:-0.395973 
231.4011124954253 1:-0.749035 2:0.00671141 3:-0.015444 4:0.187919 
1103.589772605553 1:0.104247 2:0.174497 3:0.138996 4:0.791946 
2048 1:0.335907 2:-0.812081 3:0.725869 4:0.577181 
1988.509050410294 1:0.131274 2:-0.489933 3:-0.250965 4:0.463087 
2048 1:-0.046332 2:-0.234899 3:-0.80695 4:0.0805369 
2048 1:-0.791506 2:0.100671 3:-0.00772201 4:-0.208054 
2048 1:0.907336 2:-0.255034 3:0.359073 4:0.758389 
2048 1:-0.606178 2:0.516779 3:-0.544402 4:0.261745 
1524.39938911093 1:-0.888031 2:0.812081 3:-0.03861 4:-0.510067 
2048 1:0.003861 2:-0.577181 3:0.0810811 4:-0.657718 
2048 1:-0.00772201 2:-0.791946 3:-0.563707 4:0.785235 
2048 1:0.100386 2:0.14094 3:-0.019305 4:0.510067 
2048 1:-0.003861 2:-0.52349 3:-0.019305 4:0.409396 
263.0397757582608 1:-0.737452 2:-0.986577 3:-0.640927 4:0.436242 
2048 1:-0.899614 2:-0.932886 3:-0.378378 4:-0.127517 
1576.486547301868 1:-0.972973 2:-0.624161 3:0.104247 4:0.275168 
45.52693762536573 1:-0.513514 2:-0.993289 3:-0.227799 4:-0.90604 
935.8953106007011 1:-0.525097 2:0.946309 3:-0.015444 4:0.134228 
2048 1:0.247104 2:0.14094 3:0.474903 4:-0.456376 
2048 1:0.46332 2:0.932886 3:0.274131 4:-0.765101 
2048 1:0.667954 2:0.402685 3:0.980695 4:0.409396 
2048 1:-0.150579 2:-0.174497 3:-0.019305 4:0.0872483 
505.5931215369085 1:-0.679537 2:0.134228 3:-0.984556 4:0.85906 
19.35814907008838 1:0.776062 2:0.986577 3:0.305019 4:-0.845638 
2048 1:0.540541 2:-0.516779 3:0.312741 4:0.0469799 
63.37101702029889 1:-0.586873 2:-0.946309 3:0.03861 4:0.771812 
2048 1:0.625483 2:0.295302 3:0.625483 4:-0.127517 
2048 1:0.46332 2:-0.181208 3:0.250965 4:0.691275 
476.8523175260919 1:-0.945946 2:-0.671141 3:-0.841699 4:-0.785235 
2048 1:-0.957529 2:-0.677852 3:-0.00772201 4:-0.134228 
1956.7879921195 1:-0.525097 2:0.194631 3:-0.787645 4:-0.563758 
2048 1:-0.169884 2:-0.986577 3:-0.0733591 4:-0.604027 
445.2091452587107 1:0.972973 2:-0.161074 3:0.490347 4:0.979866 
2048 1:0.0965251 2:-0.899329 3:-0.903475 4:-0.234899 
2048 1:-0.0965251 2:0.389262 3:-0.223938 4:-0.0939597 
178.5949849799578 1:-0.359073 2:0.0134228 3:-0.590734 4:0.322148 
2048 1:0.930502 2:0.503356 3:0.957529 4:-0.516779 
139.7816252212208 1:-0.046332 2:0.825503 3:-0.880309 4:-0.268456 
2048 1:0.656371 2:0.0469799 3:0.706564 4:0.422819 
2048 1:-0.254826 2:0.684564 3:-0.783784 4:0.194631 
1343.919074848835 1:0.138996 2:0.805369 3:-0.552124 4:-0.57047 
1793.058840948665 1:-0.760618 2:-0.0738255 3:-0.227799 4:0.201342 
804.3675329700238 1:-0.837838 2:0.275168 3:0.0617761 4:0.248322 
2048 1:-0.420849 2:0.825503 3:-0.03861 4:-0.61745 
2048 1:-0.0849421 2:0.744966 3:-0.027027 4:-0.0872483 
168.1603454376268 1:-0.741313 2:-0.986577 3:-0.027027 4:-0.993289 
2048 1:-0.127413 2:-0.214765 3:-0.478764 4:0.711409 
2048 1:-0.015444 2:-0.214765 3:-0.254826 4:0.167785 
0.615641084480526 1:-0.826255 2:0.993289 3:-0.980695 4:0.288591 
2048 1:-0.583012 2:-0.677852 3:0.0733591 4:0.167785 
2048 1:-0.826255 2:0.0939597 3:-0.019305 4:-0.691275 
2048 1:-0.907336 2:-0.798658 3:-0.664093 4:0.0671141 
2048 1:0.996139 2:0.375839 3:0.598456 4:0.0134228 
2048 1:0.756757 2:0.0939597 3:0.756757 4:0.758389 
2048 1:0.938224 2:-0.228188 3:0.637066 4:-0.409396 
670.8758532908848 1:-0.837838 2:-0.85906 3:-0.505792 4:0.919463 
2048 1:-0.015444 2:-0.456376 3:-0.142857 4:0.744966 
1825.838838494707 1:0.872587 2:0.442953 3:0.907336 4:-0.791946 
2048 1:-0.664093 2:0.865772 3:-0.003861 4:-0.255034 
2048 1:0.459459 2:0.228188 3:0.899614 4:0.409396 
2048 1:0.11583 2:-0.657718 3:-0.722008 4:-0.926174 
2048 1:0.764479 2:0.765101 3:0.343629 4:-0.167785 
2048 1:-0.235521 2:-0.95302 3:-0.169884 4:-0.174497 
974.7317219314408 1:-0.96139 2:-0.0805369 3:-0.72973 4:0.0939597 
1044.143126573624 1:0.0849421 2:-0.926174 3:-0.513514 4:0.765101 
2048 1:-0.826255 2:-0.57047 3:-0.03861 4:0.818792 
136.1661478660294 1:0.972973 2:0.791946 3:0.474903 4:-0.0939597 
2048 1:-0.494208 2:-0.389262 3:-0.629344 4:0.328859 
2048 1:-0.332046 2:-0.95302 3:-0.428571 4:-0.295302 
2048 1:0.749035 2:-0.228188 3:0.401544 4:-0.281879 
112.4441998654536 1:0.687259 2:-0.187919 3:0.397683 4:-0.986577 
2048 1:-0.567568 2:0.38255 3:-0.787645 4:0.0939597 
1875.360283192011 1:0.0617761 2:0.161074 3:-0.880309 4:0.348993 
2048 1:0.239382 2:0.677852 3:0.548263 4:-0.718121 
1201.805255483581 1:-0.895753 2:0.0536913 3:-0.671815 4:0.375839 
1728.526847018479 1:0.945946 2:0.711409 3:0.378378 4:-0.644295 
1221.842011490942 1:-0.664093 2:0.798658 3:-0.019305 4:-0.496644 
2048 1:-0.108108 2:-0.241611 3:-0.702703 4:0.778523 
1960.721123853559 1:-0.162162 2:0.0536913 3:0.150579 4:0.85906 
1709.668027466469 1:-0.019305 2:0.120805 3:-0.19305 4:-0.986577 
95.91494191187886 1:0.976834 2:0.95302 3:0.359073 4:0.838926 
2048 1:-0.212355 2:0.85906 3:-0.343629 4:-0.704698 
2048 1:-0.664093 2:0.033557 3:-0.220077 4:-0.14094 
2048 1:-0.907336 2:-0.281879 3:0.03861 4:-0.865772 
2048 1:-0.861004 2:0.0805369 3:-0.833977 4:-0.805369 
2048 1:0.320463 2:-0.281879 3:0.741313 4:0.577181 
2048 1:0.293436 2:0.174497 3:0.27027 4:0.939597 
1499.220231318172 1:0.513514 2:0.268456 3:0.96139 4:-0.845638 
2048 1:0.687259 2:0.302013 3:0.378378 4:0.818792 
2048 1:0.733591 2:0.402685 3:0.46332 4:-0.100671 
2048 1:-0.0617761 2:-0.651007 3:-0.185328 4:0.449664 
2048 1:-0.644788 2:0.865772 3:-0.27027 4:-0.0805369 
2048 1:-0.324324 2:-0.0536913 3:0.0926641 4:-0.885906 
2048 1:0.525097 2:0.959732 3:0.861004 4:-0.033557 
2048 1:-0.19305 2:0.510067 3:0.030888 4:-0.932886 
1079.486714380259 1:-0.934363 2:-0.0402685 3:0.0617761 4:-0.711409 
1119.132978542609 1:0.810811 2:-0.926174 3:0.451737 4:-0.348993 
786.6350770093902 1:-0.173745 2:0.946309 3:0.030888 4:0.771812 
2048 1:0.420849 2:-0.134228 3:0.467181 4:0.0469799 
2048 1:0.671815 2:0.912752 3:0.382239 4:0.671141 
2048 1:-0.787645 2:-0.610738 3:-0.011583 4:-0.416107 
1828.632244924181 1:-0.0579151 2:-0.986577 3:-0.003861 4:-0.0402685 
2048 1:0.011583 2:-0.362416 3:-0.640927 4:0.771812 
2048 1:-0.0579151 2:0.194631 3:-0.992278 4:-0.100671 
263.4312031714047 1:0.0501931 2:0.684564 3:-0.702703 4:-0.483221 
135.6831413276755 1:-0.254826 2:-0.993289 3:-0.019305 4:0.865772 
1376.532211093688 1:-0.957529 2:-0.785235 3:-0.841699 4:-0.865772 
2048 1:-0.254826 2:-0.134228 3:-0.216216 4:0.892617 
116.6373319212571 1:-0.003861 2:-0.375839 3:-0.915058 4:-0.993289 
2048 1:0.235521 2:0.194631 3:0.378378 4:-0.812081 
2048 1:-0.00772201 2:-0.510067 3:-0.0926641 4:0.946309 
52.29909187421457 1:-0.779923 2:0.442953 3:-0.664093 4:0.85906 
1255.000265072439 1:-0.629344 2:-0.805369 3:0.138996 4:-0.912752 
2048 1:-0.907336 2:-0.785235 3:-0.555985 4:0.812081 
1764.87437513526 1:0.382239 2:-0.174497 3:0.756757 4:-0.395973 
2048 1:-0.88417 2:-0.845638 3:0.11583 4:-0.657718 
225.0847707279634 1:0.127413 2:0.389262 3:-0.359073 4:0.993289 
1616.454078489937 1:0.548263 2:0.241611 3:0.976834 4:0.885906 
2048 1:-0.328185 2:0.758389 3:0.023166 4:-0.744966 
2048 1:-0.791506 2:-0.187919 3:-0.409266 4:-0.281879 
2048 1:-0.420849 2:-0.0536913 3:-0.451737 4:-0.422819 
583.6470030809065 1:-0.637066 2:0.308725 3:-0.46332 4:0.946309 
2048 1:-0.030888 2:0.61745 3:-0.0965251 4:-0.697987 
2048 1:-0.718147 2:-0.0469799 3:-0.227799 4:-0.845638 
2048 1:-0.679537 2:0.308725 3:-0.872587 4:-0.798658 
2048 1:0.494208 2:-0.711409 3:0.444015 4:0.362416 
2048 1:-0.0849421 2:-0.66443 3:0.011583 4:0.590604 
2048 1:0.277992 2:0.697987 3:0.803089 4:0.389262 
2048 1:0.312741 2:0.0604027 3:0.34749 4:0.724832 
2048 1:-0.262548 2:-0.120805 3:-0.791506 4:0.201342 
2048 1:0.247104 2:-0.711409 3:0.525097 4:0.879195 
682.529239614257 1:0.0579151 2:-0.718121 3:-0.88417 4:-0.919463 
1543.162296828913 1:-0.594595 2:0.758389 3:-0.795367 4:0.241611 
2048 1:-0.34749 2:-0.791946 3:0.142857 4:-0.671141 
2048 1:0.011583 2:-0.194631 3:-0.478764 4:-0.38255 
1138.927835159086 1:-0.19305 2:-0.932886 3:-0.741313 4:-0.308725 
2048 1:-0.745174 2:0.0805369 3:0.119691 4:0.744966 
2048 1:-0.335907 2:-0.751678 3:0.135135 4:-0.483221 
1473.023713300489 1:-0.868726 2:-0.281879 3:-0.718147 4:0.597315 
2048 1:0.003861 2:-0.912752 3:-0.521236 4:-0.395973 
2048 1:0.637066 2:-0.449664 3:0.837838 4:-0.174497 
2048 1:-0.042471 2:-0.738255 3:-0.297297 4:-0.751678 
2048 1:0.359073 2:0.738255 3:0.374517 4:0.114094 
2048 1:-0.598456 2:-0.0939597 3:-0.03861 4:0.805369 
1602.532904427985 1:0.023166 2:0.120805 3:-0.814672 4:-0.308725 
2048 1:0.482625 2:0.879195 3:0.416988 4:-0.778523 
1572.595858316665 1:-0.930502 2:-0.107383 3:-0.849421 4:-0.812081 
858.5807320094621 1:0.339768 2:-0.85906 3:0.471042 4:0.234899 
2048 1:-0.467181 2:-0.181208 3:-0.374517 4:-0.228188 
505.5970887460212 1:-0.899614 2:0.865772 3:-0.756757 4:0.167785 
2048 1:0.382239 3:0.949807 4:-0.463087 
523.5682516406064 1:-0.918919 2:-0.812081 3:-0.247104 4:0.852349 
242.6068923255719 1:-0.594595 2:0.510067 3:0.142857 4:0.798658 
1140.028406089133 1:0.11583 2:-0.926174 3:-0.830116 4:0.630872 
2048 1:0.880309 2:0.530201 3:0.432432 4:-0.234899 
2048 1:0.745174 2:0.610738 3:0.92278 4:0.805369 
1522.301746874284 1:0.710425 2:0.604027 3:0.96139 4:0.308725 
259.9758995096146 1:-0.57529 2:-0.590604 3:0.119691 4:-0.966443 
388.331002549758 1:-0.023166 2:-0.550336 3:-0.899614 4:-0.208054 
2012.031590340738 1:0.046332 2:0.812081 3:-0.915058 4:0.926174 
2048 1:0.100386 2:0.657718 3:-0.019305 4:-0.355705 
2048 1:-0.84556 2:-0.651007 3:-0.428571 4:-0.342282 
2048 1:-0.03861 2:-0.208054 3:-0.0694981 4:-0.315436 
2048 1:-0.0965251 2:0.0134228 3:-0.745174 4:-0.033557 
489.7198859975903 1:0.571429 2:-0.583893 3:0.92278 4:-0.302013 
722.6546688875808 1:-0.42471 2:0.255034 3:0.030888 4:0.0939597 
78.69452271060625 1:0.826255 2:0.161074 3:0.343629 4:0.966443 
743.2900828096242 1:-0.0926641 2:0.865772 3:-0.795367 4:-0.187919 
2048 1:0.583012 2:-0.134228 3:0.281853 4:-0.348993 
860.726543415865 1:0.907336 2:0.604027 3:0.351351 4:-0.120805 
1377.183313363993 1:0.907336 2:0.583893 3:0.714286 4:0.0738255 
1540.524797558088 1:0.53668 2:-0.402685 3:0.957529 4:0.919463 
717.7192711849121 1:0.339768 2:0.872483 3:0.305019 4:-0.973154 
929.4818158630006 1:0.992278 2:0.899329 3:0.451737 4:-0.281879 
2048 1:-0.694981 3:-0.521236 4:0.543624 
826.2744777639325 1:0.857143 2:0.510067 3:0.490347 4:0.194631 
1218.161964336354 1:-0.741313 2:-0.932886 3:-0.903475 4:-0.671141 
1535.20104704778 1:0.783784 2:-0.281879 3:0.702703 4:0.516779 
2048 1:0.405405 2:-0.0201342 3:0.405405 4:0.637584 
2048 1:-0.772201 2:0.744966 3:0.104247 4:-0.416107 
253.0143168184878 1:-0.478764 2:-0.684564 3:0.146718 4:0.852349 
2048 1:0.687259 2:0.697987 3:0.787645 4:-0.986577 
140.6531165267367 1:0.266409 2:0.154362 3:0.976834 4:0.986577 
2048 1:-0.0926641 2:-0.288591 3:-0.633205 4:-0.315436 
2048 1:0.656371 2:-0.805369 3:0.359073 4:-0.241611 
2048 1:-0.737452 2:-0.241611 3:-0.664093 4:0.33557 
27.64131226945819 1:0.104247 2:0.154362 3:-0.972973 4:-0.872483 
1555.429169718631 1:0.718147 2:0.90604 3:0.84556 4:0.765101 
2048 1:-0.567568 2:0.127517 3:-0.745174 4:0.0939597 
834.9969885452912 1:-0.930502 2:0.597315 3:-0.42471 4:-0.255034 
2048 1:-0.274131 2:-0.805369 3:-0.220077 4:-0.0201342 
1390.530224878252 1:0.841699 2:0.100671 3:0.397683 4:-0.187919 
1576.638003386829 1:-0.938224 2:-0.416107 3:-0.0733591 4:-0.127517 
1471.00433482892 1:-0.57529 3:-0.200772 4:-0.95302 
848.4376020955309 1:0.478764 2:-0.684564 3:0.895753 4:0.530201 
2048 1:-0.532819 2:0.127517 3:-0.965251 4:-0.597315 
35.35401778945274 1:0.027027 2:0.986577 3:-0.135135 4:-0.0402685 
2048 1:0.420849 2:-0.0738255 3:0.243243 4:-0.879195 
2048 1:0.818533 2:0.691275 3:0.490347 4:0.328859 
994.8404170040112 1:-0.675676 2:-0.0402685 3:0.0772201 4:0.181208 
618.9348685502282 1:0.0849421 2:0.241611 3:-0.274131 4:0.14094 
2048 1:-0.957529 2:-0.838926 3:-0.0540541 4:-0.033557 
2048 1:0.389961 2:-0.275168 3:0.872587 4:0.557047 
2048 1:-0.482625 2:0.456376 3:-0.30888 4:-0.791946 
361.9567650217231 1:-0.849421 2:-0.590604 3:-0.706564 4:0.771812 
2048 1:0.320463 2:0.167785 3:0.899614 4:-0.899329 
2048 1:0.733591 2:-0.181208 3:0.880309 4:-0.275168 
1674.523669500162 1:-0.471042 2:-0.637584 3:-0.737452 4:-0.738255 
1693.34334622766 1:-0.949807 2:-0.268456 3:-0.42471 4:-0.536913 
510.5529209222807 1:-0.949807 2:0.308725 3:-0.525097 4:-0.563758 
1554.493122464542 1:0.281853 2:0.932886 3:0.320463 4:0.892617 
2048 1:-0.903475 2:0.66443 3:-0.0733591 4:-0.221477 
2048 1:-0.799228 2:0.100671 3:0.0772201 4:0.590604 
2048 1:0.903475 2:-0.583893 3:0.297297 4:0.14094 
2048 1:-0.266409 2:0.0536913 3:-0.80695 4:-0.181208 
238.4182997521605 1:-0.694981 2:-0.234899 3:0.003861 4:-0.194631 
560.9390705855743 1:0.243243 2:-0.926174 3:0.683398 4:0.402685 
455.5726121031036 1:0.405405 2:0.744966 3:0.992278 4:0.885906 
2048 1:-0.142857 2:0.758389 3:-0.0694981 4:-0.536913 
2048 1:-0.714286 2:0.825503 3:-0.803089 4:0.208054 
154.6339248355158 1:0.27027 2:0.738255 3:0.818533 4:1 
2048 1:-0.513514 2:0.61745 3:-0.204633 4:-0.14094 
2048 1:0.0965251 2:0.785235 3:-0.216216 4:-0.785235 
2048 1:-0.0617761 2:-0.483221 3:-0.861004 4:-0.496644 
549.0188935149008 1:-0.498069 2:-0.704698 3:-0.00772201 4:0.899329 
91.00644671854955 1:0.926641 2:0.691275 3:0.316602 4:0.033557 
2048 1:0.011583 2:-0.389262 3:-0.250965 4:-0.832215 
2048 1:-0.598456 2:-0.825503 3:-0.003861 4:-0.355705 
2048 1:0.733591 2:-0.127517 3:0.6139 4:-0.489933 
2048 1:0.150579 2:-0.550336 3:-0.583012 4:-0.66443 
283.5620800533292 1:0.011583 2:-0.375839 3:-0.389961 4:-0.825503 
2048 1:-0.416988 2:-0.751678 3:-0.0617761 4:-0.033557 
2048 1:-0.142857 2:-0.691275 3:-0.289575 4:0.604027 
2048 1:-0.289575 2:-0.107383 3:-0.108108 4:-0.630872 
2048 1:-0.169884 2:-0.765101 3:-0.011583 4:0.295302 
2048 1:0.783784 2:-0.174497 3:0.965251 4:-0.328859 
2048 1:-0.335907 2:-0.798658 3:-0.795367 4:0.0134228 
1034.859333066212 1:0.590734 2:-0.724832 3:0.872587 4:0.610738 
583.5409510339585 1:0.528958 2:0.919463 3:0.945946 4:-0.718121 
1159.251598769557 1:-0.513514 2:0.187919 3:-0.864865 4:0.979866 
423.9844364115035 1:-0.590734 2:0.825503 3:-0.42471 4:-0.201342 
2048 1:-0.891892 2:0.0402685 3:-0.88417 4:0.114094 
766.920092177402 1:0.474903 2:-0.979866 3:0.969112 4:-0.449664 
2048 1:-0.436293 2:0.557047 3:0.142857 4:-0.95302 
2048 1:-0.366795 2:-0.798658 3:-0.011583 4:0.134228 
2048 1:-0.567568 2:0.838926 3:-0.683398 4:0.409396 
2048 1:-0.776062 2:0.194631 3:-0.745174 4:-0.0268456 
177.7239396238164 1:-0.123552 2:0.0201342 3:-0.301158 4:0.248322 
1664.959597956615 1:0.756757 2:-0.38255 3:0.799228 4:-0.644295 
2048 1:-0.042471 2:-0.711409 3:-0.799228 4:0.33557 
2048 1:-0.745174 2:-0.0671141 3:-0.876448 4:0.107383 
811.6886736708817 1:0.0926641 2:-0.630872 3:-0.459459 4:0.805369 
2048 1:0.00772201 2:-0.208054 3:-0.420849 4:-0.234899 
2048 1:-0.579151 2:0.33557 3:-0.482625 4:-0.583893 
2048 1:-0.791506 2:0.302013 3:-0.0501931 4:-0.738255 
2048 1:0.003861 2:-0.342282 3:0.0579151 4:0.402685 
2048 1:0.482625 2:-0.496644 3:0.451737 4:0.268456 
1783.508934764891 1:-0.19305 2:0.926174 3:-0.19305 4:-0.771812 
2048 1:-0.540541 2:-0.791946 3:0.0810811 4:0.805369 
1461.234485708632 1:0.528958 2:0.885906 3:1 4:-0.288591 
2048 1:0.0694981 2:0.154362 3:-0.907336 4:-0.120805 
97.10632369763232 1:0.011583 2:0.959732 3:-0.980695 4:0.912752 
2048 1:-0.235521 2:0.604027 3:-0.393822 4:-0.61745 
2048 1:-0.548263 2:0.651007 3:0.111969 4:-0.402685 
2048 1:-0.451737 2:-0.281879 3:-0.698842 4:0.456376 
479.0712068329772 1:0.660232 2:0.932886 3:0.930502 4:-0.899329 
728.2021830416398 1:0.011583 2:0.657718 3:-0.03861 4:0.959732 
1394.886770772237 1:-0.980695 2:0.120805 3:-0.6139 4:-0.704698 
1227.740039860868 1:0.138996 2:0.510067 3:-0.003861 4:0.281879 
2048 1:-0.027027 2:-0.0134228 3:-0.216216 4:-0.812081 
2048 1:0.656371 2:0.241611 3:0.69112 4:-0.201342 
1183.499989714471 1:-0.88417 2:-0.355705 3:-0.625483 4:0.47651 
2048 1:-0.0772201 2:-0.597315 3:-0.474903 4:0.61745 
2048 1:-0.216216 2:0.489933 3:-0.003861 4:-0.483221 
2048 1:-0.706564 2:-0.758389 3:0.100386 4:-0.409396 
2048 1:0.749035 2:-0.550336 3:0.656371 4:-0.154362 
2048 1:-0.0579151 2:-0.288591 3:-0.196911 4:0.879195 
632.7307672592659 1:-0.725869 2:0.0738255 3:0.0733591 4:0.516779 
31.43120416531473 1:0.895753 2:0.798658 3:0.254826 4:-0.865772 
1860.089453865172 1:-0.034749 2:-0.107383 3:-0.625483 4:-0.986577 
245.5746316196417 1:-0.841699 2:0.389262 3:-0.868726 4:0.885906 
2048 1:0.880309 2:0.47651 3:0.416988 4:0.154362 
384.256462721489 1:-0.918919 2:-0.926174 3:-0.227799 4:0.52349 
14.13111076538113 1:-0.752896 2:0.248322 3:-0.490347 4:0.85906 
2048 1:-0.444015 2:-0.637584 3:0.015444 4:-0.926174 
910.5571902382574 1:-0.992278 2:0.872483 3:-0.903475 4:-0.033557 
1144.361066772045 1:-0.783784 2:0.0671141 3:0.030888 4:-0.979866 
978.1456651373535 1:-0.671815 2:0.328859 3:-0.478764 4:0.449664 
2048 1:-0.335907 2:0.395973 3:0.150579 4:0.885906 
133.1744548587543 1:0.11583 2:-0.993289 3:-0.602317 4:-0.738255 
2048 1:0.123552 2:0.167785 3:0.003861 4:0.0671141 
68.76529805716164 1:-0.0656371 2:-0.979866 3:-0.019305 4:0.926174 
2048 1:-0.0772201 2:-0.563758 3:-0.675676 4:0.765101 
2048 1:0.868726 2:-0.657718 3:0.644788 4:0.295302 
2048 1:0.660232 2:-0.161074 3:0.378378 4:-0.208054 
2048 1:0.710425 2:0.496644 3:0.722008 4:-0.651007 
2048 1:0.042471 2:0.38255 3:0.00772201 4:-0.758389 
2048 1:-0.046332 2:-0.161074 3:-0.320463 4:0.154362 
2048 1:0.525097 2:0.85906 3:0.891892 4:-0.637584 
2048 1:0.447876 2:-0.328859 3:0.633205 4:-0.0805369 
1933.394316466764 1:-0.586873 2:0.946309 3:0.042471 4:-0.771812 
1555.322773057883 1:0.015444 2:0.704698 3:-0.505792 4:-0.208054 
2048 1:-0.401544 2:-0.684564 3:-0.243243 4:0.651007 
2048 1:-0.374517 2:0.543624 3:-0.127413 4:-0.228188 
2048 1:-0.930502 2:-0.0134228 3:-0.0694981 4:-0.221477 
2048 1:-0.220077 2:0.805369 3:0.131274 4:-0.469799 
1094.599256963015 1:-0.227799 2:-0.0604027 3:-0.772201 4:-0.684564 
2048 1:-0.42471 2:0.919463 3:-0.474903 4:-0.416107 
2048 1:0.698842 2:0.61745 3:0.563707 4:-0.114094 
1024.501452987333 1:-0.563707 2:0.979866 3:-0.772201 4:-0.281879 
2048 1:-0.544402 2:-0.731544 3:-0.023166 4:-0.463087 
2048 1:-0.432432 2:-0.778523 3:-0.0656371 4:-0.543624 
2048 1:0.00772201 2:-0.288591 3:-0.196911 4:-0.778523 
2048 1:-0.003861 2:-0.812081 3:-0.532819 4:-0.697987 
1980.319839288548 1:-0.436293 2:-0.644295 3:-0.34749 4:0.134228 
2048 1:0.640927 2:-0.127517 3:0.401544 4:0.993289 
2048 1:-0.876448 2:-0.61745 3:-0.015444 4:-0.221477 
2048 1:-0.343629 2:-0.744966 3:-0.432432 4:-0.416107 
2048 1:-0.100386 2:-0.187919 3:-0.69112 4:0.348993 
2048 1:-0.857143 2:0.630872 3:-0.0849421 4:-0.248322 
203.4736246430701 1:0.984556 2:0.033557 3:0.945946 4:0.879195 
2048 1:-0.586873 2:0.0671141 3:-0.227799 4:-0.832215 
2048 1:0.509653 2:0.114094 3:0.382239 4:0.718121 
843.875175913733 1:-0.579151 2:-0.651007 3:-0.455598 4:-0.436242 
2048 1:-0.011583 2:-0.644295 3:-0.0617761 4:-0.248322 
1544.78375846453 1:-0.864865 2:0.255034 3:-0.737452 4:-0.0738255 
2048 1:-0.861004 2:-0.85906 3:-0.027027 4:-0.66443 
2048 1:0.965251 2:0.0268456 3:0.401544 4:0.697987 
2048 1:-0.783784 2:0.469799 3:-0.444015 4:-0.543624 
1051.393649852917 1:1 2:0.416107 3:0.366795 4:-0.489933 
118.8744818092639 1:-0.432432 2:0.590604 3:-0.783784 4:0.187919 
2048 1:-0.413127 2:0.268456 3:-0.756757 4:0.221477 
703.631016888309 1:-0.0540541 2:0.469799 3:-0.409266 4:-0.234899 
1951.487393300929 1:-0.976834 2:-0.0469799 3:-0.440154 4:-0.348993 
522.0300433337557 1:-0.0926641 2:-0.986577 3:-0.602317 4:0.342282 
1052.544783998138 1:0.969112 2:0.711409 3:0.471042 4:-0.939597 
2048 1:-0.0694981 2:-0.590604 3:-0.803089 4:-0.697987 
2048 1:-0.00772201 2:-0.644295 3:0.108108 4:0.677852 
2048 1:0.455598 2:0.0805369 3:0.370656 4:0.684564 
2048 1:-0.42471 2:-0.47651 3:-0.563707 4:-0.979866 
2048 1:-0.868726 2:0.369128 3:0.003861 4:-0.154362 
190.9348988794676 1:-0.915058 2:0.114094 3:-0.675676 4:0.959732 
1958.879733096958 1:-0.023166 2:0.463087 3:-0.76834 4:0.0469799 
2048 1:0.0501931 2:-0.691275 3:-0.200772 4:-0.0402685 
2048 1:-0.135135 2:-0.812081 3:-0.517375 4:0.208054 
2048 1:-0.254826 2:0.919463 3:-0.030888 4:-0.516779 
285.5776753409072 1:0.243243 2:-0.798658 3:0.482625 4:-0.0469799 
2048 1:0.749035 2:0.416107 3:0.563707 4:-0.57047 
603.9990445060058 1:-0.976834 2:0.845638 3:-0.853282 4:-0.221477 
2048 1:-0.660232 2:0.308725 3:-0.0772201 4:0.865772 
2010.731116728532 1:0.436293 2:-0.174497 3:0.637066 4:0.966443 
2048 1:-0.0888031 2:-0.302013 3:-0.135135 4:0.436242 
2048 1:-0.459459 2:-0.483221 3:-0.166023 4:0.402685 
160.2071380283337 1:0.30888 2:-0.362416 3:0.888031 4:0.496644 
1237.840211188334 1:-0.23166 2:-0.0469799 3:-0.895753 4:0.033557 
2048 1:0.332046 2:0.812081 3:0.351351 4:-0.248322 
219.9625414948592 1:-0.019305 2:-0.510067 3:-0.413127 4:-0.120805 
1814.744078282858 1:0.003861 2:-0.912752 3:-0.405405 4:0.208054 
-2048 1:0.679537 2:-0.550336 3:0.594595 4:-0.302013 
-2048 1:-0.837838 2:-0.0134228 3:0.0656371 4:0.42953 
-969.9482756146932 1:-0.416988 2:-0.530201 3:-0.799228 4:-0.95302 
-2048 1:0.911197 2:-0.322148 3:0.389961 4:0.791946 
-2048 1:0.949807 2:-0.261745 3:0.428571 4:0.85906 
-823.0281000178675 1:-0.822394 2:-0.288591 3:0.0694981 4:0.0268456 
-2048 1:-0.629344 2:-0.52349 3:-0.0849421 4:-0.765101 
-2048 1:-0.861004 2:-0.181208 3:-0.451737 4:-0.677852 
-2048 1:0.92278 2:-0.0536913 3:0.262548 4:0.281879 
-2048 1:-0.918919 2:-0.38255 3:-0.227799 4:-0.268456 
-1543.912630819708 1:-0.119691 2:-0.557047 3:-0.594595 4:0.161074 
-2048 1:-0.015444 2:-0.838926 3:-0.907336 4:0.892617 
-2048 1:-0.799228 2:-0.0402685 3:-0.397683 4:0.604027 
-2048 1:-0.467181 2:-0.590604 3:-0.042471 4:-0.95302 
-1138.575626205595 1:-0.880309 2:-0.436242 3:-0.0810811 4:-0.865772 
-2048 1:-0.555985 2:0.228188 3:-0.822394 4:-0.563758 
-2048 1:-0.250965 2:0.671141 3:-0.312741 4:-0.677852 
-15.24268793016623 1:-0.625483 2:0.966443 3:-0.027027 4:0.865772 
-2048 1:0.0733591 2:-0.228188 3:-0.895753 4:0.389262 
-559.5822450374625 1:0.335907 2:0.355705 3:0.826255 4:0.651007 
-2048 1:-0.189189 2:-0.194631 3:-0.648649 4:-0.463087 
-2048 1:0.745174 2:-0.530201 3:0.907336 4:-0.42953 
-2048 1:-0.166023 2:-0.993289 3:-0.027027 4:0.751678 
-2048 1:0.0926641 2:-0.516779 3:-0.0888031 4:0.691275 
-2048 1:-0.610039 2:-0.0872483 3:-0.27027 4:-0.637584 
-2048 1:-0.872587 2:-0.315436 3:-0.019305 4:0.684564 
-2048 1:0.486486 2:-0.288591 3:0.799228 4:-0.516779 
-2048 1:0.397683 2:0.33557 3:0.818533 4:0.268456 
-2048 1:-0.27027 2:-0.959732 3:0.034749 4:-0.208054 
-213.4808409232466 1:0.297297 3:0.96139 4:-0.248322 
-2048 1:-0.857143 2:-0.0469799 3:-0.401544 4:-0.174497 
-2048 1:-0.610039 2:0.778523 3:-0.0849421 4:-0.496644 
-2048 1:-0.011583 2:0.832215 3:-0.664093 4:-0.47651 
-503.5001867057781 1:-0.837838 2:-0.369128 3:-0.853282 4:-0.0268456 
-2048 1:0.548263 2:0.0872483 3:0.938224 4:0.469799 
-2048 1:-0.525097 2:-0.369128 3:-0.351351 4:-0.604027 
-2048 1:-0.621622 2:0.973154 3:-0.625483 4:-0.14094 
-2048 1:-0.413127 2:0.751678 3:-0.0617761 4:0.127517 
-2048 1:-0.328185 2:-0.221477 3:-0.745174 4:-0.221477 
-2048 1:-0.787645 2:-0.95302 3:-0.888031 4:-0.0738255 
-2048 1:0.891892 2:-0.557047 3:0.513514 4:-0.181208 
-1379.850197431042 1:0.698842 2:0.449664 3:0.629344 4:-0.375839 
-2048 1:-0.324324 2:-0.221477 3:-0.53668 4:-0.872483 
-2048 1:-0.559846 2:0.161074 3:-0.722008 4:-0.704698 
-2048 1:-0.216216 2:0.302013 3:-0.749035 4:0.248322 
-2048 1:0.629344 2:0.0536913 3:0.915058 4:0.234899 
-2048 1:-0.320463 2:-0.832215 3:-0.11583 4:0.0604027 
-2048 1:0.610039 2:-0.342282 3:0.374517 4:-0.147651 
-2048 1:0.640927 2:0.644295 3:0.366795 4:0.201342 
-2048 1:-0.72973 2:-0.677852 3:0.119691 4:-0.288591 
-715.5980792162161 1:-0.957529 2:-0.85906 3:0.011583 4:0.805369 
-1338.325725005456 1:0.579151 2:0.389262 3:0.949807 4:-0.986577 
-357.5315627766487 1:-0.953668 2:-0.154362 3:0.123552 4:0.0536913 
-2048 1:0.0579151 2:-0.469799 3:0.135135 4:0.590604 
-806.4481829929301 1:0.926641 2:-0.932886 3:0.328185 4:0.530201 
-2048 1:-0.749035 2:-0.281879 3:-0.324324 4:-0.275168 
-1371.708875696884 1:-0.640927 2:0.973154 3:-0.88417 4:0.503356 
-2048 1:-0.359073 2:-0.872483 3:-0.826255 4:-0.187919 
-2048 1:0.420849 2:0.127517 3:0.656371 4:-0.234899 
-2048 1:0.305019 2:0.637584 3:0.420849 4:-0.181208 
-328.6231869290673 1:-0.258687 2:-0.691275 3:0.034749 4:-0.38255 
-658.7658706697839 1:-0.617761 2:0.167785 3:-0.104247 4:-0.355705 
-1382.286333811779 1:0.254826 2:-0.557047 3:0.320463 4:0.543624 
-2048 1:0.679537 2:-0.295302 3:0.853282 4:0.261745 
-2048 1:-0.003861 2:-0.838926 3:0.0810811 4:0.302013 
-2048 1:0.490347 2:-0.295302 3:0.409266 4:0.0604027 
-2048 1:-0.525097 2:-0.0604027 3:-0.370656 4:-0.288591 
-2048 1:-0.444015 2:0.288591 3:-0.223938 4:-0.724832 
-2048 1:0.787645 2:-0.208054 3:0.610039 4:-0.214765 
-1424.876264535497 1:-0.984556 2:-0.765101 3:-0.868726 4:-0.744966 
-369.2487360497444 1:-0.96139 2:-0.832215 3:-0.644788 4:0.973154 
-301.6114939674657 1:-0.694981 2:0.181208 3:-0.976834 4:-0.147651 
-2048 1:0.451737 2:0.899329 3:0.606178 4:-0.805369 
-2048 1:0.019305 2:-0.463087 3:-0.864865 4:0.369128 
-2048 1:-0.277992 2:-0.120805 3:-0.795367 4:-0.100671 
-2017.963158763266 1:0.718147 2:-0.637584 3:0.274131 4:-0.187919 
-627.827896045124 1:0.552124 2:-0.261745 3:0.405405 4:0.348993 
-1066.587312096899 1:0.351351 2:0.852349 3:0.285714 4:0.677852 
-2048 1:-0.254826 2:-0.161074 3:-0.814672 4:-0.107383 
-1727.402015362589 1:-0.799228 2:-0.100671 3:-0.683398 4:0.711409 
-1534.47394171557 1:-0.297297 2:0.557047 3:0.146718 4:-0.798658 
-2048 1:0.637066 2:-0.624161 3:0.416988 4:0.90604 
-1751.338016133185 1:0.297297 2:0.597315 3:0.590734 4:-0.208054 
-2048 1:-0.972973 2:-0.630872 3:0.019305 4:-0.315436 
-2048 1:0.984556 2:0.362416 3:0.621622 4:0.0469799 
-2048 1:-0.0579151 2:-0.785235 3:-0.0617761 4:0.852349 
-189.0870070866142 1:0.3861 2:-0.295302 3:0.312741 4:-0.033557 
-2048 1:-0.478764 2:-0.328859 3:-0.196911 4:-0.261745 
-719.344584825452 1:-0.150579 2:-0.684564 3:-0.393822 4:0.342282 
-2048 1:0.822394 2:-0.751678 3:0.625483 4:0.187919 
-2048 1:-0.702703 2:0.295302 3:-0.617761 4:-0.597315 
-2048 1:0.27027 2:0.033557 3:0.362934 4:0.174497 
-2048 1:0.640927 2:-0.268456 3:0.590734 4:-0.120805 
-1421.963228475063 1:0.42471 2:0.939597 3:0.749035 4:0.697987 
-1060.437411604034 1:-0.432432 2:-0.315436 3:0.135135 4:-0.852349 
-1548.541311393208 1:-0.617761 2:-0.852349 3:-0.220077 4:-0.194631 
-2048 1:0.853282 2:0.174497 3:0.972973 4:0.61745 
-2048 1:-0.644788 2:0.221477 3:-0.949807 4:-0.778523 
-2048 1:-0.0849421 2:0.114094 3:-0.72973 4:0.308725 
-794.7546581910793 1:0.027027 2:-0.422819 3:-0.281853 4:-0.624161 
-1778.929063063334 1:-0.027027 2:-0.845638 3:-0.969112 4:0.791946 
-641.878547178668 1:-0.513514 2:-0.0939597 3:0.0888031 4:-0.416107 
-2048 1:0.0694981 2:-0.275168 3:-0.69112 4:0.422819 
-2048 1:-0.0540541 2:-0.879195 3:-0.420849 4:0.738255 
-275.4169595493098 1:0.0501931 2:0.0268456 3:0.0810811 4:-0.771812 
-2048 1:-0.671815 2:0.214765 3:0.111969 4:0.449664 
-2048 1:0.610039 2:0.0469799 3:0.899614 4:-0.744966 
-2048 1:0.030888 2:-0.0872483 3:-0.142857 4:-0.0469799 
-2048 1:-0.135135 2:-0.825503 3:-0.223938 4:-0.939597 
-2048 1:-0.166023 2:0.0872483 3:-0.320463 4:-0.684564 
-232.0516200514424 1:0.266409 2:0.95302 3:0.571429 4:-0.308725 
-2048 1:-0.810811 2:-0.147651 3:-0.911197 4:0.100671 
-2048 1:-0.505792 2:0.651007 3:-0.0617761 4:-0.872483 
-2048 1:-0.189189 2:-0.718121 3:-0.413127 4:-1 
-2048 1:-0.602317 2:0.201342 3:-0.119691 4:0.241611 
-2048 1:-0.0540541 2:-0.852349 3:-0.455598 4:-0.0536913 
-2048 1:0.760618 2:0.422819 3:0.822394 4:0.308725 
-2048 1:0.027027 2:-0.718121 3:-0.841699 
-2048 1:-0.0849421 2:0.208054 3:-0.656371 4:-0.375839 
-2048 1:-0.6139 2:-0.751678 3:-0.401544 4:-0.402685 
-2048 1:-0.992278 2:-0.114094 3:-0.34749 4:-0.563758 
-2048 1:-0.015444 2:0.845638 3:-0.783784 4:0.691275 
-1706.227688299461 1:0.366795 2:0.892617 3:0.899614 4:-0.395973 
-2048 1:0.030888 2:-0.174497 3:-0.826255 4:-0.744966 
-641.6778134028868 1:0.436293 2:0.872483 3:0.903475 4:0.624161 
-2048 1:-0.409266 2:-0.409396 3:-0.34749 4:0.979866 
-2048 1:-0.131274 2:0.322148 3:-0.023166 4:0.825503 
-2048 1:-0.289575 2:-0.724832 3:-0.0501931 4:0.798658 
-2048 1:0.266409 2:-0.624161 3:0.355212 4:0.214765 
-2048 1:0.625483 2:-0.38255 3:0.826255 4:0.959732 
-1744.031368900472 1:0.656371 2:0.691275 3:0.915058 4:-0.85906 
-2048 1:0.0888031 2:-0.771812 3:-0.378378 4:-0.90604 
-2048 1:-0.305019 2:-0.66443 3:0.0888031 4:-0.791946 
-372.1268664302617 1:-0.822394 2:0.315436 3:-0.216216 4:-0.711409 
-2048 1:0.617761 2:0.127517 3:0.285714 4:0.543624 
-2048 1:-0.0540541 2:0.966443 3:-0.0501931 4:-0.912752 
-2048 1:-0.745174 2:0.557047 3:-0.911197 4:-0.771812 
-1870.455954322482 1:-0.687259 2:0.228188 3:-0.926641 4:0.919463 
-1382.490556258013 1:0.119691 2:-0.248322 3:-0.525097 4:0.167785 
-2048 1:-0.602317 2:0.261745 3:-0.718147 4:0.604027 
-2048 1:0.312741 2:0.255034 3:0.888031 4:0.912752 
-78.11933270630355 1:0.108108 2:0.932886 3:-0.872587 4:-0.577181 
-2048 1:-0.0540541 2:-0.624161 3:-0.374517 4:-0.610738 
-2048 1:0.752896 2:0.0469799 3:0.555985 4:0.0671141 
-2048 1:0.602317 2:0.14094 3:0.324324 4:0.892617 
-2048 1:-0.285714 2:-0.724832 3:-0.235521 4:0.033557 
-2048 1:0.0733591 2:-0.409396 3:0.0501931 4:0.832215 
-1804.329776025467 1:0.467181 2:0.973154 3:0.335907 4:-0.161074 
-240.5782701133749 1:-0.803089 2:-0.771812 3:-0.930502 4:-0.590604 
-2048 1:-0.864865 2:-0.0738255 3:-0.131274 4:0.677852 
-2048 1:0.594595 2:-0.214765 3:0.660232 4:0.0671141 
-2048 1:0.590734 2:0.174497 3:0.305019 4:0.167785 
-1953.009803383593 1:0.509653 2:0.765101 3:0.783784 4:-0.0201342 
-2048 1:0.03861 2:-0.0268456 3:-0.135135 4:0.825503 
-986.0508715767299 1:0.996139 2:-0.765101 3:0.277992 4:-0.342282 
-2048 1:-0.760618 2:0.677852 3:-0.034749 4:-0.838926 
-2048 1:0.0656371 2:-0.530201 3:-0.598456 4:-0.805369 
-481.3200579147096 1:-0.930502 2:0.919463 3:-0.926641 4:-0.771812 
-2048 1:0.752896 2:0.630872 3:0.756757 4:0.798658 
-2048 1:0.980695 2:0.785235 3:0.528958 4:-0.228188 
-2048 1:0.544402 2:-0.315436 3:0.942085 4:-0.295302 
-2048 1:0.76834 2:0.510067 3:0.544402 4:-0.248322 
-2048 1:-0.872587 2:-0.771812 3:-0.818533 4:-0.677852 
-2048 1:-0.243243 2:0.704698 3:-0.119691 4:-0.939597 
-1152.22059424496 1:0.312741 2:-0.208054 3:0.366795 4:-0.348993 
-2048 1:-0.409266 2:-0.52349 3:-0.833977 4:0.355705 
-2048 1:-0.0965251 2:0.966443 3:-0.108108 4:-0.778523 
-286.643605024917 1:0.980695 2:0.57047 3:0.783784 4:-0.536913 
-2048 1:-0.80695 2:-0.174497 3:-0.714286 4:-0.288591 
-2048 1:0.011583 2:-0.281879 3:-0.324324 4:-0.234899 
-2048 1:-0.787645 2:-0.120805 3:-0.517375 4:0.167785 
-1767.990945767963 1:-0.861004 2:-0.0671141 3:-0.046332 4:-0.530201 
-2048 1:-0.872587 2:-0.704698 3:0.0579151 4:-0.651007 
-2048 1:-0.0926641 2:-0.456376 3:-0.957529 4:-0.342282 
-2048 1:-0.942085 2:-0.724832 3:0.0694981 4:0.147651 
-258.1152978936065 1:-0.196911 2:-0.241611 3:-0.671815 4:-0.114094 
-2048 1:0.617761 2:-0.248322 3:0.305019 4:-0.342282 
-2048 1:0.0772201 2:0.275168 3:-0.027027 4:-0.818792 
-2048 1:-0.733591 2:-0.0469799 3:-0.100386 4:-0.852349 
-2048 1:0.0501931 2:-0.161074 3:-0.930502 4:-0.503356 
-1204.137042267969 1:0.0617761 2:-0.0268456 3:-0.864865 4:-0.697987 
-2048 1:-0.857143 2:-0.14094 3:-0.760618 4:0.442953 
-2048 1:-0.976834 2:-0.0268456 3:-0.833977 4:-0.0738255 
-2048 1:0.598456 2:0.0201342 3:0.501931 4:0.744966 
-2048 1:0.586873 2:-0.268456 3:0.868726 4:0.872483 
-2048 1:-0.289575 2:-0.234899 3:-0.65251 4:-0.798658 
-592.0553262406514 1:-0.335907 2:-0.671141 3:-0.895753 4:-0.194631 
-2048 1:-0.0965251 2:0.154362 3:-0.305019 4:0.0402685 
-2048 1:-0.0965251 2:-0.33557 3:-0.72973 4:-0.248322 
-2048 1:0.53668 2:0.187919 3:0.888031 4:-0.550336 
-2048 1:0.0849421 2:0.483221 3:-0.301158 4:-0.496644 
-2048 1:0.393822 2:-0.214765 3:0.328185 4:-0.127517 
-2048 1:-0.3861 2:0.0402685 3:-0.818533 4:-0.0872483 
-782.2761928089114 1:0.393822 2:-0.845638 3:0.888031 4:-0.436242 
-2048 1:-0.100386 2:-0.563758 3:-0.675676 
-2048 1:-0.0926641 2:-0.85906 3:-0.413127 4:-0.671141 
-2048 1:-0.494208 2:-0.731544 3:-0.72973 4:0.201342 
-1775.112544711303 1:-0.3861 2:-0.785235 3:0.0965251 4:-0.308725 
-2048 2:0.697987 3:-0.138996 4:-0.255034 
-2048 1:-0.42471 2:0.0939597 3:0.0926641 4:-0.684564 
-2048 1:0.888031 2:-0.402685 3:0.953668 4:0.95302 
-2048 1:0.142857 2:-0.738255 3:-0.027027 4:0.275168 
-745.5051347201914 1:-0.444015 2:-0.912752 3:-0.301158 4:-0.295302 
-2048 1:0.610039 2:0.557047 3:0.447876 4:0.0201342 
-1561.823135861072 1:0.239382 2:0.885906 3:0.420849 4:0.946309 
-2048 1:-0.023166 2:0.234899 3:0.034749 4:-0.442953 
-2048 1:0.590734 2:0.85906 3:0.393822 4:-0.469799 
-2048 1:0.467181 2:-0.0738255 3:0.80695 4:0.671141 
-2048 1:0.0501931 2:0.939597 3:0.0501931 4:-0.322148 
-2048 1:-0.0888031 2:-0.684564 3:-0.880309 4:-0.114094 
-2048 1:0.702703 2:0.919463 3:0.335907 4:-0.14094 
-2048 1:-0.706564 2:0.604027 3:-0.027027 4:-0.852349 
-2048 1:-0.111969 2:-0.577181 3:-0.305019 4:0.469799 
-2048 1:0.011583 2:0.302013 3:-0.343629 4:-0.489933 
-987.1020824685614 1:-0.942085 2:-0.496644 3:0.0733591 4:-0.134228 
-1124.276046696486 1:0.988417 2:0.281879 3:0.316602 4:-0.241611 
-1294.800522476831 1:-0.247104 2:-0.516779 3:0.119691 4:0.52349 
-113.7357590970276 1:-0.988417 2:0.912752 3:-0.293436 4:-0.57047 
-2048 1:-0.447876 2:-0.120805 3:-0.930502 4:-0.771812 
-2048 1:-0.814672 2:-0.033557 3:-0.65251 4:-0.939597 
-2048 1:-0.0926641 2:0.993289 3:-0.262548 4:-0.322148 
-2048 1:-0.88417 2:-0.114094 3:-0.706564 4:0.583893 
-2048 1:-0.926641 2:-0.557047 3:0.0501931 
-66.37081280862859 1:-0.305019 2:-0.315436 3:-0.895753 4:-0.510067 
-638.1328894669454 1:0.281853 2:0.563758 3:0.791506 4:0.42953 
-1827.15396580117 1:0.135135 2:-0.798658 3:-0.76834 4:-0.0402685 
-2048 1:0.382239 2:0.912752 3:0.779923 4:-0.785235 
-396.6593298068524 1:-0.822394 2:-0.516779 3:-0.138996 4:-0.362416 
-2048 1:-0.216216 2:-0.926174 3:-0.204633 4:-0.234899 
-2048 1:-0.841699 2:0.134228 3:0.0926641 4:-0.342282 
-2048 1:-0.104247 2:-0.838926 3:-0.378378 4:0.47651 
-263.0407459957653 1:-0.984556 2:0.0536913 3:0.0810811 4:0.818792 
-2048 1:0.633205 2:0.241611 3:0.625483 4:0.892617 
-575.9540424535132 1:-0.833977 2:-0.590604 3:0.0810811 4:0.899329 
-2048 1:0.281853 2:0.879195 3:0.328185 4:-0.0939597 
-2048 1:-0.714286 2:-0.409396 3:0.0772201 4:0.0805369 
-2048 1:-0.803089 2:-0.771812 3:-0.467181 4:0.838926 
-2048 1:-0.509653 2:0.422819 3:0.023166 4:-0.14094 
-2048 1:-0.301158 2:0.61745 3:0.11583 4:-0.348993 
-751.42031274098 1:0.903475 2:-0.993289 3:0.509653 4:-0.328859 
-2048 1:0.416988 2:-0.120805 3:0.583012 4:0.187919 
-1604.872187526853 1:0.235521 2:-0.201342 3:0.362934 4:1 
-2048 1:0.606178 2:-0.328859 3:0.656371 4:0.38255 
-424.018747618436 1:0.749035 2:-0.42953 3:0.633205 4:0.66443 
-1768.226158900927 1:0.0888031 2:-0.845638 3:-0.583012 4:0.946309 
-2048 1:0.046332 2:-0.610738 3:-0.718147 4:0.496644 
-2048 1:-0.857143 2:-0.288591 3:-0.23166 4:-0.167785 
-2048 1:-0.138996 2:-0.630872 3:0.138996 4:0.503356 
-2048 1:0.034749 2:-0.510067 3:0.0617761 4:0.369128 
-1602.185885529135 1:0.100386 2:-0.33557 3:-0.907336 4:0.0268456 
-2048 1:-0.555985 2:-0.0402685 3:-0.03861 4:-0.791946 
-2048 1:-0.351351 2:-0.127517 3:-0.714286 4:0.201342 
-1348.773835620792 1:0.447876 2:-0.38255 3:0.247104 4:1 
-2048 1:0.579151 2:0.798658 3:0.830116 4:-0.577181 
-2048 1:-0.166023 2:-0.328859 3:-0.903475 4:0.255034 
-182.6550340265871 1:-0.355212 2:-0.342282 3:-0.03861 4:0.543624 
-2048 1:-0.629344 2:0.979866 3:-0.76834 4:-0.181208 
-2048 1:-0.501931 2:0.852349 3:-0.00772201 4:-0.845638 
-2048 1:0.501931 2:0.758389 3:0.486486 4:-0.516779 
-846.2139458237493 1:0.590734 2:-0.966443 3:0.42471 4:0.66443 
-2048 1:0.127413 2:-0.684564 3:-0.200772 
-2048 1:-0.803089 2:-0.0939597 3:-0.351351 4:0.275168 
-2048 1:0.023166 2:-0.127517 3:-0.544402 4:-0.167785 
-352.8521971292569 1:-0.779923 2:0.33557 3:-0.305019 4:-0.704698 
-2048 1:0.540541 2:0.0939597 3:0.945946 4:0.597315 
-110.2541175495026 1:0.135135 2:0.932886 3:-0.53668 4:0.161074 
-2048 1:-0.343629 2:-0.66443 3:-0.0617761 4:-0.127517 
-2048 1:-0.339768 2:-0.697987 3:-0.11583 4:0.161074 
-2048 1:0.621622 2:0.14094 3:0.501931 4:0.147651 
-973.3537579372032 1:-0.938224 2:-0.718121 3:-1 4:0.812081 
-2048 1:0.513514 2:0.100671 3:0.393822 4:0.355705 
-2048 1:0.490347 2:0.114094 3:0.57529 4:0.127517 
-2048 1:-0.138996 2:-0.228188 3:-0.0965251 4:0.66443 
-2048 1:0.942085 2:0.47651 3:0.528958 4:0.194631 
-2048 1:-0.212355 2:0.0201342 3:-0.0849421 4:-0.52349 
-531.6748065013954 1:-0.150579 2:-0.637584 3:-0.76834 4:-0.281879 
-1582.069063335228 1:0.297297 2:-0.677852 3:0.521236 4:0.818792 
-2048 1:0.0733591 2:-0.724832 3:-0.698842 4:0.127517 
-2048 1:0.478764 2:-0.315436 3:0.548263 4:-0.315436 
-2048 1:-0.0965251 2:-0.785235 3:0.119691 4:0.355705 
-2048 1:0.003861 2:0.724832 3:-0.332046 4:0.201342 
-1935.505881773597 1:-0.667954 2:-0.986577 3:0.111969 4:-0.785235 
-2048 1:-0.679537 2:-0.630872 3:0.0540541 4:0.838926 
-2048 1:-0.405405 2:-0.328859 3:-0.0579151 4:0.308725 
-2048 1:0.888031 2:-0.322148 3:0.46332 4:0.302013 
-2048 1:-0.637066 2:-0.328859 3:-0.135135 4:0.174497 
-494.7561653388659 1:0.301158 2:0.838926 3:0.382239 4:0.355705 
-225.1840980836515 1:-0.00772201 2:-0.912752 3:0.108108 4:-0.939597 
-1826.219445287134 1:0.563707 2:-0.85906 3:0.297297 4:-0.181208 
-2048 1:-0.822394 2:-0.147651 3:-0.629344 4:-0.61745 
-2039.517635379191 1:0.0501931 2:-0.348993 3:-0.15444 4:-0.85906 
-2048 1:-0.100386 2:-0.838926 3:-0.169884 4:-0.95302 
-2048 1:-0.787645 2:0.818792 3:-0.119691 4:-0.912752 
-2048 1:-0.138996 2:-0.879195 3:-0.899614 4:-0.704698 
-2048 1:-0.0849421 2:-0.42953 3:-0.540541 4:0.993289 
-37.84019124774056 1:0.505792 2:0.986577 3:0.494208 4:-0.389262 
-2048 1:-0.57529 2:-0.0536913 3:-0.0926641 4:-0.919463 
-2048 1:0.621622 2:0.0872483 3:0.791506 4:-0.583893 
-2038.056255580147 1:0.868726 2:-0.892617 3:0.312741 4:1 
-2048 1:-0.389961 2:-0.308725 3:-0.420849 4:0.711409 
-2048 1:-0.590734 2:0.47651 3:-0.706564 4:0.261745 
-1960.807131803747 1:0.277992 2:0.765101 3:0.525097 4:0.402685 
-2047.300883996573 1:-0.621622 2:0.38255 3:-0.146718 4:-0.671141 
-54.62933468723695 1:-0.351351 2:-0.939597 3:0.0888031 4:-0.288591 
-2048 1:-0.552124 2:0.208054 3:-0.486486 4:0.161074 
-2048 1:-0.687259 2:0.516779 3:-0.733591 4:0.208054 
-2048 1:0.683398 2:0.0872483 3:0.513514 4:-0.214765 
-2048 1:-0.505792 2:0.489933 3:0.046332 4:0.919463 
-2048 1:0.648649 2:-0.557047 3:0.389961 4:0.825503 
-1280.439004087687 1:0.297297 2:0.107383 3:0.27027 4:-0.033557 
-2048 1:0.84556 2:-0.536913 3:0.625483 4:0.154362 
-2048 1:-0.119691 2:-0.90604 3:-0.227799 4:0.604027 
-170.7900503209895 1:-0.250965 2:-0.275168 3:-0.888031 4:0.174497 
-2048 1:-0.305019 2:0.926174 3:0.0926641 4:-0.57047 
-670.0361282569806 1:0.30888 2:0.234899 3:0.675676 4:-0.697987 
-2048 1:-0.019305 2:0.718121 3:-0.930502 4:-0.771812 
-2011.287654260608 1:0.0656371 2:0.986577 3:-0.0694981 4:0.275168 
-2048 1:0.664093 2:-0.0268456 3:0.586873 4:0.0604027 
-2048 1:-0.3861 2:0.577181 3:-0.324324 4:-0.684564 
-2048 1:0.274131 2:-0.704698 3:0.598456 4:0.832215 
-2048 1:0.003861 2:0.66443 3:0.0888031 4:-0.825503 
-2048 1:-0.324324 2:-0.187919 3:-0.969112 4:0.758389 
-796.1717391788043 1:0.250965 2:0.57047 3:0.633205 4:-0.986577 
-2048 1:0.65251 2:0.449664 3:0.250965 4:-0.845638 
-2048 1:-0.243243 2:-0.154362 3:-0.3861 4:0.302013 
-2048 1:-0.250965 2:0.33557 3:-0.0926641 4:-0.510067 
-441.6920501441072 1:-0.528958 2:0.422819 3:-0.664093 4:0.255034 
-2048 1:-0.0888031 2:0.33557 3:-0.173745 4:-0.66443 
-1735.61599452723 1:-0.042471 2:0.758389 3:0.0926641 4:-0.134228 
-2048 1:0.0501931 2:0.852349 3:-0.880309 4:1 
-2048 1:0.517375 2:0.0805369 3:0.34749 4:-0.95302 
-2048 1:-0.718147 2:0.812081 3:-0.722008 4:0.167785 
-942.0363343866632 1:0.590734 2:0.865772 3:0.46332 4:-0.85906 
-540.9344994608081 1:-0.528958 2:-0.95302 3:0.042471 4:-0.308725 
-1427.373207951019 1:-0.366795 2:0.47651 3:-0.648649 4:0.993289 
-2048 1:-0.640927 2:-0.221477 3:-0.378378 4:-0.644295 
-2048 1:-0.918919 2:0.697987 3:-0.374517 4:-0.590604 
-1008.788477206754 1:0.436293 2:0.395973 3:0.378378 4:-0.95302 
-2048 1:0.6139 2:0.167785 3:0.3861 4:-0.167785 
-2048 1:0.444015 2:0.939597 3:0.355212 4:-0.879195 
-2048 1:0.023166 2:-0.107383 3:-0.243243 4:0.409396 
-562.2739244162226 1:0.988417 2:-0.503356 3:0.53668 4:0.791946 
-2048 1:-0.629344 2:0.255034 3:-0.644788 4:-0.0402685 
-2048 1:-0.100386 2:-0.583893 3:-0.65251 4:-0.684564 
-2048 1:0.301158 2:0.959732 3:0.490347 4:-0.295302 
-1514.669562629141 1:0.0849421 2:-0.744966 3:0.023166 4:-0.85906 
-2048 1:-0.138996 2:-0.241611 3:-0.625483 4:0.0872483 
-2048 1:0.853282 2:-0.0268456 3:0.451737 4:0.919463 
-515.9114217888216 1:-0.397683 2:-0.436242 3:-0.656371 4:-0.268456 
-2048 1:0.003861 2:-0.892617 3:-0.366795 4:-0.241611 
-2048 1:-0.11583 2:-0.456376 3:-0.899614 4:0.147651 
-2048 1:-0.0617761 2:0.107383 3:-0.996139 4:-0.181208 
-137.5224409393414 1:0.486486 2:-0.785235 3:0.899614 4:-0.563758 
-2048 1:0.3861 2:0.932886 3:0.783784 4:-0.0201342 
-2048 1:0.567568 2:-0.302013 3:0.467181 4:0.0604027 
-2048 1:-0.899614 2:0.577181 3:0.015444 4:-0.328859 
-2048 1:-0.0849421 2:0.208054 3:-0.011583 4:-0.0134228 
-109.2910997069726 1:0.3861 2:0.362416 3:0.92278 4:0.127517 
-1279.830751441952 1:0.818533 2:0.409396 3:0.305019 4:-0.134228 
-2048 1:-0.355212 2:0.791946 3:-0.903475 4:-0.771812 
-123.6685797944522 1:-0.169884 2:-0.536913 3:-0.459459 4:-1 
-1265.557459559577 1:0.53668 2:-0.61745 3:0.88417 4:-0.463087 
-2048 1:-0.42471 2:0.57047 3:-0.718147 4:0.248322 
-2048 1:0.84556 2:0.0268456 3:0.571429 4:0.375839 
-1713.872213642376 1:0.03861 2:0.510067 3:0.127413 4:0.838926 
-1964.587664280106 1:-0.247104 2:-0.234899 3:-0.297297 4:0.751678 
-2048 1:0.0617761 2:-0.395973 3:-0.702703 4:0.691275 
-2048 1:0.501931 2:0.765101 3:0.339768 4:-0.590604 
-2048 1:0.617761 2:0.134228 3:0.405405 4:0.966443 
-2048 1:-0.505792 2:-0.872483 3:-0.131274 4:-0.61745 
-2048 1:-0.03861 2:-0.912752 3:-0.297297 4:0.825503 
-2048 1:-0.675676 2:0.0536913 3:0.0579151 4:-0.322148 
-2048 1:-0.583012 2:0.979866 3:-0.660232 4:0.557047 
-2048 1:0.111969 2:-0.805369 3:-0.525097 4:-0.892617 
-886.4551922798947 1:-0.579151 2:0.489933 3:0.0810811 4:0.033557 
-2009.693634343861 1:0.436293 2:-0.651007 3:0.57529 4:0.845638 
-476.2017548598711 1:-0.030888 2:0.785235 3:-0.667954 4:0.181208 
-1539.688135673609 1:-0.312741 2:-0.234899 3:-0.185328 4:-0.194631 
-2048 1:-0.440154 2:-0.718121 3:-0.80695 4:-0.711409 
-2048 1:0.432432 2:0.892617 3:1 4:0.778523 
-1948.277737633315 1:0.637066 2:-0.57047 3:0.6139 4:0.85906 
-1573.357965551814 1:0.540541 2:-0.838926 3:0.899614 4:-0.449664 
-2048 1:-0.698842 2:0.161074 3:-0.957529 4:0.14094 
-2048 1:-0.162162 2:-0.288591 3:-0.733591 4:-0.342282 
-2048 1:0.108108 2:-0.395973 3:0.011583 4:0.758389 
-2048 1:-0.84556 2:-0.100671 3:-0.011583 4:-0.798658 
-2048 1:0.123552 2:0.624161 3:-0.409266 4:-0.33557 
-1211.533177300687 1:0.679537 2:0.281879 3:0.451737 4:0.832215 
-2048 1:-0.0733591 2:-0.966443 3:0.0617761 4:0.0134228 
-2048 1:0.548263 2:0.154362 3:0.467181 4:-0.530201 
-357.0629027443796 1:0.305019 2:1 3:0.374517 4:0.234899 
-2048 1:0.579151 2:0.0805369 3:0.957529 4:-0.355705 
-1335.954716170368 1:-0.0579151 2:-0.0805369 3:-0.123552 4:-0.288591 
-1034.421703240248 1:-0.312741 2:-0.61745 3:0.046332 4:-0.798658 
-955.0592129541214 1:-0.362934 2:-0.630872 3:-0.142857 4:-0.161074 
-1991.570024487801 1:0.015444 2:-0.328859 3:0.100386 4:0.281879 
-2048 1:-0.745174 2:0.234899 3:-0.586873 4:-0.604027 
-2048 1:-0.301158 2:0.973154 3:-0.11583 4:-0.550336 
-2048 1:-0.837838 2:0.671141 3:0.0501931 4:-0.342282 
-2048 1:0.532819 2:0.114094 3:0.942085 4:0.456376 
-2048 1:-0.930502 2:-0.66443 3:-0.289575 4:-0.255034 
-2048 1:0.722008 2:0.805369 3:0.891892 4:0.671141 
-2048 1:-0.849421 2:-0.107383 3:-0.297297 4:-0.838926 
-258.3674253631065 1:-0.382239 2:-0.530201 3:-0.583012 4:0.979866 
-2048 1:-0.247104 2:-0.711409 3:-0.6139 4:-0.852349 
-1780.373964492494 1:0.733591 2:-0.718121 3:0.258687 4:0.671141 
-2048 1:0.03861 2:-0.449664 3:-0.737452 4:0.651007 
-2048 1:-0.0965251 2:-0.791946 3:-0.370656 4:0.543624 
-595.3760164873669 1:-0.752896 2:0.812081 3:0.0888031 4:-0.355705 
-2048 1:0.0540541 2:-0.248322 3:-0.467181 4:0.711409 
-2048 1:-0.528958 2:-0.362416 3:0.0540541 4:-0.463087 
-582.0992658556079 1:0.76834 2:0.885906 3:0.258687 4:0.248322 
-2048 1:-0.988417 2:-0.90604 3:-0.637066 4:0.234899 
-1001.419218004971 1:-0.030888 2:0.771812 3:-0.837838 4:-0.711409 
-2048 1:-0.111969 2:0.100671 3:-0.359073 4:-0.00671141 
-2048 1:0.540541 2:-0.107383 3:0.88417 4:-0.489933 
-2048 1:-0.420849 2:-0.38255 3:-0.525097 4:0.463087 
-77.94999939262543 1:0.235521 2:0.778523 3:0.301158 4:0.489933 
-2048 1:0.119691 2:0.275168 3:-0.868726 4:-0.120805 
-2048 1:-0.0926641 2:0.697987 3:-0.830116 4:-0.0402685 
-2048 1:-0.57529 2:0.248322 3:-0.011583 4:-0.0872483 
-2048 1:0.0888031 2:-0.503356 3:0.146718 4:-0.342282 
-1344.381600690003 1:-0.293436 2:0.610738 3:-0.374517 4:-0.604027 
-2048 1:0.915058 2:0.255034 3:0.420849 4:0.610738 
-2048 1:-0.104247 2:0.33557 3:-0.177606 4:-0.657718 
-841.8122817032862 1:-0.382239 2:-0.530201 3:-0.378378 4:0.530201 
-2048 1:0.69112 2:-0.389262 3:0.486486 4:-0.577181 
-2048 1:-0.567568 2:0.201342 3:-0.471042 4:-0.52349 
-2048 1:-0.11583 2:-0.402685 3:-0.84556 4:0.302013 
-2048 1:-0.837838 2:-0.0536913 3:-0.6139 4:0.785235 
-2048 1:0.019305 2:-0.597315 3:0.011583 4:0.362416 
-2048 1:-0.0888031 2:-0.838926 3:0.046332 4:-0.66443 
-2048 1:-0.227799 2:0.503356 3:-0.30888 4:-0.724832 
-2048 1:0.0540541 2:-0.0469799 3:-0.023166 4:0.362416 
-2048 1:-0.779923 2:0.57047 3:-0.235521 4:-0.691275 
-2048 1:0.915058 2:-0.0805369 3:0.6139 4:-0.328859 
-2048 1:-0.389961 2:-0.234899 3:-0.714286 4:0.288591 
-2048 1:-0.586873 2:-0.832215 3:-0.011583 4:0.758389 
-1235.317924570628 1:0.548263 2:0.704698 3:0.362934 4:0.033557 
-1190.18118258324 1:0.324324 2:0.604027 3:0.969112 4:0.422819 
-2048 1:-0.760618 2:-0.57047 3:-0.864865 4:-0.114094 
-2048 1:-0.467181 2:0.107383 3:-0.019305 4:0.785235 
-2048 1:0.548263 2:0.161074 3:0.895753 4:0.268456 
-247.6812533608487 1:0.915058 2:-0.684564 3:0.254826 4:-0.187919 
-2048 1:-0.498069 2:0.302013 3:0.111969 4:-0.785235 
-424.4286266443516 1:-0.343629 2:-0.295302 3:-0.447876 4:-0.973154 
-499.9904426531198 1:-0.857143 2:1 3:-0.0579151 4:-0.798658 
-2048 1:0.911197 2:-0.489933 3:0.667954 4:0.0671141 
-2048 1:0.235521 2:-0.00671141 3:0.3861 4:0.993289 
-132.6654293376611 1:0.509653 2:-0.738255 3:0.312741 4:0.483221 
-2048 1:0.880309 2:-0.42953 3:0.416988 4:0.241611 
-2048 1:0.96139 2:0.0268456 3:0.667954 4:-0.268456 
-10.0294993007673 1:0.420849 2:0.0805369 3:0.239382 4:0.47651 
-2048 1:-0.938224 2:-0.0268456 3:-0.0617761 4:0.120805 
-898.3069465771738 1:-0.181467 2:-0.503356 3:-0.0733591 4:0.95302 
-2048 1:-0.656371 2:0.201342 3:-0.227799 4:0.288591 
-2048 1:-0.332046 2:0.550336 3:-0.239382 4:-0.187919 
-2048 1:-0.810811 2:-0.543624 3:-0.413127 4:-0.550336 
-2048 1:-0.320463 2:0.872483 3:-0.355212 4:-0.597315 
-2048 1:-0.0579151 2:-0.845638 3:-0.621622 4:-0.791946 
-2048 1:0.583012 2:0.154362 3:0.880309 4:-0.181208 
-2048 1:0.899614 2:-0.0671141 3:0.837838 4:0.624161 
-2048 1:0.343629 2:0.0536913 3:0.389961 4:0.919463 
-655.933117780627 1:-0.571429 2:-0.932886 3:0.135135 4:0.919463 
-2048 1:0.722008 2:-0.785235 3:0.266409 4:0.221477 
-2013.328992856015 1:0.444015 2:-0.328859 3:0.637066 4:0.442953 
-1373.74501960503 1:-0.15444 2:-0.308725 3:-0.277992 4:-0.771812 
-2048 1:-0.741313 2:0.187919 3:-0.617761 4:0.281879 
-2048 1:-0.459459 2:0.315436 3:-0.602317 4:0.241611 
-609.3891138413172 1:0.293436 2:-0.147651 3:0.822394 4:-0.402685 
-2048 1:-0.339768 2:0.711409 3:-0.216216 4:-0.228188 
-847.9563275511156 1:0.123552 2:0.134228 3:-0.351351 4:0.919463 
-1174.009555886774 1:-0.216216 2:-0.630872 3:-0.934363 4:0.187919 
-252.1543791006892 1:0.868726 2:0.651007 3:0.992278 4:0.637584 
-2048 1:-0.258687 2:-1 3:-0.212355 4:-0.691275 
-1397.498817385406 1:-0.915058 2:0.778523 3:-0.297297 4:-0.651007 
-2048 1:-0.030888 2:0.771812 3:-0.0926641 4:-0.744966 
-859.3377492550032 1:0.749035 2:0.677852 3:0.96139 4:0.832215 
-2048 1:-0.216216 2:0.201342 3:-0.795367 4:-0.0939597 
-2048 1:0.254826 2:0.228188 3:0.258687 4:0.66443 
-2048 1:-0.432432 2:0.785235 3:-0.370656 4:-0.61745 
-2048 1:0.633205 2:0.832215 3:0.297297 4:0.852349 
-2048 1:0.335907 2:0.208054 3:0.428571 4:0.0872483 
-2048 1:-0.988417 2:0.100671 3:-0.857143 4:-0.738255 
-1436.395098462776 1:-0.72973 2:0.939597 3:-0.945946 4:-0.711409 
-2048 1:0.895753 2:-0.463087 3:0.610039 4:-0.134228 
-2048 1:-0.359073 2:-0.671141 3:-0.586873 4:0.463087 
-63.82588946486658 1:-0.992278 2:-0.939597 3:0.0849421 4:-0.0671141 
-2048 1:-0.0849421 2:-0.939597 3:-0.749035 4:-0.362416 
-2048 1:-0.776062 2:0.187919 3:-0.111969 4:-0.785235 
-2048 1:0.787645 2:-0.95302 3:0.586873 4:0.0671141 
-2048 1:0.0965251 2:0.181208 3:0.0694981 4:-0.47651 
-1082.862238478978 1:-0.405405 2:0.912752 3:0.0733591 4:-0.0268456 
-2048 1:-0.65251 2:0.946309 3:-0.262548 4:0.214765 
-950.6571036035766 1:0.745174 2:0.107383 3:0.285714 4:-0.134228 
-2048 1:0.571429 2:-0.771812 3:0.332046 4:-0.127517 
-940.2291960473756 1:0.544402 2:0.241611 3:0.579151 4:0.342282 
-2048 1:-0.332046 2:0.543624 3:-0.104247 4:-0.597315 
-2048 1:0.586873 2:0.899329 3:0.799228 4:0.295302 
