svm_type c_svc
kernel_type rbf
gamma 2
nr_class 2
total_sv 425
rho 7.56024
label 1 2
nr_sv 196 229
SV
128 1:-0.823038 2:0.859649 3:-0.388982 4:0.353383 
59.37913706267464 1:-0.976628 2:0.914787 3:-0.375626 4:-0.639098 
128 1:-0.345576 2:-0.629073 3:-0.395659 4:0.834586 
0.2410525514550891 1:-0.419032 2:-0.934837 3:-0.819699 4:0.493734 
128 1:0.315526 2:0.403509 3:0.275459 4:0.0676692 
58.38162510041037 1:-0.115192 2:0.814536 3:0.338898 4:0.383459 
8.955605788584714 1:0.549249 2:-0.298246 3:0.619366 4:0.428571 
58.90143555576578 1:-0.979967 2:-0.518797 3:-0.899833 4:-0.0776942 
18.53292621966729 1:-0.806344 2:0.468672 3:-0.378965 4:0.408521 
20.24200789374655 1:0.883139 2:0.54386 3:0.966611 4:-0.328321 
128 1:-0.258765 2:-0.258145 3:0.105175 4:0.458647 
128 1:0.375626 2:0.639098 3:0.338898 4:-0.363409 
60.63707135179911 1:-0.188648 2:0.909774 3:0.265442 4:-0.157895 
123.7311347633661 1:0.626043 2:0.909774 3:0.529215 4:0.578947 
44.18260587404979 1:-0.525876 2:0.558897 3:-0.372287 4:-0.283208 
128 1:-0.345576 2:0.243108 3:-0.552588 4:0.709273 
112.0146770645429 1:-0.388982 2:0.363409 3:-0.465776 4:0.568922 
128 1:0.388982 2:-0.749373 3:0.368948 4:-0.333333 
92.46185664156721 1:0.949917 2:0.849624 3:0.692821 4:-0.283208 
128 1:-0.175292 2:-0.52381 3:0.368948 4:-0.0776942 
109.8732461219583 1:0.859766 2:-0.694236 3:0.943239 4:-0.278195 
128 1:-0.138564 2:0.889724 3:-0.195326 4:0.538847 
128 1:-0.232053 2:-0.694236 3:-0.188648 4:0.20802 
39.45810723635611 1:0.248748 2:-0.0225564 3:0.33222 4:0.0325815 
30.02722971667341 1:0.589316 2:-0.914787 3:0.963272 4:-0.403509 
105.4336265967306 1:0.652755 2:0.834586 3:0.555927 4:-0.764411 
128 1:-0.429048 2:0.869674 3:-0.365609 4:-0.533835 
128 1:0.489149 2:0.754386 3:0.649416 4:0.864662 
47.91055333725858 1:-0.792988 2:0.839599 3:-0.432387 4:0.0977444 
28.70966370968681 1:0.706177 2:0.899749 3:0.809683 4:0.218045 
39.06428006807537 1:0.535893 2:-0.969925 3:0.489149 4:-0.568922 
43.60690634497515 1:-0.0617696 2:0.223058 3:-0.248748 4:0.0325815 
120.879317408858 1:-0.449082 2:-0.60401 3:-0.382304 4:-0.769424 
70.646309078394 1:-0.746244 2:0.0075188 3:-0.342237 4:-0.558897 
51.16480227247731 1:0.0951586 2:-0.969925 3:-0.235392 4:0.162907 
128 1:0.929883 2:0.293233 3:0.522538 4:0.0927318 
128 1:-0.245409 2:-0.56391 3:0.232053 4:-0.894737 
128 1:0.222037 2:-0.909774 3:0.305509 4:0.107769 
128 1:0.719533 2:0.0726817 3:0.522538 4:-0.654135 
117.3728532712423 1:-0.532554 2:-0.894737 3:-0.60601 4:-0.924812 
37.33248836627001 1:-0.996661 2:0.729323 3:-0.9399 4:0.0175439 
44.26747321253431 1:0.275459 2:-0.904762 3:0.0951586 4:-0.779449 
94.70605535861824 1:0.345576 2:-0.804511 3:-0.0417362 4:-0.428571 
26.56814320061782 1:-0.542571 2:-0.368421 3:-0.442404 4:0.919799 
128 1:-0.338898 2:0.714286 3:-0.63606 4:0.318296 
128 1:0.786311 2:-0.503759 3:0.956594 4:0.654135 
81.03572898875814 1:0.101836 2:0.684211 3:0.388982 4:-0.629073 
17.83519267960085 1:-0.996661 2:-0.689223 3:-0.69616 4:0.14787 
2.464437596143341 1:0.255426 2:0.363409 3:-0.0884808 4:-0.969925 
73.23619822513035 1:-0.479132 2:0.423559 3:-0.412354 4:-0.799499 
87.60405474789985 1:0.235392 2:0.488722 3:-0.248748 4:0.774436 
48.94183237865662 1:0.232053 2:-0.293233 3:0.0183639 4:0.919799 
16.47602064803238 1:0.589316 2:-0.0827068 3:0.632721 4:-0.829574 
128 1:-0.358932 2:-0.343358 3:-0.445743 4:0.393484 
61.37395049627155 1:0.489149 2:0.433584 3:0.873122 4:0.408521 
128 1:0.889816 2:0.393484 3:0.876461 4:-0.964912 
128 1:0.252087 2:-0.749373 3:0.395659 4:0.182957 
52.06742424978265 1:-0.843072 2:0.473684 3:-0.348915 4:0.558897 
127.6529826478302 1:0.395659 2:0.864662 3:-0.0450751 4:-0.649123 
18.48424293871556 1:-0.956594 2:-0.438596 3:-0.919866 4:0.458647 
41.96301911624087 1:0.889816 2:0.132832 3:0.926544 4:0.428571 
41.21243616573549 1:0.956594 2:-0.619048 3:0.532554 4:-0.689223 
3.047710610121871 1:-0.979967 2:-0.203008 3:-0.365609 4:-0.884712 
128 1:-0.198664 2:0.719298 3:0.298831 4:0.804511 
42.43834447254537 1:-0.929883 2:-0.423559 3:-0.388982 4:-0.112782 
128 1:0.348915 2:0.403509 3:-0.205342 4:-0.378446 
38.36405701290388 1:-0.75626 2:0.834586 3:-0.338898 4:0.634085 
71.29414294457258 1:0.883139 2:-0.0827068 3:0.946578 4:-0.483709 
55.85023208223832 1:-0.63606 2:0.709273 3:-0.345576 4:-0.699248 
128 1:0.846411 2:0.844612 3:0.48581 4:0.373434 
13.99562720409512 1:-0.96995 2:-0.93985 3:-0.789649 4:-0.0426065 
128 1:0.529215 2:0.799499 3:0.569282 4:-0.9599 
86.54796657372914 1:-0.258765 2:0.18797 3:-0.0217028 4:-0.879699 
128 1:-0.228715 2:0.283208 3:-0.135225 4:-0.704261 
45.16367300126048 1:0.218698 2:0.182957 3:-0.24207 4:0.498747 
128 1:-0.235392 2:0.659148 3:0.342237 4:-0.102757 
128 1:-0.258765 2:-0.358396 3:-0.0217028 4:-0.66416 
75.68859950498133 1:-0.422371 2:0.924812 3:-0.819699 4:-0.16792 
128 1:0.896494 2:0.874687 3:0.509182 4:0.699248 
128 1:0.475793 2:-0.769424 3:0.896494 4:0.26817 
50.11333932946258 1:-0.262104 2:0.854637 3:-0.161937 4:-0.929825 
118.2759316662046 1:-0.195326 2:-0.568922 3:-0.24207 4:0.037594 
128 1:0.382304 2:-0.313283 3:0.315526 4:-0.137845 
10.31438378601342 1:-0.348915 2:-0.533835 3:-0.916528 4:0.488722 
128 1:0.285476 2:0.904762 3:-0.0350584 4:0.849624 
39.70626937410835 1:0.572621 2:0.639098 3:0.866444 4:-0.754386 
111.1420197152704 1:-0.171953 2:-0.62406 3:0.315526 4:0.764411 
128 1:0.398998 2:-0.934837 3:-0.215359 4:-0.122807 
74.17253321149384 1:-0.342237 2:0.323308 3:-0.582638 4:0.689223 
23.24493742415046 1:0.0450751 2:-0.734336 3:0.36227 4:-0.759398 
49.45428575393996 1:0.869783 2:0.724311 3:0.69616 4:-0.969925 
3.481713503743669 1:-0.452421 2:0.428571 3:-0.445743 4:0.26817 
55.50040886461181 1:0.716194 2:0.689223 3:0.525876 4:0.22807 
128 1:-0.378965 2:-0.288221 3:-0.355593 4:-0.739348 
8.307556516706979 1:0.509182 2:0.0626566 3:0.819699 4:-0.689223 
128 1:-0.722871 2:-0.924812 3:-0.338898 4:0.333333 
2.579012133297831 1:-0.358932 2:-0.107769 3:-0.706177 4:0.598997 
86.78274125022014 1:0.392321 2:0.62406 3:-0.0717863 4:-0.0626566 
128 1:-0.171953 2:0.749373 3:-0.228715 4:0.0927318 
63.24793651095648 1:-0.946578 2:0.333333 3:-0.512521 4:0.854637 
13.0324226680912 1:-0.175292 2:0.689223 3:-0.125209 4:0.654135 
128 1:0.355593 2:0.719298 3:-0.235392 4:0.503759 
117.4398247112973 1:-0.0183639 2:0.162907 3:-0.232053 4:0.799499 
128 1:0.555927 2:0.0977444 3:0.519199 4:-0.478697 
76.71193647769131 1:0.101836 2:0.293233 3:0.275459 4:0.829574 
40.79187111849989 1:0.33222 2:0.368421 3:0.275459 4:0.263158 
43.51235228163941 1:-0.499165 2:0.714286 3:-0.345576 4:-0.714286 
60.64926393923108 1:-0.338898 2:-0.00250627 3:-0.893155 4:0.358396 
9.391582224488955 1:0.966611 2:-0.107769 3:0.923205 4:-0.909774 
39.82144784273378 1:0.906511 2:0.924812 3:0.863105 4:-0.403509 
128 1:0.312187 2:-0.56391 3:-0.245409 4:0.363409 
128 1:0.57596 2:-0.924812 3:0.475793 4:0.789474 
46.90272920089425 1:0.669449 2:-0.142857 3:0.966611 4:0.824561 
10.89620474335447 1:0.499165 2:0.288221 3:0.766277 4:0.218045 
39.12865720541392 1:-0.976628 2:-0.433584 3:-0.368948 4:0.714286 
128 1:0.398998 2:-0.679198 3:0.288815 4:-0.909774 
128 1:0.599332 2:-0.60401 3:0.499165 4:0.0977444 
128 1:0.178631 2:-0.22807 3:0.398998 4:-0.162907 
128 1:-0.342237 2:-0.889724 3:-0.806344 4:-0.468672 
128 1:0.388982 2:-0.333333 3:-0.0851419 4:-0.52381 
94.18505603524139 1:0.365609 2:-0.659148 3:0.268781 4:0.343358 
128 1:-0.00166945 2:-0.503759 3:-0.248748 4:0.884712 
29.32263544953286 1:0.542571 2:-0.453634 3:0.883139 4:0.443609 
88.85532070301667 1:0.00834725 2:0.0576441 3:0.375626 4:0.117794 
101.1508543727703 1:-0.392321 2:-0.213033 3:-0.385643 4:0.659148 
128 1:-0.856427 2:0.56391 3:-0.348915 4:-0.0325815 
128 1:0.388982 2:-0.293233 3:0.258765 4:-0.283208 
128 1:0.709516 2:0.809524 3:0.499165 4:-0.809524 
128 1:0.612688 2:-0.929825 3:0.489149 4:0.609023 
127.981034193012 1:-0.155259 2:0.909774 3:-0.145242 4:-0.278195 
128 1:0.372287 2:-0.854637 3:-0.171953 4:0.558897 
128 1:-0.482471 2:0.52381 3:-0.365609 4:-0.0726817 
35.81311844276501 1:-0.66611 2:0.914787 3:-0.896494 4:-0.904762 
128 1:0.318865 2:0.839599 3:0.375626 4:0.328321 
7.650739077405843 1:-0.996661 2:-0.16792 3:-0.966611 4:0.684211 
128 1:-0.148581 2:-0.809524 3:0.36227 4:-0.338346 
102.5583345391498 1:0.131886 2:-0.934837 3:0.342237 4:0.588972 
128 1:0.51586 2:-0.944862 3:0.472454 4:0.56391 
75.1560360867725 1:-0.959933 2:0.909774 3:-0.806344 4:0.924812 
8.274184375467739 1:0.669449 2:-0.649123 3:0.492487 4:-0.593985 
76.41884712785419 1:-0.218698 2:0.18797 3:-0.15192 4:0.54386 
47.89377207893072 1:-0.198664 2:0.819549 3:0.125209 4:0.669173 
48.20347679959804 1:-0.993322 2:-0.934837 3:-0.833055 4:-0.864662 
44.34001418294281 1:0.0617696 2:0.894737 3:-0.135225 4:0.799499 
79.14587273595848 1:-0.592654 2:-0.919799 3:-0.432387 4:-0.403509 
128 1:0.495826 2:-0.538847 3:0.846411 4:0.784461 
128 1:-0.24207 2:-0.00250627 3:0.298831 4:0.358396 
128 1:0.382304 2:0.54386 3:0.388982 4:0.0325815 
82.4355745990604 1:-0.679466 2:-0.739348 3:-0.348915 4:0.704261 
128 1:0.355593 2:-0.137845 3:0.308848 4:0.578947 
11.30539017888888 1:0.165275 2:0.854637 3:-0.262104 4:-0.969925 
76.7429791610836 1:0.475793 2:-0.904762 3:0.829716 4:0.744361 
106.3578794065987 1:0.529215 2:0.804511 3:0.579299 4:-0.24812 
10.63804882805355 1:0.255426 2:-0.834586 3:0.131886 4:0.769424 
7.740448726708427 1:0.0550918 2:0.884712 3:0.352254 4:-0.0526316 
69.32435662009594 1:0.846411 2:-0.433584 3:0.953255 4:-0.453634 
46.61854169064304 1:0.542571 2:-0.403509 3:0.869783 4:-0.283208 
87.42814631315417 1:0.63606 2:-0.969925 3:0.929883 4:-0.0175439 
94.27881942205133 1:0.8798 2:-0.884712 3:0.479132 4:0.238095 
71.44154697753508 1:-0.63606 2:0.714286 3:-0.338898 4:0.739348 
128 1:0.245409 2:-0.809524 3:-0.158598 4:0.859649 
128 1:0.712855 2:0.112782 3:0.472454 4:-0.102757 
117.8657485723406 1:0.345576 2:-0.107769 3:-0.235392 4:0.18797 
11.16422950164232 1:-0.692821 2:-0.809524 3:-0.976628 4:0.839599 
6.213003173221955 1:-0.973289 2:0.358396 3:-0.395659 4:-0.879699 
128 1:-0.372287 2:-0.919799 3:-0.48581 4:-0.353383 
128 1:0.348915 2:0.157895 3:0.315526 4:-0.789474 
34.20812967779589 1:0.943239 2:0.318296 3:0.616027 4:0.669173 
65.41309369836331 1:0.312187 2:-0.26817 3:0.262104 4:0.834586 
128 1:0.475793 2:-0.0726817 3:0.949917 4:-0.749373 
128 1:0.492487 2:0.12782 3:0.649416 4:0.699248 
20.94954407726523 1:0.0951586 2:-0.468672 3:0.255426 4:0.924812 
121.0626857556433 1:0.963272 2:-0.428571 3:0.889816 4:0.142857 
9.977726547273537 1:0.352254 2:-0.117794 3:-0.175292 4:-0.754386 
128 1:-0.335559 2:0.037594 3:-0.48581 4:-0.14787 
33.09133733027926 1:-0.929883 2:0.363409 3:-0.956594 4:0.919799 
53.63339480705615 1:-0.378965 2:0.924812 3:-0.42571 4:-0.944862 
128 1:0.0417362 2:0.0125313 3:-0.258765 4:-0.58396 
63.66086020017903 1:-0.429048 2:-0.804511 3:-0.338898 4:0.0275689 
38.32310611893157 1:-0.96995 2:0.749373 3:-0.689482 4:0.283208 
44.75360954103051 1:-0.736227 2:0.914787 3:-0.989983 4:0.744361 
19.37785316593015 1:-0.0784641 2:0.368421 3:0.348915 4:0.779449 
0.5555105656126798 1:0.913189 2:0.864662 3:0.853088 4:0.573935 
122.284216451514 1:0.803005 2:-0.789474 3:0.929883 4:-0.724311 
126.1429117585785 1:0.933222 2:0.418546 3:0.472454 4:-0.258145 
128 1:0.502504 2:-0.0225564 3:0.589316 4:0.393484 
95.81592484214269 1:-0.378965 2:-0.258145 3:-0.382304 4:-0.919799 
7.93545599490598 1:-0.158598 2:-0.719298 3:-0.0584307 4:0.799499 
23.50778043910371 1:-0.0717863 2:-0.914787 3:0.322204 4:0.609023 
17.44234046378589 1:0.679466 2:0.899749 3:0.963272 4:0.463659 
10.48113148313147 1:-0.639399 2:0.889724 3:-0.475793 4:-0.26817 
128 1:0.542571 2:0.318296 3:0.926544 4:-0.16792 
128 1:-0.60601 2:0.894737 3:-0.652755 4:0.744361 
58.42175425268309 1:0.258765 2:0.844612 3:0.202003 4:-0.588972 
50.91964155087661 1:-0.973289 2:-0.288221 3:-0.472454 4:0.263158 
78.57339181414278 1:0.355593 2:0.699248 3:-0.198664 4:0.423559 
-128 1:0.833055 2:0.994987 3:0.602671 4:0.649123 
-26.49363472464833 1:0.532554 2:0.914787 3:0.0383973 4:-0.824561 
-122.1589154170197 1:-0.292154 2:-0.97995 3:-0.135225 4:0.0877193 
-30.80569953588693 1:-0.21202 2:0.934837 3:0.21202 4:0.22807 
-36.87234445356393 1:0.449082 2:-0.904762 3:-0.141903 4:0.273183 
-128 1:0.505843 2:-0.869674 3:0.435726 4:0.674185 
-2.956013412388833 1:0.248748 2:0.829574 3:-0.345576 4:-0.18797 
-46.1152048163497 1:-0.69616 2:0.994987 3:-0.626043 4:-0.744361 
-32.84206276140834 1:0.208681 2:-0.0426065 3:0.429048 4:-0.328321 
-128 1:0.883139 2:0.303258 3:0.465776 4:-0.177945 
-113.7396428183982 1:0.712855 2:0.759398 3:0.375626 4:0.634085 
-77.14065006579585 1:-0.0717863 2:-0.60401 3:0.452421 4:0.629073 
-12.44172392746385 1:0.976628 2:-0.919799 3:0.469115 4:0.809524 
-6.38636200569297 1:0.843072 2:0.142857 3:0.432387 4:-0.233083 
-27.43800954473879 1:0.429048 2:-0.829574 3:0.392321 4:0.0325815 
-79.56489164900933 1:0.385643 2:-0.303258 3:0.495826 4:-0.443609 
-26.82904036865904 1:-0.495826 2:-0.528822 3:-0.772955 4:0.969925 
-43.0290853695579 1:-0.195326 2:1 3:-0.295492 4:-0.759398 
-23.82579007452957 1:0.419032 2:-0.047619 3:-0.0984975 4:-0.438596 
-45.84608976775072 1:0.449082 2:-0.333333 3:0.101836 4:-0.433584 
-47.10862036310849 1:0.96995 2:-0.223058 3:0.762938 4:0.764411 
-128 1:0.265442 2:-0.724311 3:-0.265442 4:0.52381 
-128 1:0.0751252 2:0.964912 3:0.125209 4:-0.52381 
-34.25553221547369 1:-0.33222 2:-0.0426065 3:-0.762938 4:-0.313283 
-4.186882060828042 1:-0.325543 2:0.784461 3:-0.509182 4:0.0275689 
-18.56151630910605 1:-0.796327 2:0.869674 3:-0.171953 4:-0.368421 
-109.8763050818095 1:0.342237 2:-0.809524 3:0.439065 4:0.047619 
-3.634973201521086 1:-0.228715 2:-0.318296 3:-0.292154 4:0.989975 
-128 1:-0.27212 2:-0.037594 3:0.115192 4:0.593985 
-11.81502796412968 1:0.949917 2:-0.974937 3:0.923205 4:-0.9599 
-128 1:-0.452421 2:0.614035 3:-0.322204 4:0.0977444 
-50.78443801532903 1:0.45576 2:-0.513784 3:0.0784641 4:-0.66416 
-29.04553747905943 1:-0.282137 2:-0.393484 3:-0.63606 4:0.759398 
-128 1:0.429048 2:-0.197995 3:0.225376 4:-0.0576441 
-9.142041142602976 1:-0.315526 2:-0.784461 3:0.12187 4:0.478697 
-93.88725456785394 1:0.258765 2:-0.122807 3:-0.288815 4:-0.443609 
-81.45721125900617 1:0.973289 2:0.824561 3:0.559265 4:0.468672 
-8.416205704172198 1:0.48581 2:0.578947 3:0.00834725 4:-0.52381 
-44.29863268534716 1:-0.265442 2:-0.719298 3:-0.165275 4:-0.929825 
-128 1:0.562604 2:-0.844612 3:0.415693 4:0.54386 
-15.39465303060205 1:0.475793 2:-0.107769 3:0.015025 4:0.724311 
-93.69130824022069 1:0.993322 2:0.157895 3:0.719533 4:0.283208 
-57.41653885072231 1:0.432387 2:0.669173 3:0.402337 4:-0.879699 
-30.11557541766168 1:-0.0383973 2:-0.804511 3:-0.322204 4:-0.508772 
-70.35299434916431 1:0.308848 2:-0.869674 3:-0.30217 4:-0.0175439 
-34.05816113378774 1:0.378965 2:0.0927318 3:0.161937 4:-0.984962 
-128 1:-0.365609 2:-0.468672 3:-0.30217 4:-0.909774 
-128 1:0.235392 2:-0.213033 3:0.402337 4:0.478697 
-36.59987734493949 1:0.916528 2:-0.994987 3:0.422371 4:0.413534 
-30.06756950024625 1:0.312187 2:-0.894737 3:-0.305509 4:0.969925 
-128 1:0.809683 2:-0.60401 3:0.989983 4:-0.393484 
-49.27016004862784 1:0.315526 2:0.0776942 3:0.482471 4:-0.809524 
-128 1:0.348915 2:-0.894737 3:0.509182 4:0.704261 
-128 1:-0.522538 2:0.944862 3:-0.532554 4:-0.26817 
-76.13927872977716 1:0.0217028 2:0.428571 3:-0.278798 4:-0.593985 
-7.975847035767438 1:0.258765 2:0.919799 3:-0.495826 4:0.934837 
-13.21985820808576 1:0.338898 2:0.54386 3:0.479132 4:-0.152882 
-33.53309181444354 1:0.769616 2:-0.0125313 3:0.646077 4:-0.989975 
-124.9467518950801 1:-0.202003 2:0.699248 3:0.412354 4:-0.182957 
-128 1:-0.595993 2:-0.994987 3:-0.592654 4:-0.328321 
-13.06785897751958 1:-1 2:0.834586 3:-0.859766 4:-0.844612 
-92.13792671781293 1:0.582638 2:0.844612 3:0.409015 4:-0.704261 
-71.80941939318301 1:-0.275459 2:0.0075188 3:-0.475793 4:-0.102757 
-10.79608803225731 1:0.0851419 2:0.749373 3:-0.398998 4:0.654135 
-86.76241806162734 1:-0.899833 2:0.97995 3:-0.809683 4:0.744361 
-41.99366639973112 1:-0.0116861 2:-0.97995 3:0.405676 4:-0.62406 
-100.721920906784 1:-0.572621 2:0.909774 3:-0.322204 4:-0.884712 
-100.4143839465864 1:-1 2:0.749373 3:-0.559265 4:0.12782 
-73.86229284997729 1:0.689482 2:0.97995 3:0.656093 4:0.238095 
-57.58547734592826 1:0.449082 2:0.874687 3:0.282137 4:0.0776942 
-5.251202869642305 1:0.475793 2:-0.197995 3:-0.24207 4:0.609023 
-20.44224869921628 1:-0.318865 2:-0.288221 3:-0.195326 4:0.93985 
-128 1:0.976628 2:0.819549 3:0.692821 4:-0.172932 
-128 1:0.00500835 2:-0.639098 3:-0.282137 4:0.62406 
-128 1:0.135225 2:0.649123 3:-0.00166945 4:0.929825 
-15.059595258567 1:-0.45576 2:0.949875 3:-0.512521 4:0.358396 
-31.2206124066848 1:0.465776 2:0.684211 3:-0.128548 4:-0.874687 
-22.57932897159566 1:-0.923205 2:-0.243108 3:-0.459098 4:0.93985 
-11.66388620412968 1:-0.312187 2:0.107769 3:-0.682805 4:-0.794486 
-59.7577916390111 1:0.335559 2:0.809524 3:0.585977 4:0.849624 
-128 1:-0.0851419 2:-0.588972 3:0.402337 4:-0.0576441 
-59.94774252118783 1:-0.799666 2:-0.819549 3:-0.512521 4:-0.974937 
-128 1:0.445743 2:-0.804511 3:0.766277 4:0.0927318 
-128 1:-0.298831 2:-0.112782 3:-0.108514 4:-0.814536 
-128 1:-1 2:-0.498747 3:-0.803005 4:0.102757 
-128 1:0.171953 2:-0.0927318 3:-0.0984975 4:0.93985 
-128 1:0.642738 2:0.0225564 3:0.983306 4:-0.588972 
-3.769835059753354 1:-0.33222 2:-0.884712 3:-0.569282 4:0.573935 
-99.26665582341857 1:-0.626043 2:-0.989975 3:-0.823038 4:-0.824561 
-15.6682970963633 1:-0.646077 2:0.989975 3:-0.979967 4:-0.719298 
-96.43342834058528 1:0.405676 2:-0.929825 3:0.135225 4:-0.443609 
-56.65507996920901 1:0.402337 2:0.974937 3:0.358932 4:0.774436 
-128 1:-0.33222 2:-0.568922 3:-0.312187 4:0.413534 
-82.50299789850057 1:-0.0317195 2:0.989975 3:-0.0851419 4:0.734336 
-128 1:0.646077 2:0.629073 3:0.45576 4:-0.568922 
-128 1:-0.298831 2:-0.0726817 3:-0.57596 4:0.629073 
-89.86991566105813 1:-0.288815 2:0.373434 3:-0.171953 4:-0.323308 
-128 1:-0.295492 2:-0.849624 3:-0.559265 4:-0.573935 
-2.404136575642506 1:-0.118531 2:0.924812 3:-0.989983 4:-0.919799 
-95.94145464380674 1:0.803005 2:0.137845 3:0.96995 4:0.0977444 
-9.723779160360928 1:-0.155259 2:-0.93985 3:-0.292154 4:-0.64411 
-65.04874285446606 1:-0.131886 2:-0.568922 3:0.409015 4:-0.884712 
-114.6464207226049 1:0.569282 2:-0.338346 3:0.979967 4:0.759398 
-53.63062618768731 1:0.45576 2:0.0927318 3:0.375626 4:0.433584 
-128 1:-0.312187 2:0.428571 3:-0.402337 4:0.548872 
-88.59158074403304 1:0.562604 2:0.93985 3:0.57596 4:-0.739348 
-73.94967134568496 1:0.432387 2:-0.0726817 3:0.823038 4:-0.66416 
-59.22394092774199 1:-0.292154 2:-0.468672 3:0.245409 4:-0.789474 
-54.17839800846421 1:-0.592654 2:0.468672 3:-0.318865 4:-0.60401 
-128 1:0.465776 2:0.122807 3:0.479132 4:-0.378446 
-128 1:0.0116861 2:-0.157895 3:-0.282137 4:0.403509 
-4.156183583097344 1:-0.522538 2:0.844612 3:-0.315526 4:-0.0526316 
-128 1:-0.305509 2:-0.488722 3:-0.24207 4:-0.117794 
-70.79281161338093 1:0.475793 2:-0.834586 3:0.375626 4:-0.749373 
-69.21758404508131 1:-0.101836 2:0.984962 3:0.12187 4:0.418546 
-51.00510394717593 1:0.499165 2:-0.994987 3:0.439065 4:0.874687 
-56.29686787856119 1:-0.288815 2:-0.809524 3:-0.732888 4:-0.157895 
-80.91220486701391 1:0.789649 2:0.278195 3:0.629382 4:-0.984962 
-109.8524211080624 1:0.108514 2:0.60401 3:0.459098 4:0.137845 
-128 1:0.752922 2:0.473684 3:0.459098 4:0.12782 
-26.19774579255479 1:0.509182 2:-0.839599 3:0.195326 4:-0.984962 
-128 1:0.0951586 2:-0.629073 3:0.42571 4:-0.213033 
-66.67209552170003 1:-0.686144 2:0.964912 3:-0.679466 4:0.764411 
-1.121473696571736 1:0.829716 2:-0.969925 3:0.308848 4:-0.58396 
-42.76948451768311 1:0.101836 2:0.994987 3:0.0717863 4:-0.478697 
-100.9340640200722 1:-0.285476 2:0.784461 3:-0.185309 4:0.137845 
-57.58324749429472 1:0.131886 2:-0.709273 3:-0.298831 4:0.197995 
-128 1:-0.819699 2:0.423559 3:-0.706177 4:0.964912 
-33.27904637950776 1:-0.69616 2:0.989975 3:-0.96995 4:0.0827068 
-8.069304762668557 1:0.886477 2:-0.654135 3:0.96995 4:0.488722 
-3.809272806174128 1:0.105175 2:-0.323308 3:0.42571 4:-0.348371 
-56.23793512789528 1:0.0918197 2:0.132832 3:0.422371 4:0.654135 
-99.45875039269592 1:-0.813022 2:0.408521 3:-0.33222 4:-0.443609 
-32.03977702138314 1:0.415693 2:0.273183 3:0.315526 4:-0.493734 
-128 1:-0.652755 2:-0.498747 3:-0.318865 4:0.508772 
-24.65494232674182 1:-0.385643 2:-0.839599 3:0.0517529 4:-0.318296 
-3.13392759461991 1:0.492487 2:-0.203008 3:0.372287 4:-0.117794 
-9.265099263507752 1:-0.0283806 2:-0.0526316 3:0.215359 4:0.954887 
-128 1:0.358932 2:0.60401 3:0.459098 4:-0.0576441 
-128 1:-0.33222 2:0.759398 3:-0.295492 4:-0.24812 
-128 1:0.222037 2:0.593985 3:-0.305509 4:0.453634 
-50.63091083742204 1:0.439065 2:0.433584 3:0.0651085 4:0.548872 
-128 1:0.646077 2:-0.97995 3:0.732888 4:0.328321 
-128 1:0.42571 2:0.829574 3:-0.12187 4:0.60401 
-128 1:0.629382 2:-0.669173 3:0.989983 4:0.679198 
-86.15183158410612 1:-0.742905 2:-0.443609 3:-0.322204 4:-0.568922 
-126.1356391325036 1:0.415693 2:-0.729323 3:0.0283806 4:0.769424 
-99.46143573453679 1:0.462437 2:0.649123 3:0.248748 4:0.0576441 
-6.934758676937832 1:0.993322 2:-0.984962 3:0.305509 4:-0.037594 
-24.07832516320749 1:-0.268781 2:-0.854637 3:-0.732888 4:-0.493734 
-42.52566040395607 1:-0.926544 2:0.894737 3:-0.282137 4:0.684211 
-2.724023625938647 1:-0.33222 2:-0.839599 3:-0.148581 4:0.218045 
-76.17951859864952 1:0.128548 2:0.674185 3:-0.318865 4:-0.373434 
-68.49578370266461 1:0.672788 2:0.58396 3:0.419032 4:-0.423559 
-49.44236523185241 1:0.429048 2:-0.904762 3:-0.00166945 4:-0.162907 
-128 1:0.402337 2:-0.60401 3:0.275459 4:-0.704261 
-128 1:-0.355593 2:0.493734 3:-0.278798 4:-0.854637 
-67.32224637595687 1:-0.30217 2:0.213033 3:-0.492487 4:0.859649 
-0.9929648104086275 1:0.318865 2:-0.919799 3:0.432387 4:-0.944862 
-38.80094297250469 1:-0.312187 2:-0.0125313 3:0.141903 4:0.378446 
-6.864152103538025 1:-0.325543 2:-0.263158 3:-0.96995 4:-0.66416 
-128 1:-0.505843 2:0.694236 3:-0.292154 4:0.619048 
-80.98629478817739 1:0.589316 2:0.343358 3:0.989983 4:-0.258145 
-128 1:0.409015 2:0.463659 3:-0.0317195 4:-0.157895 
-128 1:0.298831 2:-0.994987 3:0.292154 4:0.258145 
-42.97569833282986 1:-0.896494 2:-0.829574 3:-0.322204 4:0.508772 
-128 1:0.883139 2:-0.54386 3:0.983306 4:0.243108 
-128 1:-0.0751252 2:0.483709 3:-0.305509 4:0.654135 
-18.7404123326628 1:0.415693 2:-0.704261 3:-0.165275 4:0.20802 
-19.49189389164647 1:0.565943 2:0.107769 3:0.929883 4:0.964912 
-63.58888705248695 1:-0.689482 2:0.107769 3:-0.312187 4:0.573935 
-29.04531240423032 1:0.275459 2:-0.593985 3:0.472454 4:0.538847 
-1.54372368204152 1:0.432387 2:-0.58396 3:-0.138564 4:-0.879699 
-43.36019174115199 1:-0.305509 2:-0.538847 3:-0.278798 4:-0.308271 
-128 1:0.128548 2:0.12782 3:0.422371 4:0.037594 
-11.94137993153535 1:-0.652755 2:0.749373 3:-0.312187 4:-0.93985 
-48.61043780324066 1:-0.328881 2:-0.679198 3:0.255426 4:-0.433584 
-8.539567336615157 1:-0.449082 2:0.538847 3:-0.258765 4:-0.0776942 
-92.15459353937347 1:0.90985 2:0.388471 3:0.983306 4:-0.819549 
-25.10279644708059 1:0.0851419 2:0.649123 3:0.495826 4:0.573935 
-2.289315537718483 1:-0.632721 2:-0.213033 3:-0.288815 4:-0.0275689 
-128 1:0.409015 2:0.66416 3:0.54591 4:-0.874687 
-128 1:-0.268781 2:-0.243108 3:0.178631 4:0.258145 
-23.20963152644986 1:0.996661 2:-0.102757 3:0.602671 4:-0.588972 
-76.96449383364651 1:-0.288815 2:0.66416 3:-0.796327 4:0.24812 
-94.04224344611477 1:0.439065 2:0.0576441 3:0.188648 4:-0.478697 
-75.13308693602893 1:0.398998 2:-0.0726817 3:0.532554 4:0.809524 
-128 1:0.42571 2:-0.598997 3:-0.0183639 4:-0.0977444 
-12.8817063599668 1:-0.929883 2:-0.739348 3:-0.84975 4:0.929825 
-0.2082722032285793 1:0.9399 2:-0.984962 3:0.345576 4:0.0877193 
-18.82428484007186 1:-0.752922 2:0.112782 3:-0.30217 4:-0.298246 
-128 1:-0.275459 2:-0.14787 3:-0.255426 4:-0.709273 
-88.96845482283226 1:-0.66611 2:-0.904762 3:-0.322204 4:0.453634 
-128 1:0.469115 2:-0.298246 3:0.502504 4:0.0927318 
-111.9709873636233 1:-0.318865 2:0.203008 3:-0.676127 4:0.418546 
-15.77956191476622 1:-0.265442 2:0.794486 3:0.338898 4:0.213033 
-33.73599376664759 1:0.926544 2:0.974937 3:0.652755 4:-0.619048 
-107.9661988366428 1:0.976628 2:-0.24812 3:0.579299 4:-0.438596 
-45.2035449254093 1:-0.308848 2:0.348371 3:0.128548 4:-0.699248 
-128 1:0.826377 2:-0.789474 3:0.979967 4:-0.308271 
-115.482452717797 1:0.889816 2:0.814536 3:0.769616 4:-0.994987 
-24.33963028372044 1:0.906511 2:-0.909774 3:0.976628 4:-0.498747 
-128 1:0.465776 2:0.14787 3:0.616027 4:0.548872 
-42.98668015027735 1:-0.275459 2:-0.418546 3:-0.345576 4:-0.819549 
-8.735649978376118 1:-0.36227 2:0.117794 3:-0.245409 4:-0.984962 
-80.32856929139484 1:0.709516 2:-0.719298 3:0.96995 4:-0.824561 
-28.29490598575691 1:0.535893 2:0.889724 3:1 4:-0.448622 
-66.24441242042816 1:-1 2:0.358396 3:-0.649416 4:0.303258 
-6.432762810782669 1:0.956594 2:-0.358396 3:0.986644 4:-0.508772 
-55.85814431544389 1:0.111853 2:-0.348371 3:0.415693 4:0.0175439 
-49.59147995306645 1:0.679466 2:0.538847 3:0.616027 4:0.994987 
-15.84248043648388 1:0.449082 2:0.849624 3:-0.318865 4:-0.508772 
-108.3527735900636 1:0.719533 2:-0.473684 3:0.465776 4:0.26817 
-65.50549949079932 1:0.308848 2:0.18797 3:-0.27212 4:0.263158 
-48.72878533092937 1:0.402337 2:0.26817 3:0.158598 4:0.0877193 
-128 1:-0.839733 2:0.669173 3:-0.325543 4:0.318296 
-0.7475631047250052 1:0.462437 2:-1 3:-0.378965 4:-0.52381 
-95.14585822987456 1:-0.562604 2:0.944862 3:-0.702838 4:0.724311 
-73.15863456290627 1:-0.432387 2:-0.66416 3:-0.318865 4:0.984962 
-21.18506332968889 1:-0.919866 2:0.694236 3:-0.328881 4:-0.137845 
-42.55955322089289 1:-0.0717863 2:-1 3:0.375626 4:0.639098 
-128 1:0.422371 2:0.654135 3:0.746244 4:0.508772 
-57.98586718333247 1:-0.101836 2:0.102757 3:-0.282137 4:-0.719298 
-19.28200007943938 1:-0.9399 2:-0.729323 3:-0.312187 4:0.0977444 
-47.49437304394407 1:0.459098 2:-0.729323 3:0.8798 4:0.869674 
-58.19305115628305 1:0.15192 2:0.989975 3:-0.165275 4:0.383459 
-2.164376876078463 1:0.0250417 2:-0.789474 3:-0.33222 4:0.884712 
-112.6415743793491 1:-0.295492 2:0.684211 3:0.285476 4:0.809524 
-128 1:-0.0617696 2:-0.674185 3:-0.0283806 4:0.934837 
