svm_type c_svc
kernel_type rbf
gamma 2
nr_class 2
total_sv 156
rho 29.6934
label 1 2
nr_sv 68 88
SV
3774.268932514043 1:0.839733 3:0.492487 4:0.769424 
1938.327389664378 1:-0.452421 3:-0.368948 4:-0.834586 
5204.754781515642 1:0.365609 3:0.395659 4:-0.573935 
2001.165019447753 1:-0.375626 3:-0.472454 4:-0.829574 
1697.951038101037 1:0.959933 3:0.559265 4:-0.0827068 
8192 1:0.205342 3:0.365609 4:0.859649 
41.84635532348239 1:0.869783 3:0.716194 4:-0.884712 
790.5957720072561 1:-0.248748 3:0.115192 4:0.162907 
6104.067017532821 1:0.365609 3:-0.0317195 4:0.854637 
8192 1:0.375626 3:0.345576 4:0.573935 
581.7432807657517 1:0.863105 3:0.48581 4:-0.493734 
685.249785384253 1:0.966611 3:0.722871 4:0.0676692 
6486.816129831393 1:-0.262104 3:-0.0984975 4:0.558897 
2559.855404904796 1:0.54591 3:0.702838 4:-0.954887 
1973.054747197529 1:0.859766 3:0.959933 4:-0.203008 
1024.123210143071 1:-0.345576 3:-0.565943 4:0.60401 
2550.727285676192 1:-0.676127 3:-0.355593 4:0.879699 
8192 1:0.502504 3:0.512521 4:0.774436 
1036.700152154225 1:0.328881 3:-0.252087 4:-0.709273 
8192 1:0.853088 3:0.482471 4:0.142857 
5767.02675558507 1:-0.248748 3:-0.222037 4:0.318296 
429.7518010339188 1:-0.469115 3:-0.9399 4:0.914787 
4714.312519535562 1:-0.549249 3:-0.342237 4:-0.674185 
8192 1:0.482471 3:0.475793 4:-0.819549 
67.1818899127374 1:-0.906511 3:-0.709516 4:-0.964912 
8192 1:0.372287 3:-0.252087 4:0.0225564 
108.8125617982164 1:0.555927 3:0.956594 4:-0.889724 
8192 1:-0.365609 3:-0.348915 4:-0.0726817 
2749.506963266205 1:0.388982 3:-0.245409 4:0.689223 
8192 1:0.829716 3:0.51586 4:0.914787 
1266.392864065301 1:-0.342237 3:-0.375626 4:0.0626566 
805.1902236469923 1:-0.492487 3:-0.345576 4:0.413534 
8192 1:-0.338898 3:-0.499165 4:0.859649 
6975.990555332577 1:0.36227 3:0.342237 4:0.513784 
2573.291165181008 1:0.0717863 3:0.398998 4:-0.0526316 
2858.511066878556 1:-0.432387 3:-0.352254 4:-0.413534 
550.6529858062229 1:-0.682805 3:-0.853088 4:0.889724 
673.0338918330256 1:0.886477 3:0.579299 4:-0.919799 
2714.532440738184 1:0.475793 3:0.562604 4:0.52381 
35.1986268725142 1:-0.979967 3:-0.853088 4:-0.368421 
304.3325994393301 1:-0.799666 3:-0.96995 4:-0.969925 
5681.305113128746 1:0.475793 3:0.729549 4:-0.909774 
3797.845130453377 1:-0.255426 3:-0.215359 4:-0.468672 
302.9818172164232 1:-0.996661 3:-0.42571 4:-0.578947 
786.6646862837952 1:-0.338898 3:-0.702838 4:-0.00250627 
8192 1:-0.262104 3:0.208681 4:-0.16792 
848.5060012259017 1:-0.72621 3:-0.372287 4:-0.393484 
2069.150650705729 1:-0.826377 3:-0.352254 4:0.192982 
544.3400412321092 1:0.913189 3:0.899833 4:0.909774 
8192 1:0.963272 3:0.479132 4:-0.223058 
166.7123886756673 1:-0.24207 3:0.395659 4:-0.919799 
2945.502010937399 1:-0.232053 3:-0.145242 4:-0.824561 
217.2086305795242 1:-0.923205 3:-0.372287 4:0.709273 
2194.21853606852 1:0.829716 3:0.929883 4:0.122807 
1248.098224708375 1:-0.996661 3:-0.395659 4:0.107769 
5867.810503336761 1:-0.0217028 3:0.308848 4:-0.969925 
8174.674433351858 1:0.565943 3:0.505843 4:-0.919799 
8192 1:0.312187 3:-0.252087 4:-0.453634 
3372.886172239733 1:-0.255426 3:0.312187 4:0.533835 
1027.795502178668 1:0.308848 3:0.111853 4:-0.969925 
8192 1:-0.208681 3:-0.218698 4:0.814536 
8192 1:0.48581 3:0.916528 4:-0.473684 
8192 1:0.482471 3:0.899833 4:-0.0576441 
108.9046189117298 1:-0.338898 3:-0.712855 4:-0.493734 
8192 1:0.599332 3:0.856427 4:0.924812 
8192 1:0.505843 3:0.966611 4:0.423559 
427.2896176114924 1:-0.178631 3:-0.228715 4:0.764411 
1368.081982547443 1:0.398998 3:-0.225376 4:-0.142857 
-439.6771834317062 1:0.232053 3:0.342237 4:0.944862 
-1352.962494308834 1:0.208681 3:-0.275459 4:0.353383 
-6015.495982606803 1:-0.315526 3:-0.415693 4:0.774436 
-1955.379944581186 1:-0.0517529 3:-0.275459 4:0.538847 
-1844.90977217008 1:0.395659 3:-0.285476 4:-0.00250627 
-138.1733689548158 1:0.612688 3:-0.512521 4:-0.323308 
-3223.676770224733 1:0.462437 3:0.863105 4:-0.152882 
-8192 1:-0.398998 3:-0.33222 4:-0.749373 
-960.5141435415862 1:-0.15192 3:0.439065 4:0.157895 
-848.0439425076042 1:-1 3:-0.522538 4:-0.24812 
-7897.38110018511 1:-0.268781 3:0.135225 4:-0.112782 
-735.2425907452857 1:-0.843072 3:-0.322204 4:0.919799 
-322.7002012131827 1:0.445743 3:-0.245409 4:-0.879699 
-5137.81118491225 1:0.60601 3:0.993322 4:0.453634 
-2245.225376361359 1:-0.0217028 3:0.312187 4:-0.994987 
-4602.285017136537 1:-0.54591 3:-0.328881 4:0.122807 
-1363.681221640553 1:0.499165 3:-0.248748 4:0.814536 
-1315.739875108301 1:-0.305509 3:-0.128548 4:-0.634085 
-1022.992721058672 1:-0.442404 3:-0.435726 4:0.994987 
-7120.607524460751 1:0.60601 3:0.96995 4:-0.107769 
-4007.826594760156 1:0.235392 3:0.0283806 4:0.934837 
-3153.999324162097 1:-0.101836 3:-0.278798 4:0.789474 
-971.8765675846668 1:-0.0550918 3:0.185309 4:0.969925 
-105.5486641950187 1:-0.492487 3:0.595993 4:0.699248 
-983.7269815839527 1:0.415693 3:0.015025 4:-0.538847 
-7550.822881997432 1:-0.365609 3:-0.322204 4:0.789474 
-8024.112993730645 1:0.459098 3:0.883139 4:-0.573935 
-2933.659404908933 1:0.482471 3:0.442404 4:-0.899749 
-4376.521300880472 1:0.699499 3:0.465776 4:0.258145 
-96.34240045000503 1:0.292154 3:-0.27212 4:0.573935 
-1059.778810856686 1:0.853088 3:0.609349 4:0.994987 
-4864.389405406626 1:0.145242 3:0.405676 4:0.754386 
-7789.233785373478 1:0.402337 3:0.175292 4:0.649123 
-467.0808780263243 1:0.45576 3:0.973289 4:0.614035 
-1264.670638813892 1:-0.308848 3:0.218698 4:-0.503759 
-886.1997987485821 1:0.0617696 3:-0.278798 4:-0.172932 
-730.9502516265682 1:-0.282137 3:-0.255426 4:-0.538847 
-1446.738966323223 1:0.392321 3:0.96995 4:0.162907 
-117.8632603036185 1:0.989983 3:0.522538 4:-0.789474 
-191.5462248059731 1:0.749583 3:0.973289 4:-0.854637 
-1779.861464238552 1:-1 3:-0.382304 4:0.288221 
-7198.661803707687 1:0.96995 3:0.555927 4:0.0576441 
-4030.574257226165 1:0.368948 3:0.475793 4:-0.754386 
-4989.512686667662 1:0.639399 3:0.429048 4:-0.784461 
-5241.461998992848 1:0.472454 3:0.459098 4:0.548872 
-4484.519832801752 1:-0.315526 3:-0.475793 4:-0.0877193 
-3814.267344604543 1:0.823038 3:0.412354 4:-0.172932 
-622.771908798067 1:-0.402337 3:-0.318865 4:-0.0977444 
-705.4552267567246 1:-0.702838 3:-0.746244 4:-0.984962 
-323.6258002508233 1:-0.305509 3:-0.976628 4:0.649123 
-11.55336873724037 1:-0.499165 3:0.686144 4:0.428571 
-2126.172030271803 1:-0.559265 3:-0.736227 4:0.934837 
-4744.633623855521 1:0.248748 3:-0.27212 4:-0.473684 
-8.335021793420465 1:-0.288815 3:-0.288815 4:0.949875 
-2220.519548548086 1:0.452421 3:0.796327 4:0.58396 
-2283.965477241171 1:-0.232053 3:-0.288815 4:0.328321 
-258.8342231838988 1:0.989983 3:0.913189 4:0.689223 
-3811.95042378968 1:-0.0317195 3:0.188648 4:-0.994987 
-8192 1:0.572621 3:0.676127 4:-0.989975 
-8192 1:-0.278798 3:0.0450751 4:0.533835 
-60.89473481016687 1:-0.599332 3:0.749583 4:0.12782 
-146.5846708595798 1:-0.198664 3:0.672788 4:-0.989975 
-1561.590226884984 1:0.409015 3:-0.131886 4:-0.448622 
-403.545766025649 1:-0.492487 3:-0.562604 4:-0.984962 
-1158.947920898891 1:0.338898 3:-0.275459 4:0.879699 
-541.7971521278026 1:-0.298831 3:-0.559265 4:0.994987 
-6290.362046358119 1:0.419032 3:-0.218698 4:0.0075188 
-6437.706560230335 1:0.619366 3:0.84975 4:0.944862 
-644.9320791048401 1:0.45576 3:0.893155 4:0.694236 
-3875.790748114348 1:-0.275459 3:-0.268781 4:0.00250627 
-2109.43724724701 1:0.429048 3:0.72621 4:0.233083 
-377.0208371899335 1:0.833055 3:0.96995 4:-0.102757 
-712.2903881684941 1:0.96995 3:0.836394 4:-0.303258 
-6061.043700700221 1:0.412354 3:0.36227 4:0.749373 
-3642.259499147026 1:0.0651085 3:0.409015 4:-0.203008 
-3942.29880342314 1:0.419032 3:0.579299 4:0.829574 
-71.24130952833342 1:0.679466 3:0.435726 4:-0.137845 
-3036.199929144683 1:0.255426 3:-0.27212 4:-0.463659 
-210.8533484758789 1:-0.973289 3:-0.298831 4:-0.799499 
-822.4002929320376 1:0.569282 3:0.996661 4:0.333333 
-226.5028071049433 1:0.208681 3:-0.328881 4:-0.879699 
-5450.278685185302 1:0.742905 3:0.582638 4:0.93985 
-5436.478020976541 1:-0.539232 3:-0.33222 4:-0.478697 
-83.72452891199087 1:0.439065 3:0.949917 4:0.97995 
-4512.322641036658 1:0.268781 3:0.419032 4:0.518797 
-8192 1:0.42571 3:0.495826 4:-0.834586 
-5330.256109831917 1:0.989983 3:0.532554 4:-0.258145 
-7322.115628910004 1:0.843072 3:0.469115 4:0.814536 
