svm_type c_svc
kernel_type rbf
gamma 8
nr_class 2
total_sv 987
rho 0.904177
label 1 2
nr_sv 351 636
SV
2 1:-0.171953 2:-0.0827068 3:0.0617696 4:0.288221 
2 1:0.382304 2:0.919799 3:-0.191987 4:-0.609023 
1.833945495459876 1:-0.843072 2:-0.0275689 3:-0.459098 4:0.253133 
2 1:0.549249 2:0.12782 3:0.853088 4:0.0676692 
2 1:-0.0450751 2:0.56391 3:0.338898 4:-0.0676692 
2 1:0.799666 2:-0.433584 3:0.479132 4:-0.278195 
2 1:0.335559 2:0.203008 3:-0.0317195 4:-0.714286 
1.007232885184862 1:0.125209 2:0.223058 3:0.0116861 4:-0.919799 
2 1:-0.248748 2:0.829574 3:-0.0717863 4:-0.533835 
2 1:0.906511 2:0.914787 3:0.732888 4:-0.0626566 
0.2393905465884791 1:-0.429048 2:-0.619048 3:-0.84975 4:0.177945 
2 1:0.853088 2:-0.56391 3:0.859766 4:0.919799 
0.4657959070893422 1:-0.9399 2:-0.0676692 3:-0.986644 4:0.573935 
2 1:0.809683 2:-0.157895 3:0.492487 4:-0.182957 
0.1777501399821942 1:0.0918197 2:0.373434 3:-0.0918197 4:-0.679198 
2 1:0.208681 2:-0.749373 3:-0.128548 4:-0.0626566 
0.4032791171191862 1:-0.943239 2:-0.353383 3:-0.422371 4:-0.593985 
2 1:-0.57596 2:0.814536 3:-0.919866 4:0.253133 
2 1:-0.706177 2:0.473684 3:-0.419032 4:0.538847 
0.07813250770199968 1:-0.722871 2:-0.318296 3:-0.963272 4:-0.273183 
2 1:0.248748 2:-0.528822 3:0.282137 4:-0.458647 
2 1:0.0884808 2:0.18797 3:-0.0317195 4:-0.443609 
2 1:-0.111853 2:-0.699248 3:0.235392 4:0.298246 
2 1:-0.235392 2:0.899749 3:0.345576 4:-0.182957 
1.323067960010194 1:-0.616027 2:-0.924812 3:-0.799666 4:0.418546 
2 1:0.342237 2:0.744361 3:0.165275 4:0.924812 
0.2837255488756781 1:-0.986644 2:-0.498747 3:-0.552588 4:0.278195 
2 1:0.555927 2:0.162907 3:0.869783 4:-0.117794 
2 1:-0.782972 2:0.844612 3:-0.522538 4:-0.869674 
2 1:0.859766 2:-0.714286 3:0.946578 4:0.879699 
1.888227618862867 1:-0.0751252 2:0.709273 3:-0.0450751 4:-0.508772 
2 1:-0.646077 2:0.774436 3:-0.656093 4:0.684211 
2 1:-0.255426 2:0.714286 3:-0.00500835 4:-0.192982 
2 1:-0.619366 2:0.60401 3:-0.388982 4:-0.784461 
2 1:0.535893 2:0.874687 3:0.612688 4:-0.674185 
2 1:-0.338898 2:0.58396 3:-0.612688 4:-0.298246 
2 1:0.742905 2:-0.323308 3:0.963272 4:-0.844612 
2 1:0.639399 2:0.904762 3:0.886477 4:-0.047619 
2 1:-0.479132 2:-0.949875 3:-0.398998 4:0.353383 
2 1:0.145242 2:0.894737 3:-0.228715 4:-0.679198 
2 1:0.959933 2:-0.52381 3:0.966611 4:0.117794 
1.533688289244428 1:-0.141903 2:-0.238095 3:0.208681 4:-0.914787 
1.639540677575515 1:0.0283806 2:-0.914787 3:0.048414 4:-0.0275689 
2 1:-0.342237 2:0.363409 3:-0.51586 4:0.102757 
2 1:-0.953255 2:-0.0526316 3:-0.348915 4:-0.614035 
2 1:0.375626 2:-0.779449 3:-0.0584307 4:0.18797 
2 1:0.956594 2:0.508772 3:0.659432 4:-0.0827068 
2 1:-0.525876 2:0.283208 3:-0.993322 4:-0.899749 
1.259566170006784 1:-0.949917 2:-0.137845 3:-0.803005 4:-0.353383 
2 1:-0.155259 2:0.318296 3:-0.218698 4:0.679198 
2 1:0.308848 2:0.794486 3:0.33222 4:-0.20802 
2 1:0.368948 2:-0.884712 3:-0.258765 4:-0.859649 
0.4912306320358873 1:-0.646077 2:0.233083 3:-0.60601 4:0.844612 
2 1:0.355593 2:0.744361 3:0.252087 4:0.0526316 
1.325749142280406 1:-0.9399 2:0.859649 3:-0.766277 4:-0.724311 
2 1:0.388982 2:-0.54386 3:-0.00834725 4:0.358396 
2 1:-0.355593 2:-0.674185 3:-0.923205 4:-0.774436 
0.9656199821419061 1:-0.609349 2:0.789474 3:-0.622705 4:-0.694236 
0.6466898512174263 1:0.0350584 2:-0.203008 3:-0.21202 4:-0.699248 
0.2403648306485398 1:-0.993322 2:-0.54386 3:-0.746244 4:-0.924812 
2 1:-0.101836 2:-0.0426065 3:-0.202003 4:0.884712 
2 1:-0.899833 2:0.538847 3:-0.338898 4:0.488722 
2 1:0.602671 2:0.182957 3:0.63606 4:-0.929825 
2 1:0.288815 2:-0.223058 3:0.398998 4:0.714286 
0.3245688920835508 1:-0.839733 2:-0.14787 3:-0.863105 4:0.0877193 
2 1:0.532554 2:-0.839599 3:0.853088 4:-0.493734 
2 1:-0.532554 2:-0.914787 3:-0.54591 4:-0.0576441 
1.72761015810532 1:-0.739566 2:-0.674185 3:-0.412354 4:-0.654135 
0.2529021443602382 1:-0.589316 2:-0.132832 3:-0.646077 4:0.598997 
2 1:-0.145242 2:-0.172932 3:-0.24207 4:0.598997 
2 1:-0.138564 2:-0.137845 3:0.305509 4:-0.328321 
1.003210405136351 1:-0.649416 2:0.639098 3:-0.976628 4:-0.263158 
2 1:-0.365609 2:-0.944862 3:-0.786311 4:-0.0426065 
2 1:0.502504 2:-0.598997 3:0.829716 4:-0.899749 
1.628621521814248 1:-0.689482 2:0.729323 3:-0.996661 4:0.0576441 
2 1:0.589316 2:-0.373434 3:0.472454 4:0.162907 
2 1:-0.565943 2:-0.00250627 3:-0.348915 4:-0.964912 
2 1:-0.883139 2:0.699248 3:-0.348915 4:-0.0827068 
2 1:0.342237 2:-0.54386 3:0.305509 4:-0.533835 
2 1:-0.896494 2:-0.834586 3:-0.646077 4:0.568922 
2 1:0.292154 2:0.824561 3:0.0918197 4:0.273183 
2 1:0.936561 2:0.719298 3:0.916528 4:0.047619 
2 1:0.843072 2:0.854637 3:0.532554 4:-0.934837 
2 1:0.582638 2:-0.578947 3:0.642738 4:0.24812 
2 1:-0.185309 2:-0.9599 3:-0.0550918 4:0.689223 
2 1:-0.0450751 2:0.859649 3:0.0717863 4:-0.804511 
1.524081287561879 1:0.00834725 2:0.213033 3:-0.131886 4:-0.0225564 
0.4230001147851379 1:0.953255 2:-0.694236 3:0.762938 4:-0.704261 
2 1:0.495826 2:0.909774 3:0.799666 4:-0.182957 
2 1:0.529215 2:0.719298 3:0.48581 4:-0.288221 
2 1:0.395659 2:-0.14787 3:-0.128548 4:-0.929825 
2 1:0.372287 2:-0.52381 3:0.30217 4:-0.634085 
2 1:0.24207 2:0.438596 3:-0.0717863 4:0.0676692 
2 1:-0.662771 2:-0.719298 3:-0.532554 4:0.884712 
2 1:-0.51586 2:-0.0877193 3:-0.57596 4:0.157895 
2 1:-0.659432 2:-0.719298 3:-0.36227 4:0.62406 
2 1:-0.255426 2:-0.388471 3:0.282137 4:0.298246 
2 1:-0.459098 2:-0.0125313 3:-0.60601 4:-0.639098 
2 1:-0.188648 2:0.649123 3:-0.0317195 4:-0.60401 
0.2225793630059516 1:0.525876 2:0.047619 3:0.75626 4:0.0426065 
0.8019488853635905 1:-0.959933 2:-0.794486 3:-0.582638 4:0.468672 
2 1:-0.165275 2:0.438596 3:0.232053 4:-0.949875 
2 1:0.8798 2:-0.0275689 3:0.542571 4:-0.243108 
1.534009769696656 1:0.886477 2:-0.548872 3:0.585977 4:-0.493734 
2 1:0.863105 2:0.142857 3:0.509182 4:-0.64411 
1.521782285011242 1:-0.799666 2:-0.804511 3:-0.572621 4:-0.102757 
1.958463397985931 1:-0.368948 2:0.548872 3:-0.679466 4:-0.448622 
1.242248711811911 1:-0.512521 2:-0.964912 3:-0.579299 4:-0.784461 
2 1:-0.993322 2:-0.0325815 3:-0.335559 4:0.558897 
2 1:-0.00834725 2:-0.328321 3:-0.168614 4:0.669173 
1.657758334036417 1:0.69616 2:-0.182957 3:0.949917 4:0.64411 
0.740418443327682 1:-0.829716 2:-0.253133 3:-0.429048 4:0.218045 
0.7667739211771657 1:-0.762938 2:-0.749373 3:-0.983306 4:0.769424 
2 1:0.0751252 2:-0.744361 3:-0.00500835 4:0.904762 
2 1:0.348915 2:0.0175439 3:0.00834725 4:-0.197995 
0.5224438236054942 1:-0.963272 2:-0.614035 3:-0.809683 4:0.909774 
2 1:-0.262104 2:-0.102757 3:-0.258765 4:-0.463659 
2 1:0.9399 2:0.854637 3:0.936561 4:0.258145 
2 1:-0.585977 2:-0.573935 3:-0.936561 4:0.919799 
0.2330847597379921 1:-0.823038 2:-0.00250627 3:-0.499165 4:0.498747 
2 1:0.312187 2:0.177945 3:-0.0250417 4:0.598997 
2 1:0.081803 2:-0.16792 3:-0.24207 4:-0.413534 
1.010243924309177 1:-0.616027 2:-0.213033 3:-0.796327 4:-0.142857 
2 1:-0.943239 2:0.619048 3:-0.639399 4:-0.298246 
0.9864014104196547 1:0.489149 2:-0.0626566 3:0.959933 4:0.473684 
2 1:-0.101836 2:-0.418546 3:-0.238731 4:-0.293233 
2 1:0.0918197 2:-0.769424 3:0.0851419 4:-0.924812 
1.997350876741402 1:-0.632721 2:-0.503759 3:-0.409015 4:0.488722 
2 1:0.933222 2:0.528822 3:0.84975 4:-0.0576441 
2 1:0.836394 2:-0.508772 3:0.622705 4:0.152882 
0.2261152889913265 1:-0.535893 2:0.513784 3:-0.936561 4:-0.54386 
2 1:-0.472454 2:-0.568922 3:-0.595993 4:-0.0275689 
0.4286788146322159 1:-0.0951586 2:-0.313283 3:0.0918197 4:0.0977444 
1.793692027992454 1:0.21202 2:0.112782 3:0.318865 4:-0.338346 
2 1:0.131886 2:-0.0827068 3:0.325543 4:-0.56391 
2 1:-0.238731 2:-0.203008 3:0.342237 4:0.904762 
2 1:-0.252087 2:-0.16792 3:-0.245409 4:0.443609 
2 1:0.652755 2:0.18797 3:0.853088 4:0.423559 
2 1:0.512521 2:-0.343358 3:0.90985 4:0.152882 
2 1:-0.449082 2:0.177945 3:-0.719533 4:0.854637 
0.5301070192786653 1:-0.42571 2:-0.533835 3:-0.833055 4:-0.157895 
2 1:-0.0550918 2:0.804511 3:-0.238731 4:-0.473684 
2 1:-0.365609 2:0.764411 3:-0.619366 4:0.383459 
0.8141001496702912 1:-0.712855 2:-0.373434 3:-0.629382 4:-0.934837 
2 1:-0.0550918 2:-0.804511 3:-0.15192 4:-0.0927318 
2 1:0.148581 2:0.323308 3:0.395659 4:-0.177945 
0.6819202813548292 1:0.322204 2:-0.24812 3:0.108514 4:0.0225564 
2 1:-0.0350584 2:-0.629073 3:0.312187 4:0.904762 
2 1:-0.72621 2:-0.323308 3:-0.355593 4:0.724311 
2 1:-0.131886 2:0.353383 3:0.0116861 4:-0.62406 
2 1:-0.796327 2:0.328321 3:-0.352254 4:-0.553885 
2 1:-0.669449 2:-0.553885 3:-0.382304 4:-0.66416 
2 1:0.318865 2:-0.313283 3:0.208681 4:0.443609 
1.720397039837651 1:0.929883 2:0.834586 3:0.816361 4:-0.0626566 
0.3962259409507753 1:0.752922 2:-0.137845 3:0.919866 4:-0.343358 
1.594690064480861 1:-0.141903 2:0.588972 3:-0.165275 4:-0.223058 
2 1:-0.63606 2:0.438596 3:-0.612688 4:0.779449 
2 1:-0.569282 2:0.578947 3:-0.565943 4:0.0827068 
1.997157782577572 1:-0.145242 2:-0.233083 3:-0.218698 4:0.884712 
2 1:-0.632721 2:-0.764411 3:-0.402337 4:0.468672 
2 1:0.692821 2:-0.759398 3:0.48581 4:-0.493734 
0.427794481362504 1:-0.188648 2:-0.709273 3:0.00834725 4:-0.107769 
2 1:-0.195326 2:0.924812 3:-0.125209 4:-0.157895 
2 1:-0.00834725 2:0.137845 3:0.312187 4:0.14787 
2 1:0.328881 2:0.152882 3:-0.232053 4:0.774436 
1.940662197770013 1:0.9399 2:-0.0977444 3:0.963272 4:-0.107769 
0.5195164286302018 1:-0.916528 2:0.0827068 3:-0.979967 4:0.288221 
2 1:0.365609 2:0.0325815 3:0.248748 4:-0.93985 
0.3625619890866501 1:-0.739566 2:0.037594 3:-0.993322 4:0.0075188 
2 1:-0.482471 2:0.162907 3:-0.345576 4:-0.854637 
0.604400272696957 1:-0.649416 2:0.0325815 3:-0.833055 4:-0.669173 
1.223074098770299 1:0.00834725 2:0.0325815 3:0.171953 4:-0.894737 
0.4580848477177126 1:-0.702838 2:-0.16792 3:-0.762938 4:0.924812 
2 1:0.9399 2:0.373434 3:0.712855 4:-0.0877193 
2 1:0.202003 2:0.904762 3:0.222037 4:0.904762 
2 1:0.368948 2:0.719298 3:0.188648 4:-0.854637 
1.598743469429959 1:-0.0717863 2:0.0325815 3:-0.0383973 4:0.829574 
2 1:-0.84975 2:0.709273 3:-0.979967 4:0.649123 
2 1:-0.225376 2:0.453634 3:0.18197 4:-0.12782 
2 1:0.278798 2:-0.218045 3:-0.0584307 4:-0.047619 
2 1:0.692821 2:-0.213033 3:0.525876 4:-0.0275689 
1.496580539590383 1:-0.345576 2:0.26817 3:-0.963272 4:-0.182957 
0.89732124099238 1:-0.0651085 2:-0.328321 3:-0.138564 4:-0.258145 
2 1:-0.412354 2:0.373434 3:-0.716194 4:0.458647 
2 1:0.355593 2:0.814536 3:-0.0250417 4:0.388471 
1.927961117764761 1:0.692821 2:-0.949875 3:0.883139 4:0.00250627 
0.07143032813026053 1:-0.702838 2:-0.904762 3:-0.472454 4:0.137845 
2 1:0.946578 2:-0.503759 3:0.642738 4:0.278195 
2 1:0.33222 2:-0.513784 3:0.295492 4:-0.0676692 
2 1:0.629382 2:0.112782 3:0.505843 4:-0.869674 
2 1:0.265442 2:-0.172932 3:-0.185309 4:0.614035 
2 1:-0.375626 2:-0.944862 3:-0.338898 4:-0.588972 
2 1:0.232053 2:0.278195 3:-0.128548 4:-0.16792 
1.753700690844267 1:0.228715 2:0.157895 3:-0.105175 4:0.513784 
0.9155830484342629 1:-0.946578 2:0.578947 3:-0.766277 4:0.22807 
2 1:-0.238731 2:0.894737 3:0.315526 4:-0.137845 
2 1:0.903172 2:-0.448622 3:0.84975 4:0.839599 
2 1:-0.595993 2:-0.102757 3:-0.886477 4:-0.393484 
0.7342036989838001 1:-0.465776 2:0.273183 3:-0.736227 4:-0.784461 
2 1:-0.191987 2:-0.398496 3:-0.138564 4:-0.503759 
0.2991005429643569 1:-0.572621 2:-0.0275689 3:-0.659432 4:0.0726817 
1.178224050487934 1:-0.976628 2:0.438596 3:-0.84975 4:0.909774 
2 1:0.252087 2:-0.64411 3:-0.138564 4:-0.804511 
2 1:0.75626 2:0.909774 3:0.475793 4:-0.433584 
2 1:-0.0884808 2:-0.724311 3:-0.0584307 4:-0.433584 
1.729881510718795 1:-0.823038 2:-0.734336 3:-0.84975 4:-0.854637 
0.9108999696094578 1:-0.986644 2:-0.639098 3:-0.953255 4:0.348371 
2 1:0.75626 2:-0.709273 3:0.803005 4:0.107769 
1.35005640858143 1:0.906511 2:-0.964912 3:0.572621 4:-0.914787 
1.859897322591134 1:-0.819699 2:0.889724 3:-0.739566 4:0.16792 
0.1269128310083496 1:0.382304 2:-0.22807 3:0.118531 4:0.318296 
2 1:-0.933222 2:0.263158 3:-0.54591 4:-0.223058 
2 1:-0.131886 2:-0.884712 3:-0.171953 4:0.443609 
2 1:-0.218698 2:-0.889724 3:0.348915 4:-0.213033 
1.432339481282775 1:-0.632721 2:-0.393484 3:-0.619366 4:-0.54386 
2 1:-0.505843 2:0.909774 3:-0.358932 4:-0.769424 
2 1:-0.60601 2:-0.0877193 3:-0.335559 4:0.58396 
2 1:-0.118531 2:0.338346 3:-0.0751252 4:-0.288221 
1.006366278821256 1:-0.178631 2:0.834586 3:-0.0417362 4:0.0275689 
2 1:-0.138564 2:-0.784461 3:0.222037 4:-0.744361 
2 1:-0.208681 2:0.403509 3:0.175292 4:0.182957 
2 1:-0.081803 2:-0.353383 3:0.288815 4:0.177945 
2 1:0.24207 2:-0.0626566 3:0.12187 4:0.403509 
1.168923063731083 1:-0.996661 2:0.619048 3:-0.57596 4:0.142857 
2 1:0.48581 2:0.694236 3:0.589316 4:-0.378446 
2 1:-0.228715 2:0.353383 3:0.358932 4:-0.533835 
2 1:-0.24207 2:-0.353383 3:0.191987 4:-0.814536 
1.047258843932861 1:-0.819699 2:0.458647 3:-0.986644 4:0.854637 
1.615690532512355 1:-0.111853 2:0.558897 3:0.12187 4:-0.172932 
2 1:0.382304 2:-0.24812 3:0.30217 4:-0.0275689 
1.57019253551559 1:0.148581 2:-0.0827068 3:0.248748 4:-0.58396 
0.2301713119848123 1:-0.0317195 2:-0.749373 3:0.295492 4:0.0726817 
2 1:0.118531 2:0.343358 3:-0.238731 4:0.353383 
2 1:0.0584307 2:-0.954887 3:0.298831 4:-0.56391 
0.7582140179862165 1:0.649416 2:-0.172932 3:0.799666 4:-0.819549 
2 1:-0.178631 2:-0.373434 3:-0.115192 4:-0.453634 
2 1:-0.589316 2:-0.253133 3:-0.746244 4:0.834586 
1.215817196743484 1:0.699499 2:-0.107769 3:0.896494 4:0.58396 
0.384026294759192 1:0.716194 2:-0.177945 3:0.572621 4:-0.659148 
2 1:-0.365609 2:-0.578947 3:-0.719533 4:0.533835 
1.3183475172173 1:0.562604 2:-0.453634 3:0.66611 4:0.047619 
2 1:-0.66611 2:0.889724 3:-0.519199 4:-0.0125313 
2 1:0.0717863 2:0.899749 3:0.048414 4:-0.152882 
2 1:-0.158598 2:-0.348371 3:-0.0751252 4:-0.739348 
2 1:0.84975 2:-0.734336 3:0.953255 4:-0.24812 
2 1:0.475793 2:0.203008 3:0.502504 4:-0.353383 
2 1:-0.732888 2:0.799499 3:-0.368948 4:0.518797 
1.239270067132873 1:-0.833055 2:0.468672 3:-0.612688 4:0.779449 
2 1:0.966611 2:0.303258 3:0.589316 4:-0.243108 
2 1:0.325543 2:-0.162907 3:-0.228715 4:0.598997 
2 1:-0.0217028 2:0.724311 3:-0.245409 4:-0.16792 
2 1:0.318865 2:-0.16792 3:-0.205342 4:0.343358 
2 1:-0.582638 2:-0.333333 3:-0.789649 4:0.909774 
2 1:-0.0283806 2:-0.859649 3:0.278798 4:-0.18797 
0.131281287909069 1:0.742905 2:-0.0977444 3:0.595993 4:0.122807 
2 1:-0.639399 2:-0.438596 3:-0.609349 4:-0.398496 
0.6726048001277981 1:0.826377 2:-0.844612 3:0.532554 4:-0.774436 
2 1:0.0951586 2:0.308271 3:0.315526 4:0.729323 
2 1:0.368948 2:-0.929825 3:-0.0984975 4:-0.824561 
0.4656303990165477 1:-0.8798 2:-0.102757 3:-0.996661 4:0.573935 
2 1:-0.45576 2:0.373434 3:-0.983306 4:-0.789474 
2 1:-0.429048 2:0.533835 3:-0.746244 4:-0.0676692 
2 1:0.923205 2:0.674185 3:0.929883 4:-0.513784 
1.052704611276415 1:-0.709516 2:0.794486 3:-0.479132 4:-0.614035 
0.6765153066273034 1:-0.54591 2:0.493734 3:-0.742905 4:0.573935 
2 1:-0.0116861 2:-0.308271 3:0.00166945 4:0.26817 
1.516065561314958 1:0.0383973 2:0.14787 3:-0.0951586 4:0.689223 
2 1:-0.138564 2:-0.528822 3:0.0918197 4:0.278195 
2 1:-0.0250417 2:-0.518797 3:-0.0918197 4:-0.107769 
0.7971246709270149 1:-0.959933 2:-0.784461 3:-0.799666 4:-0.0726817 
1.020290904675664 1:0.175292 2:0.273183 3:0.245409 4:-0.047619 
2 1:0.0984975 2:-0.754386 3:-0.0984975 4:-0.468672 
2 1:-0.128548 2:-0.578947 3:0.232053 4:-0.804511 
0.7108518653287436 1:-0.118531 2:0.453634 3:-0.105175 4:0.0175439 
2 1:0.388982 2:-0.182957 3:0.0851419 4:0.0776942 
2 1:0.308848 2:0.789474 3:-0.158598 4:-0.162907 
1.332147313634727 1:-0.388982 2:-0.964912 3:-0.789649 4:-0.64411 
0.4987178725361945 1:-0.836394 2:-0.363409 3:-0.619366 4:-0.323308 
1.942386660637518 1:-0.609349 2:0.398496 3:-0.432387 4:-0.874687 
1.124185920140946 1:-0.21202 2:0.754386 3:-0.165275 4:-0.674185 
2 1:0.792988 2:0.0927318 3:0.619366 4:0.298246 
2 1:0.0884808 2:0.463659 3:-0.141903 4:-0.418546 
2 1:0.255426 2:-0.839599 3:0.27212 4:0.398496 
2 1:0.622705 2:0.263158 3:0.886477 4:-0.749373 
2 1:-0.352254 2:0.313283 3:-0.789649 4:-0.62406 
2 1:-0.585977 2:-0.413534 3:-0.422371 4:-0.689223 
2 1:-0.60601 2:-0.393484 3:-0.388982 4:0.157895 
2 1:0.048414 2:-0.0426065 3:0.352254 4:-0.353383 
2 1:0.632721 2:0.253133 3:0.619366 4:0.303258 
2 1:-0.532554 2:0.909774 3:-0.833055 4:0.353383 
2 1:0.378965 2:0.854637 3:-0.015025 4:0.503759 
1.808236209616607 1:-0.923205 2:0.899749 3:-0.472454 4:0.328321 
2 1:-0.0317195 2:-0.137845 3:0.0283806 4:-0.162907 
0.9674774620887916 1:-0.592654 2:0.0877193 3:-0.919866 4:0.283208 
2 1:0.495826 2:0.00250627 3:0.652755 4:0.197995 
0.4817944406064381 1:-0.595993 2:0.689223 3:-0.913189 4:-0.0676692 
2 1:-0.883139 2:-0.864662 3:-0.352254 4:0.634085 
1.156117890799743 1:-0.966611 2:-0.26817 3:-0.853088 4:-0.924812 
2 1:0.0851419 2:0.488722 3:-0.235392 4:-0.859649 
2 1:-0.639399 2:0.894737 3:-0.612688 4:-0.0426065 
2 1:-0.228715 2:0.914787 3:-0.0283806 4:0.874687 
2 1:0.315526 2:0.699248 3:-0.00500835 4:0.799499 
1.010482924000782 1:-0.956594 2:0.54386 3:-0.976628 4:0.428571 
2 1:-0.896494 2:-0.448622 3:-0.489149 4:0.894737 
0.6313497066783664 1:-0.776294 2:-0.879699 3:-0.75626 4:-0.328321 
0.6649749124887758 1:0.883139 2:-0.699248 3:0.569282 4:-0.699248 
2 1:0.388982 2:-0.0125313 3:0.348915 4:-0.398496 
2 1:0.966611 2:-0.0927318 3:0.896494 4:0.759398 
0.7410643828929068 1:0.739566 2:-0.754386 3:0.552588 4:-0.343358 
2 1:0.105175 2:0.438596 3:-0.108514 4:-0.303258 
1.882988028139307 1:-0.348915 2:-0.714286 3:-0.716194 4:-0.0576441 
2 1:0.0417362 2:-0.834586 3:-0.141903 4:0.699248 
2 1:0.191987 2:0.293233 3:0.352254 4:-0.804511 
0.2721576119601519 1:0.903172 2:-0.22807 3:0.702838 4:-0.759398 
2 1:0.252087 2:-0.177945 3:-0.12187 4:0.794486 
2 1:-0.208681 2:-0.779449 3:0.288815 4:0.784461 
2 1:0.562604 2:-0.934837 3:0.525876 4:0.849624 
0.6908402922867631 1:0.161937 2:-0.0225564 3:-0.00834725 4:0.478697 
0.6763707031480095 1:0.776294 2:0.0125313 3:0.806344 4:-0.829574 
2 1:0.288815 2:-0.889724 3:0.275459 4:0.0125313 
2 1:0.69616 2:-0.944862 3:0.51586 4:-0.413534 
2 1:0.535893 2:-0.578947 3:0.472454 4:-0.313283 
2 1:-0.863105 2:0.759398 3:-0.45576 4:-0.573935 
2 1:-0.131886 2:0.393484 3:-0.178631 4:0.418546 
0.04177227958514316 1:-0.579299 2:-0.60401 3:-0.702838 4:-0.483709 
2 1:0.388982 2:0.157895 3:0.265442 4:-0.348371 
2 1:-0.342237 2:-0.894737 3:-0.90985 4:0.0225564 
0.3316032395529993 1:0.859766 2:-0.949875 3:0.669449 4:-0.634085 
2 1:-0.409015 2:0.894737 3:-0.505843 4:0.152882 
1.107129046323355 1:0.355593 2:-0.22807 3:0.0918197 4:0.418546 
2 1:0.742905 2:0.0676692 3:0.565943 4:-0.909774 
0.5678804845774842 1:-0.00834725 2:-0.26817 3:-0.0217028 4:0.704261 
1.303510260992728 1:0.342237 2:-0.609023 3:0.375626 4:-0.14787 
2 1:-0.378965 2:0.573935 3:-0.412354 4:-0.689223 
1.450380866272051 1:0.612688 2:0.909774 3:0.555927 4:-0.864662 
2 1:0.626043 2:0.122807 3:0.966611 4:-0.192982 
1.980380563000107 1:-0.535893 2:0.498747 3:-0.959933 4:0.12782 
2 1:-0.168614 2:-0.909774 3:-0.0851419 4:0.488722 
2 1:-0.599332 2:0.899749 3:-0.562604 4:0.679198 
2 1:-0.248748 2:-0.117794 3:-0.101836 4:0.66416 
0.7382159106281801 1:0.906511 2:-0.288221 3:0.762938 4:-0.573935 
2 1:0.238731 2:-0.739348 3:0.342237 4:-0.0526316 
1.156099301988736 1:-0.859766 2:0.60401 3:-0.893155 4:-0.739348 
2 1:-0.395659 2:0.403509 3:-0.929883 4:-0.93985 
2 1:0.288815 2:-0.508772 3:0.292154 4:-0.809524 
1.500684541775602 1:-0.562604 2:-0.533835 3:-0.963272 4:0.358396 
2 1:-0.0717863 2:0.12782 3:0.275459 4:-0.438596 
2 1:0.335559 2:0.0726817 3:0.0717863 4:0.408521 
2 1:-0.338898 2:0.378446 3:-0.712855 4:-0.18797 
2 1:0.479132 2:-0.213033 3:0.499165 4:-0.729323 
1.656045691406052 1:0.115192 2:-0.0576441 3:-0.138564 4:-0.799499 
-0.02396519532565685 1:0.328881 2:0.909774 3:-0.903172 4:0.52381 
-0.6740204872769413 1:0.0116861 2:-0.172932 3:-0.265442 4:-0.0877193 
-0.08980595501594332 1:-0.111853 2:-0.58396 3:0.60601 4:0.899749 
-1.727898344855807 1:-0.716194 2:-0.854637 3:-0.258765 4:-0.669173 
-0.03103804544332317 1:-0.956594 2:-0.989975 3:0.799666 4:-0.483709 
-0.09541476169097569 1:0.185309 2:-0.328321 3:0.936561 4:0.879699 
-2 1:-0.509182 2:-0.333333 3:-0.903172 4:0.994987 
-2 1:0.505843 2:0.93985 3:0.739566 4:-0.0676692 
-0.02761157896178394 1:-0.976628 2:-0.739348 3:0.979967 4:-0.58396 
-0.04213341220830359 1:0.959933 2:-0.493734 3:-0.876461 4:0.273183 
-2 1:-0.976628 2:0.669173 3:-0.445743 4:-0.223058 
-2 1:0.0283806 2:-0.0776942 3:-0.368948 4:0.724311 
-1.009647499937545 1:-0.90985 2:0.699248 3:-0.222037 4:0.669173 
-0.02126189087924851 1:-0.796327 2:-0.0426065 3:0.983306 4:-0.824561 
-0.0265490542627718 1:0.979967 2:0.258145 3:-0.873122 4:0.423559 
-0.6658166745516961 1:0.943239 2:0.0175439 3:0.392321 4:-0.93985 
-1.362336960012135 1:0.809683 2:-0.253133 3:0.742905 4:0.749373 
-0.00561702527706571 1:-0.786311 2:-0.994987 3:0.746244 4:0.58396 
-0.03533200125220318 1:-0.676127 2:0.614035 3:0.993322 4:0.639098 
-2 1:-0.9399 2:-0.243108 3:-0.30217 4:0.273183 
-0.7043017521439875 1:0.585977 2:-0.969925 3:0.392321 4:-0.924812 
-0.3153118721802617 1:-0.682805 2:-0.684211 3:-0.472454 4:0.929825 
-2 1:0.45576 2:-0.403509 3:-0.00834725 4:0.0726817 
-0.06086424755493386 1:0.833055 2:-0.929825 3:-0.919866 4:0.944862 
-1.803262263604555 1:0.42571 2:-0.16792 3:0.659432 4:0.328321 
-0.8046366126977686 1:-0.459098 2:-0.423559 3:-0.612688 4:0.924812 
-0.3299721400038067 1:-0.305509 2:0.438596 3:0.0984975 4:0.473684 
-0.4035115818105803 1:-0.325543 2:-0.994987 3:-0.145242 4:0.343358 
-1.104164761662253 1:0.148581 2:-0.984962 3:0.0984975 4:-0.58396 
-2 1:0.338898 2:-0.18797 3:-0.188648 4:-0.0175439 
-0.5768945269135619 1:0.398998 2:0.438596 3:0.158598 4:-0.804511 
-1.594152058937603 1:-0.00834725 2:-0.483709 3:-0.335559 4:0.779449 
-2 1:0.479132 2:0.00250627 3:0.292154 4:-0.884712 
-2 1:-0.135225 2:-0.353383 3:-0.328881 4:-0.639098 
-1.390791468949024 1:-0.191987 2:0.14787 3:-0.125209 4:-0.238095 
-0.8322191411670882 1:0.739566 2:0.749373 3:0.919866 4:-0.879699 
-0.8647844406607682 1:-0.592654 2:-0.468672 3:-0.422371 4:0.769424 
-1.184656372242428 1:-0.27212 2:-0.844612 3:-0.652755 4:-0.243108 
-1.533336514954423 1:-0.248748 2:-0.0726817 3:-0.12187 4:-0.934837 
-0.2228099946654617 1:-0.0450751 2:-0.954887 3:-0.595993 4:0.669173 
-2 1:-0.439065 2:0.829574 3:-0.60601 4:0.192982 
-0.06008306209712407 1:0.445743 2:0.699248 3:-0.228715 4:0.819549 
-2 1:0.973289 2:-0.864662 3:0.562604 4:-0.458647 
-2 1:0.796327 2:-0.874687 3:0.449082 4:-0.358396 
-2 1:-0.60601 2:-0.839599 3:-0.555927 4:0.598997 
-1.101709883628966 1:0.489149 2:0.759398 3:0.228715 4:-0.117794 
-0.03362987120576328 1:0.823038 2:0.97995 3:-0.916528 4:-0.849624 
-0.2261826003704103 1:-0.101836 2:-0.719298 3:-0.759599 4:-0.0426065 
-0.6780876517664853 1:0.429048 2:-0.253133 3:-0.00834725 4:0.784461 
-0.04982199169489368 1:0.983306 2:0.869674 3:-0.989983 4:-0.659148 
-1.738601949188225 1:0.12187 2:0.12782 3:-0.298831 4:0.934837 
-0.01140762927600322 1:0.375626 2:0.518797 3:-0.989983 4:0.754386 
-1.624791478821522 1:-0.8798 2:0.689223 3:-0.352254 4:-0.122807 
-2 1:-0.36227 2:-0.293233 3:-0.0784641 4:-0.619048 
-0.01078689768294798 1:0.963272 2:0.20802 3:-0.632721 4:-0.498747 
-2 1:-0.843072 2:0.578947 3:-0.475793 4:0.714286 
-0.02060149813448951 1:0.465776 2:-0.889724 3:-0.976628 4:-0.363409 
-0.01099807819314192 1:-0.15192 2:0.659148 3:0.983306 4:0.704261 
-2 1:-0.66611 2:-0.473684 3:-0.315526 4:-0.714286 
-2 1:-0.171953 2:-0.0426065 3:-0.0283806 4:0.102757 
-1.036186864983558 1:-0.318865 2:-0.483709 3:-0.188648 4:-0.60401 
-0.007001403130161246 1:0.308848 2:0.759398 3:-0.996661 4:0.60401 
-0.5863053321282363 1:-0.429048 2:0.839599 3:-0.72621 4:0.468672 
-2 1:-0.322204 2:0.724311 3:0.105175 4:-0.177945 
-0.509009779426021 1:-0.298831 2:0.192982 3:-0.973289 4:0.363409 
-0.4468220028755375 1:0.0617696 2:0.368421 3:-0.392321 4:-0.177945 
-2 1:0.469115 2:0.177945 3:0.839733 4:-0.117794 
-2 1:0.57596 2:0.132832 3:0.509182 4:0.318296 
-0.04083573763090216 1:0.983306 2:0.789474 3:-0.382304 4:-0.493734 
-2 1:-0.599332 2:0.14787 3:-0.949917 4:-0.974937 
-0.006744176707872327 1:-0.171953 2:0.759398 3:1 4:-0.659148 
-0.01012234447688959 1:-0.669449 2:-0.288221 3:0.9399 4:0.829574 
-0.2333153554884498 1:-0.0450751 2:0.24812 3:0.202003 4:0.769424 
-0.837790382137245 1:0.00500835 2:0.54386 3:-0.315526 4:0.117794 
-1.860065395885197 1:-0.716194 2:0.358396 3:-0.823038 4:-0.984962 
-0.009904040921338985 1:0.989983 2:0.804511 3:-0.672788 4:-0.132832 
-0.8823535209251321 1:-0.288815 2:-0.634085 3:-0.709516 4:0.313283 
-2 1:-0.522538 2:0.64411 3:-0.542571 4:0.458647 
-0.03787526925425006 1:-0.986644 2:-0.363409 3:0.626043 4:-0.192982 
-0.3391186488926811 1:-0.148581 2:0.172932 3:-0.48581 4:-0.739348 
-0.06878436175640133 1:-0.979967 2:0.819549 3:0.839733 4:-0.969925 
-0.1731666020737716 1:-0.282137 2:0.969925 3:0.185309 4:0.834586 
-1.383441900805956 1:-0.205342 2:-0.944862 3:-0.439065 4:-0.694236 
-0.9340840256631927 1:0.0851419 2:0.162907 3:0.48581 4:-0.66416 
-2 1:0.215359 2:-0.12782 3:-0.298831 4:0.498747 
-0.01645260154329869 1:-0.492487 2:0.24812 3:0.986644 4:0.699248 
-0.7298670281959618 1:0.0417362 2:-0.0075188 3:0.465776 4:0.0426065 
-1.0481822563884 1:0.429048 2:-0.884712 3:0.0250417 4:0.288221 
-0.3051709929091994 1:0.60601 2:0.508772 3:0.479132 4:-0.363409 
-0.7664746257363514 1:-0.225376 2:0.373434 3:-0.298831 4:0.508772 
-1.24008896953329 1:0.84975 2:0.533835 3:0.973289 4:-0.0275689 
-1.351938310551243 1:-0.392321 2:-0.93985 3:0.442404 4:-0.278195 
-1.244426218892945 1:0.679466 2:0.172932 3:0.762938 4:0.619048 
-0.009939684198827924 1:-0.238731 2:0.859649 3:-0.525876 4:-0.784461 
-1.553972166571527 1:-0.415693 2:-0.22807 3:0.295492 4:-0.874687 
-0.9879386137241339 1:0.252087 2:-0.864662 3:-0.235392 4:-0.0776942 
-0.05294174378426747 1:0.926544 2:-0.829574 3:-0.499165 4:-0.0827068 
-1.669734362695331 1:-0.469115 2:-0.363409 3:-0.66611 4:-0.498747 
-2 1:-0.512521 2:0.598997 3:-0.796327 4:-0.0877193 
-2 1:0.21202 2:-0.037594 3:-0.125209 4:-0.984962 
-2 1:0.629382 2:-0.203008 3:0.973289 4:-0.799499 
-2 1:-0.612688 2:-0.614035 3:-0.502504 4:-0.378446 
-1.169478186985562 1:-0.903172 2:-0.869674 3:-0.435726 4:0.874687 
-1.60302858700236 1:0.916528 2:0.0676692 3:0.699499 4:0.52381 
-0.1319617084857624 1:0.268781 2:-0.293233 3:0.449082 4:0.954887 
-0.2790059173005303 1:0.141903 2:-0.197995 3:0.385643 4:0.303258 
-0.126968818995679 1:-0.292154 2:0.20802 3:0.328881 4:-0.433584 
-0.01459215158628335 1:-0.21202 2:0.22807 3:-0.432387 4:-0.333333 
-0.0008036354488123144 1:-0.819699 2:-0.0125313 3:0.996661 4:0.253133 
-0.01282474835725198 1:-0.873122 2:-0.117794 3:0.859766 4:-0.899749 
-0.1573441820401786 1:0.933222 2:0.258145 3:0.986644 4:0.568922 
-0.2272650207255165 1:0.659432 2:-0.894737 3:-0.265442 4:-0.899749 
-2 1:-0.125209 2:0.614035 3:-0.268781 4:-0.483709 
-0.9352143986339069 1:0.402337 2:-0.93985 3:-0.195326 4:-0.614035 
-1.885939042725398 1:0.338898 2:0.182957 3:0.268781 4:-0.994987 
-2 1:0.0717863 2:0.0827068 3:0.218698 4:-0.458647 
-2 1:-0.489149 2:0.56391 3:-0.525876 4:0.0776942 
-0.5224734073424717 1:-0.419032 2:-0.0977444 3:-0.325543 4:-0.639098 
-2 1:-0.278798 2:0.313283 3:-0.883139 4:-0.874687 
-1.202927805122582 1:0.619366 2:-0.473684 3:0.342237 4:0.0275689 
-0.489683985379042 1:0.00500835 2:0.12782 3:-0.288815 4:0.0726817 
-0.7586445451582829 1:-0.472454 2:0.889724 3:0.305509 4:-0.152882 
-0.04934102911988601 1:0.0951586 2:-0.964912 3:-0.589316 4:0.879699 
-2 1:-0.015025 2:-0.719298 3:0.222037 4:0.794486 
-2 1:0.18197 2:-0.152882 3:-0.208681 4:0.338346 
-0.7506390442245346 1:-0.342237 2:-0.714286 3:0.235392 4:-0.614035 
-1.655303526835666 1:0.125209 2:0.714286 3:0.265442 4:-0.904762 
-2 1:-0.0217028 2:-0.814536 3:-0.232053 4:-0.0526316 
-1.361579802515716 1:0.996661 2:-0.383459 3:0.72621 4:0.734336 
-0.009702141152798747 1:-0.90985 2:-0.0075188 3:0.806344 4:0.513784 
-0.02948636086343854 1:0.993322 2:0.52381 3:-0.692821 4:-0.157895 
-0.2109798012189007 1:-0.509182 2:-0.508772 3:-0.292154 4:-0.974937 
-0.8273379155485094 1:-0.405676 2:0.58396 3:-0.856427 4:-0.834586 
-1.105482227595463 1:0.245409 2:0.814536 3:0.0717863 4:0.538847 
-0.01411919614956837 1:0.532554 2:0.944862 3:-0.833055 4:0.368421 
-0.01374316756887567 1:-0.54591 2:0.578947 3:0.899833 4:0.989975 
-0.6332221660201823 1:-0.298831 2:0.719298 3:0.345576 4:-0.223058 
-0.05180360617363725 1:0.712855 2:0.348371 3:0.66611 4:-0.944862 
-1.216385060718011 1:0.986644 2:0.814536 3:0.619366 4:-0.609023 
-2 1:0.976628 2:-0.313283 3:0.459098 4:-0.363409 
-2 1:0.00834725 2:0.62406 3:0.00500835 4:-0.0075188 
-2 1:-0.75626 2:-0.814536 3:-0.716194 4:-1 
-1.273121971476477 1:0.405676 2:-0.458647 3:-0.108514 4:0.438596 
-2 1:-0.542571 2:0.719298 3:-0.776294 4:0.593985 
-2 1:0.141903 2:-0.513784 3:-0.118531 4:-0.278195 
-0.01599587287057111 1:0.823038 2:-0.177945 3:-0.876461 4:-0.16792 
-0.6146639993147112 1:-0.158598 2:0.488722 3:-0.622705 4:-0.383459 
-2 1:-0.629382 2:-0.819549 3:-0.422371 4:0.578947 
-0.5319608498949958 1:-0.786311 2:-0.433584 3:-0.268781 4:0.809524 
-0.05411616845110516 1:0.786311 2:-0.0075188 3:-0.953255 4:0.874687 
-0.0286600805597776 1:-0.979967 2:-0.117794 3:0.903172 4:-0.649123 
-2 1:0.235392 2:0.679198 3:0.238731 4:0.849624 
-0.7895582508267078 1:-0.225376 2:-0.00250627 3:0.105175 4:-0.288221 
-2 1:0.986644 2:-0.0526316 3:0.986644 4:-0.298246 
-1.394380778430855 1:0.108514 2:-0.157895 3:0.472454 4:-0.654135 
-0.3742989279710067 1:-0.238731 2:-0.388471 3:-0.318865 4:0.588972 
-1.584945992009373 1:0.51586 2:0.994987 3:0.505843 4:-0.58396 
-0.1850504100323627 1:0.402337 2:0.107769 3:-0.375626 4:0.849624 
-1.092177150504965 1:-0.30217 2:0.934837 3:-0.0283806 4:0.944862 
-0.9549415146231038 1:0.45576 2:-0.994987 3:0.792988 4:0.137845 
-2 1:0.883139 2:0.218045 3:0.452421 4:-0.162907 
-0.04688095391928022 1:-0.856427 2:0.829574 3:0.876461 4:1 
-0.06536843618929285 1:-0.786311 2:1 3:0.993322 4:-0.0626566 
-0.6147444364426614 1:-0.42571 2:-0.182957 3:-0.0283806 4:0.353383 
-0.3090626788273858 1:-0.208681 2:-0.498747 3:0.479132 4:0.974937 
-2 1:-0.796327 2:0.137845 3:-0.322204 4:0.393484 
-0.0347074544198677 1:0.843072 2:-0.799499 3:-0.976628 4:-0.934837 
-0.006151687885681724 1:0.96995 2:-0.909774 3:-0.442404 4:0.824561 
-1.800122026652532 1:0.0283806 2:-0.518797 3:-0.0717863 4:0.398496 
-0.1311032913935897 1:0.312187 2:-0.689223 3:1 4:-0.353383 
-2 1:0.165275 2:-0.0125313 3:0.00834725 4:0.498747 
-0.6226285139943732 1:0.248748 2:0.66416 3:-0.0517529 4:0.378446 
-2 1:-0.205342 2:-0.984962 3:-0.0851419 4:0.373434 
-2 1:0.21202 2:-0.493734 3:0.0918197 4:0.218045 
-2 1:0.789649 2:0.303258 3:0.829716 4:-0.172932 
-0.9009699389589721 1:0.118531 2:-0.934837 3:0.442404 4:-0.177945 
-0.2168604143302737 1:0.238731 2:-0.789474 3:-0.429048 4:0.58396 
-0.003326789453771743 1:0.856427 2:0.558897 3:-0.719533 4:-0.899749 
-0.01709521825585025 1:0.883139 2:-0.854637 3:-0.572621 4:0.313283 
-2 1:-0.288815 2:0.629073 3:0.33222 4:-0.0275689 
-0.03899860854234446 1:0.72621 2:-0.634085 3:-0.946578 4:-0.373434 
-0.1622137118017962 1:0.916528 2:-0.989975 3:0.21202 4:0.744361 
-0.001908008251770686 1:0.823038 2:0.679198 3:-0.8798 4:0.558897 
-2 1:0.846411 2:-0.273183 3:0.465776 4:-0.0225564 
-0.3233933838328572 1:0.318865 2:0.929825 3:-0.228715 4:0.919799 
-0.5818302689250968 1:0.135225 2:0.0175439 3:-0.409015 4:-0.273183 
-0.01415971773159535 1:-0.813022 2:-0.944862 3:0.899833 4:0.428571 
-1.453320627700638 1:0.345576 2:0.313283 3:-0.168614 4:-0.26817 
-1.08740907623016 1:-0.0784641 2:-0.303258 3:0.24207 4:0.513784 
-0.7445473685045246 1:-0.145242 2:-0.854637 3:0.462437 4:0.213033 
-1.414197665055719 1:0.959933 2:0.889724 3:0.746244 4:0.323308 
-1.969814427224032 1:-0.499165 2:0.954887 3:-0.499165 4:0.137845 
-0.2153102053451388 1:-0.138564 2:0.483709 3:-0.919866 4:-0.132832 
-2 1:0.125209 2:-0.112782 3:0.135225 4:0.493734 
-0.04895917947330056 1:1 2:0.288221 3:-0.829716 4:0.904762 
-1.345667877552035 1:0.976628 2:-0.132832 3:0.492487 4:-0.679198 
-2 1:0.866444 2:0.0827068 3:0.442404 4:-0.458647 
-0.04481353159803237 1:-0.492487 2:0.16792 3:0.308848 4:0.197995 
-0.27291552098313 1:0.392321 2:0.93985 3:-0.432387 4:-0.819549 
-1.504029490438844 1:-0.475793 2:-0.197995 3:-0.63606 4:-0.734336 
-0.02220866531919958 1:0.582638 2:-0.22807 3:-0.8798 4:-0.894737 
-0.1106134551539214 1:0.0283806 2:0.969925 3:0.342237 4:0.413534 
-2 1:-0.0517529 2:0.398496 3:0.0217028 4:-0.318296 
-2 1:-0.532554 2:0.639098 3:-0.589316 4:-0.834586 
-2 1:0.0116861 2:0.353383 3:0.0283806 4:0.684211 
-1.31298693615981 1:0.555927 2:0.764411 3:0.128548 4:0.879699 
-2 1:-0.659432 2:0.954887 3:-0.936561 4:0.0426065 
-0.04195529440140855 1:-0.21202 2:-0.859649 3:0.986644 4:0.984962 
-2 1:0.368948 2:-0.834586 3:0.803005 4:-0.573935 
-0.1523419825465542 1:-0.0884808 2:0.433584 3:0.739566 4:0.904762 
-2 1:-0.48581 2:0.588972 3:-0.956594 4:0.192982 
-1.388948211083467 1:0.786311 2:-0.223058 3:0.405676 4:0.037594 
-0.3429552722945051 1:-0.342237 2:-0.0626566 3:0.42571 4:0.944862 
-2 1:0.57596 2:-0.383459 3:0.442404 4:-0.047619 
-1.473465112713396 1:-0.0517529 2:0.759398 3:0.432387 4:-0.172932 
-2 1:-0.405676 2:-0.22807 3:-0.205342 4:0.493734 
-2 1:0.829716 2:0.724311 3:0.786311 4:-0.20802 
-0.3572127217835465 1:-0.131886 2:-0.0325815 3:-0.171953 4:0.293233 
-0.2143815791156506 1:0.168614 2:-0.704261 3:0.148581 4:-0.58396 
-0.02753979427404725 1:-0.886477 2:0.609023 3:0.993322 4:-0.719298 
-0.03807215139513308 1:0.445743 2:-0.0075188 3:0.709516 4:0.66416 
-2 1:0.482471 2:0.779449 3:0.382304 4:-0.328321 
-0.9843684024497376 1:0.419032 2:-0.338346 3:0.395659 4:0.659148 
-0.2145538757063143 1:-0.883139 2:-0.649123 3:-0.308848 4:0.97995 
-0.6014504314339066 1:0.36227 2:-0.102757 3:0.699499 4:-0.784461 
-0.3764922259660408 1:0.599332 2:0.0526316 3:0.435726 4:-0.0576441 
-2 1:0.191987 2:0.829574 3:-0.262104 4:-0.649123 
-1.181894753310371 1:-0.278798 2:0.453634 3:-0.762938 4:0.12782 
-2 1:-0.792988 2:0.649123 3:-0.843072 4:0.9599 
-0.1229608474359567 1:-0.222037 2:-0.694236 3:-0.786311 4:-0.308271 
-2 1:-0.946578 2:0.553885 3:-1 4:0.18797 
-2 1:0.115192 2:0.197995 3:0.0751252 4:-0.684211 
-1.045026177238746 1:0.63606 2:0.16792 3:0.983306 4:-0.934837 
-0.2614985936375724 1:-0.709516 2:0.684211 3:-0.315526 4:0.689223 
-0.02572271042345022 1:0.155259 2:-0.984962 3:0.325543 4:0.944862 
-2 1:0.0851419 2:-0.403509 3:0.305509 4:-0.844612 
-0.2857999598588249 1:-0.33222 2:-0.518797 3:-0.966611 4:0.819549 
-0.03721105599110139 1:0.0116861 2:0.629073 3:-0.358932 4:-0.52381 
-0.028352803326722 1:0.993322 2:0.368421 3:-0.442404 4:-0.859649 
-2 1:0.629382 2:-0.338346 3:0.742905 4:0.26817 
-2 1:-0.278798 2:-0.874687 3:-0.986644 4:0.18797 
-2 1:-0.0417362 2:-0.558897 3:0.0751252 4:-0.498747 
-1.165253115499168 1:-0.906511 2:0.0526316 3:-0.252087 4:0.598997 
-0.8457418222912938 1:-0.409015 2:-0.0726817 3:-0.248748 4:0.774436 
-2 1:0.519199 2:-0.483709 3:0.439065 4:-0.388471 
-1.319179244170291 1:-0.228715 2:-0.769424 3:0.318865 4:0.97995 
-0.09333196122270623 1:0.0651085 2:-0.508772 3:-0.208681 4:0.573935 
-0.04630711597900309 1:-0.312187 2:-0.323308 3:-0.889816 4:-0.213033 
-2 1:0.799666 2:0.824561 3:0.979967 4:0.263158 
-0.0511057075523531 1:-0.836394 2:-0.97995 3:0.692821 4:-0.969925 
-0.03094530003939503 1:0.933222 2:-0.894737 3:-0.8798 4:-0.854637 
-0.04257100848092883 1:0.963272 2:0.513784 3:-0.943239 4:0.654135 
-1.837652010574359 1:0.0217028 2:-0.323308 3:-0.135225 4:0.182957 
-2 1:-0.158598 2:0.689223 3:0.0617696 4:-0.428571 
-1.305895223400006 1:-0.415693 2:0.333333 3:-0.949917 4:1 
-0.03070460261986297 1:-0.702838 2:0.157895 3:0.889816 4:-0.969925 
-0.02339181933612744 1:0.676127 2:-0.994987 3:-0.779633 4:0.398496 
-0.4065038222619484 1:0.168614 2:-0.358396 3:0.522538 4:-0.26817 
-0.5224167168205739 1:0.592654 2:-0.729323 3:-0.285476 4:-0.894737 
-2 1:0.469115 2:-0.418546 3:0.676127 4:-0.799499 
-0.00930490457509653 1:-0.9399 2:-0.864662 3:0.522538 4:0.558897 
-0.02032441677931065 1:-0.926544 2:-0.884712 3:0.806344 4:0.0275689 
-0.6578815629463858 1:-0.432387 2:-0.112782 3:-0.883139 4:-0.52381 
-0.8874776704381682 1:0.148581 2:0.318296 3:0.429048 4:-0.919799 
-0.3877085519984828 1:0.315526 2:-0.884712 3:0.105175 4:0.804511 
-2 1:-0.712855 2:-0.328321 3:-0.555927 4:0.944862 
-0.01342018398613927 1:-0.883139 2:0.343358 3:0.896494 4:-0.619048 
-2 1:-0.312187 2:0.368421 3:-0.57596 4:-0.774436 
-0.655028277754688 1:0.0984975 2:-0.468672 3:0.315526 4:-0.839599 
-2 1:-0.432387 2:-0.448622 3:-0.472454 4:0.16792 
-2 1:0.993322 2:0.538847 3:0.709516 4:0.0175439 
-0.5478849901849741 1:0.405676 2:-0.538847 3:-0.00834725 4:-0.929825 
-0.0407622069533219 1:-0.395659 2:-0.864662 3:0.963272 4:-0.909774 
-0.03876082025212571 1:-0.986644 2:0.137845 3:0.766277 4:-0.438596 
-0.5307071311942211 1:0.155259 2:-0.749373 3:-0.262104 4:-0.0075188 
-0.4242827807491847 1:0.509182 2:0.944862 3:0.0751252 4:-0.819549 
-2 1:0.0617696 2:-0.669173 3:-0.00500835 4:-0.172932 
-0.7203183576831346 1:0.415693 2:0.66416 3:0.803005 4:-0.448622 
-2 1:0.452421 2:0.729323 3:0.0283806 4:0.363409 
-2 1:-0.118531 2:0.0125313 3:-0.295492 4:0.56391 
-0.005399080435819056 1:0.539232 2:0.177945 3:-0.963272 4:-0.789474 
-0.5401741147736636 1:0.215359 2:-0.859649 3:0.512521 4:-0.223058 
-0.01391680046601273 1:0.996661 2:-0.799499 3:-0.325543 4:0.739348 
-0.8353961811729085 1:0.579299 2:-0.438596 3:0.709516 4:0.388471 
-0.1444386520293479 1:0.993322 2:0.724311 3:0.652755 4:-0.704261 
-2 1:0.622705 2:-0.739348 3:0.415693 4:-0.308271 
-0.7883258003539569 1:0.409015 2:0.97995 3:-0.0116861 4:0.654135 
-2 1:0.475793 2:0.0225564 3:0.388982 4:-0.313283 
-2 1:0.0851419 2:0.433584 3:-0.315526 4:-0.503759 
-2 1:-0.268781 2:-0.107769 3:-0.165275 4:0.704261 
-2 1:-0.232053 2:0.784461 3:0.0250417 4:-0.448622 
-0.4173892101681944 1:0.402337 2:0.789474 3:-0.171953 4:0.528822 
-2 1:-1 2:0.654135 3:-0.736227 4:0.0225564 
-2 1:0.592654 2:0.949875 3:0.549249 4:-0.493734 
-1.816127693072349 1:-0.602671 2:-0.904762 3:-0.452421 4:-0.14787 
-0.009065271570199779 1:-0.839733 2:0.378446 3:0.846411 4:0.598997 
-2 1:-0.262104 2:0.348371 3:-0.963272 4:-0.62406 
-0.00233985254087655 1:-0.899833 2:0.914787 3:0.772955 4:-0.0676692 
-2 1:0.452421 2:-0.172932 3:-0.262104 4:0.609023 
-0.01753941569080258 1:0.973289 2:-0.478697 3:-0.60601 4:0.719298 
-0.04960455462523226 1:0.983306 2:-1 3:-0.519199 4:0.729323 
-2 1:0.716194 2:0.759398 3:0.923205 4:-0.132832 
-0.03580022419160826 1:-0.943239 2:-0.0977444 3:0.8798 4:0.0526316 
-0.03317700315682155 1:-0.853088 2:0.213033 3:0.782972 4:0.949875 
-1.108861850708005 1:0.355593 2:0.278195 3:-0.352254 4:0.413534 
-2 1:-0.692821 2:0.273183 3:-0.472454 4:0.654135 
-2 1:-0.415693 2:-0.884712 3:-0.322204 4:0.443609 
-0.009312066282263644 1:0.629382 2:-0.408521 3:-0.963272 4:-0.253133 
-0.7585472173118074 1:-0.402337 2:0.839599 3:-0.779633 4:0.0827068 
-2 1:-0.195326 2:0.934837 3:-0.145242 4:-0.122807 
-1.57107116136655 1:0.836394 2:-0.659148 3:0.365609 4:-0.654135 
-0.5995480417806949 1:0.395659 2:-0.804511 3:0.505843 4:0.218045 
-0.0292799161555934 1:0.782972 2:-0.924812 3:-0.729549 4:0.152882 
-1.109147365021862 1:-0.295492 2:0.318296 3:-0.0217028 4:-0.969925 
-0.7554734008976256 1:0.976628 2:0.488722 3:0.933222 4:-0.558897 
-2 1:0.155259 2:0.954887 3:-0.238731 4:-0.308271 
-1.761512690759562 1:-0.495826 2:0.844612 3:-0.672788 4:-0.253133 
-2 1:-0.549249 2:0.52381 3:-0.258765 4:-0.879699 
-2 1:-0.959933 2:-0.854637 3:-0.492487 4:0.58396 
-0.006048297000538118 1:0.9399 2:-0.97995 3:0.101836 4:-0.869674 
-1.55991368291211 1:-0.96995 2:0.989975 3:-0.833055 4:-0.52381 
-1.921780483746034 1:-0.235392 2:0.62406 3:-0.786311 4:-0.303258 
-2 1:-0.345576 2:0.0726817 3:-0.796327 4:0.12782 
-1.463158108545369 1:-0.649416 2:0.93985 3:-0.305509 4:0.303258 
-2 1:0.419032 2:-0.112782 3:0.275459 4:-0.383459 
-2 1:-0.148581 2:0.12782 3:0.358932 4:-0.533835 
-0.0125078492350038 1:-0.475793 2:-0.458647 3:0.949917 4:0.909774 
-0.215685279163354 1:0.342237 2:0.689223 3:0.729549 4:-0.919799 
-0.373628054880045 1:0.195326 2:0.12782 3:0.949917 4:0.588972 
-0.1449776176994967 1:-0.0183639 2:-0.0576441 3:0.415693 4:0.874687 
-0.04111809858415816 1:0.686144 2:-0.954887 3:-0.131886 4:0.974937 
-0.04047967578174443 1:0.833055 2:-0.0125313 3:-0.979967 4:0.318296 
-0.01694259066751606 1:-0.772955 2:-0.0827068 3:0.889816 4:-0.243108 
-0.4531491394743896 1:0.419032 2:0.14787 3:0.27212 4:0.0075188 
-0.3164219390638683 1:0.555927 2:-0.759398 3:-0.0918197 4:-0.719298 
-0.7514726712798641 1:0.572621 2:-0.819549 3:0.305509 4:0.0827068 
-0.03946410277915658 1:-0.792988 2:0.839599 3:0.933222 4:-0.659148 
-0.05609420864388226 1:-0.919866 2:0.949875 3:0.853088 4:0.383459 
-1.353714166936358 1:-0.175292 2:-0.729323 3:-0.9399 4:-0.619048 
-0.01842472364951188 1:-0.552588 2:0.749373 3:0.582638 4:0.9599 
-0.5098064870128021 1:-0.422371 2:0.538847 3:-0.145242 4:-0.894737 
-0.2943640018159597 1:-0.338898 2:0.969925 3:-0.84975 4:0.348371 
-0.04275543708641405 1:0.629382 2:0.954887 3:0.833055 4:0.964912 
-1.478437432860378 1:-0.0250417 2:0.513784 3:-0.198664 4:0.328321 
-2 1:-0.465776 2:-0.14787 3:-0.983306 4:-0.383459 
-2 1:0.989983 2:-0.58396 3:0.732888 4:0.223058 
-0.6300265492029542 1:0.529215 2:0.659148 3:0.816361 4:-0.56391 
-2 1:0.719533 2:-0.508772 3:0.986644 4:-0.122807 
-0.7227093771055219 1:-0.392321 2:-0.293233 3:-0.572621 4:0.60401 
-0.2915817877485316 1:-0.135225 2:-0.533835 3:0.422371 4:0.197995 
-0.2838034645882368 1:-0.27212 2:-0.102757 3:0.188648 4:0.614035 
-0.03215030646820908 1:0.926544 2:0.478697 3:-0.853088 4:0.037594 
-0.9016343057567359 1:0.12187 2:-0.538847 3:0.0283806 4:-0.493734 
-0.7579564161928205 1:-0.459098 2:0.929825 3:-0.562604 4:0.468672 
-1.90977917466985 1:-0.612688 2:-0.298246 3:-0.475793 4:-0.12782 
-2 1:0.232053 2:0.137845 3:0.118531 4:0.54386 
-0.01757730200580218 1:0.806344 2:-0.573935 3:-0.776294 4:0.884712 
-0.02804833829970196 1:0.959933 2:-0.353383 3:-0.916528 4:0.0275689 
-0.02011493431397682 1:-0.629382 2:0.864662 3:0.84975 4:0.924812 
-1.798227076631226 1:0.105175 2:-0.568922 3:0.158598 4:-0.318296 
-2 1:-0.652755 2:0.789474 3:-0.439065 4:0.674185 
-0.1044149199985793 1:-0.345576 2:-0.548872 3:-0.869783 4:0.969925 
-1.923233517066496 1:0.0951586 2:-0.553885 3:-0.0584307 4:0.844612 
-2 1:0.412354 2:-0.679198 3:0.328881 4:-0.614035 
-0.04949442999676267 1:-0.919866 2:-0.969925 3:0.896494 4:0.839599 
-0.06467608258915161 1:0.412354 2:-0.293233 3:0.813022 4:-0.934837 
-1.600640750423339 1:-0.322204 2:0.463659 3:0.312187 4:-0.909774 
-1.606048579354978 1:0.328881 2:-0.989975 3:-0.00500835 4:0.203008 
-0.8849123868343304 1:-0.736227 2:0.97995 3:-0.63606 4:0.724311 
-0.04263755244585729 1:0.358932 2:0.834586 3:-0.896494 4:0.919799 
-0.1259773595154725 1:0.442404 2:-0.754386 3:0.155259 4:-0.984962 
-0.9364915601488386 1:-0.171953 2:-0.303258 3:0.218698 4:0.854637 
-1.234895302601089 1:-0.338898 2:-0.794486 3:-0.12187 4:-0.488722 
-0.5895879330563267 1:0.335559 2:0.373434 3:-0.195326 4:-0.0977444 
-1.299858924205419 1:0.215359 2:0.869674 3:-0.0417362 4:0.518797 
-0.03528381708994062 1:-0.706177 2:0.388471 3:0.993322 4:0.203008 
-2 1:-0.015025 2:-0.00250627 3:0.131886 4:-0.293233 
-0.04646792814327843 1:0.993322 2:0.984962 3:-0.435726 4:0.704261 
-0.1181877913791473 1:0.419032 2:-0.518797 3:0.148581 4:0.62406 
-0.07455349266789707 1:-0.535893 2:-0.52381 3:-0.081803 4:0.338346 
-0.4721624555713578 1:-0.282137 2:0.0877193 3:0.0717863 4:-0.679198 
-0.08157710525700479 1:-0.959933 2:-0.704261 3:-0.188648 4:-0.418546 
-1.622032069466693 1:0.398998 2:0.157895 3:0.866444 4:-0.0325815 
-0.130875931459171 1:0.555927 2:0.0576441 3:-0.15192 4:0.874687 
-0.001064175030839453 1:-0.766277 2:0.974937 3:0.716194 4:0.724311 
-0.4161425507232099 1:0.829716 2:-0.914787 3:0.846411 4:0.323308 
-0.4206163571261903 1:0.158598 2:-0.794486 3:0.452421 4:0.949875 
-0.5251966123426449 1:-0.0617696 2:-0.854637 3:0.419032 4:-0.894737 
-0.2255202960460234 1:-0.282137 2:0.919799 3:0.198664 4:-0.97995 
-1.389802177409626 1:0.305509 2:0.303258 3:0.589316 4:-0.438596 
-1.518701512879479 1:0.51586 2:-0.598997 3:0.298831 4:-0.62406 
-0.5765170002994163 1:0.0851419 2:-0.0426065 3:0.352254 4:0.313283 
-2 1:-0.792988 2:0.157895 3:-0.422371 4:-0.288221 
-1.033626884911808 1:0.876461 2:0.573935 3:0.60601 4:-0.16792 
-0.09597032198406648 1:-0.345576 2:-0.142857 3:-0.232053 4:-0.684211 
-0.6199202561450765 1:-0.322204 2:0.0275689 3:0.135225 4:0.438596 
-0.2401978716229668 1:-0.983306 2:0.834586 3:-0.492487 4:-0.328321 
-0.006998280910691174 1:-0.51586 2:0.318296 3:0.946578 4:0.498747 
-1.138465299518969 1:-0.445743 2:-0.258145 3:-0.806344 4:0.453634 
-1.44039774397912 1:0.803005 2:-0.107769 3:0.956594 4:0.964912 
-0.2405481847498118 1:-0.876461 2:0.233083 3:-0.342237 4:-0.122807 
-0.01190550249238107 1:0.0350584 2:0.0526316 3:0.806344 4:0.919799 
-2 1:-0.525876 2:0.66416 3:-0.9399 4:-0.699248 
-2 1:-0.295492 2:-0.719298 3:0.198664 4:-0.919799 
-0.007530053343481181 1:0.445743 2:0.974937 3:-0.525876 4:-0.568922 
-0.01510366696025801 1:0.959933 2:-0.0426065 3:-0.699499 4:0.263158 
-0.05149053217721615 1:-0.616027 2:-0.132832 3:0.996661 4:0.343358 
-0.05632421533485274 1:0.96995 2:0.192982 3:-0.90985 4:-0.714286 
-2 1:0.165275 2:-0.809524 3:0.465776 4:-0.00250627 
-1.400996027399354 1:0.702838 2:0.734336 3:0.282137 4:-0.814536 
-0.05812701053038897 1:-0.255426 2:0.197995 3:-0.54591 4:0.774436 
-0.005852734790199361 1:-0.963272 2:-0.358396 3:0.48581 4:-0.00250627 
-2 1:0.161937 2:0.699248 3:-0.252087 4:-0.18797 
-0.04160273667266171 1:-0.979967 2:-0.453634 3:0.846411 4:0.363409 
-1.92401079672445 1:-0.342237 2:-0.929825 3:0.0984975 4:0.659148 
-1.937766741103745 1:-0.512521 2:0.774436 3:-0.949917 4:0.508772 
-0.04534671900573694 1:-0.946578 2:0.508772 3:0.646077 4:0.929825 
-2 1:0.282137 2:0.754386 3:-0.0918197 4:-0.754386 
-0.663988671713318 1:-0.906511 2:0.779449 3:-0.155259 4:0.112782 
-0.003110211108522254 1:-0.459098 2:-0.869674 3:0.9399 4:0.593985 
-0.1197397084997306 1:-0.305509 2:0.724311 3:-0.0918197 4:0.869674 
-0.002378035527692077 1:-0.809683 2:0.533835 3:0.859766 4:0.478697 
-1.733701412185426 1:-0.749583 2:0.984962 3:-0.492487 4:-0.132832 
-0.02358087740592947 1:-0.956594 2:-0.478697 3:0.829716 4:-0.674185 
-1.329140955579528 1:0.315526 2:-0.0877193 3:0.946578 4:0.112782 
-0.4602590642818384 1:-0.933222 2:0.528822 3:-0.0250417 4:0.378446 
-0.2076262486868584 1:0.512521 2:-0.969925 3:-0.405676 4:-0.974937 
-2 1:0.125209 2:-0.62406 3:0.0217028 4:0.353383 
-2 1:0.943239 2:-0.609023 3:0.936561 4:0.93985 
-1.242621966662455 1:0.275459 2:-0.283208 3:-0.0951586 4:0.964912 
-2 1:0.0350584 2:-0.909774 3:0.21202 4:-0.423559 
-0.485059520335436 1:0.505843 2:0.809524 3:-0.081803 4:0.122807 
-1.812023386564974 1:-0.609349 2:-0.849624 3:-0.819699 4:0.949875 
-0.07208673668426591 1:0.966611 2:-0.16792 3:-0.989983 4:-0.994987 
-0.4838362052412035 1:0.585977 2:-0.308271 3:-0.0617696 4:0.393484 
-0.5390429965837495 1:0.976628 2:-0.699248 3:0.525876 4:0.388471 
-0.4113409353187462 1:0.519199 2:-0.00250627 3:0.148581 4:-0.629073 
-0.07033399355410512 1:-0.30217 2:0.904762 3:0.973289 4:-0.989975 
-0.001935885904279758 1:-0.562604 2:-0.548872 3:0.96995 4:-0.448622 
-0.07501757049921753 1:-0.388982 2:0.498747 3:-0.475793 4:0.944862 
-2 1:-0.255426 2:0.0426065 3:-0.00500835 4:0.929825 
-0.6043340876019334 1:0.348915 2:0.448622 3:-0.0751252 4:0.9599 
-0.0005093309246690724 1:0.111853 2:0.849624 3:0.916528 4:0.749373 
-0.1345930448796431 1:-0.108514 2:-0.874687 3:0.505843 4:0.709273 
-0.9019587519426986 1:0.0283806 2:-0.338346 3:0.395659 4:-0.22807 
-0.05986385209298031 1:0.919866 2:0.974937 3:-0.953255 4:0.12782 
-0.8011400007414146 1:0.63606 2:-0.0977444 3:0.803005 4:0.794486 
-0.05271091270213105 1:-0.989983 2:-0.789474 3:0.629382 4:0.984962 
-1.651229963935767 1:0.656093 2:0.343358 3:0.796327 4:0.378446 
-0.3134176642488642 1:0.318865 2:-0.428571 3:0.979967 4:0.328321 
-0.1181671369892064 1:0.679466 2:-0.0526316 3:0.442404 4:0.293233 
-1.064356634334613 1:0.355593 2:-0.122807 3:-0.325543 4:-0.528822 
-2 1:-0.118531 2:-0.303258 3:-0.278798 4:-0.278195 
-0.8487711832861689 1:0.0684474 2:0.974937 3:0.0951586 4:0.924812 
-0.1490691137451434 1:0.0383973 2:0.00250627 3:-0.292154 4:-1 
-0.05166283993197159 1:0.993322 2:0.789474 3:-0.589316 4:-0.969925 
-2 1:-0.956594 2:0.964912 3:-0.692821 4:0.223058 
-1.544761481323871 1:-0.312187 2:-0.553885 3:-0.656093 4:0.182957 
-0.03920464705599868 1:0.275459 2:-0.894737 3:0.629382 4:0.634085 
-0.03604818327549088 1:-0.809683 2:0.468672 3:0.936561 4:-0.157895 
-2 1:0.101836 2:0.538847 3:0.15192 4:-0.22807 
-0.03984483460104184 1:0.676127 2:0.24812 3:-0.956594 4:-0.328321 
-0.6251526301960016 1:0.796327 2:0.874687 3:0.63606 4:0.112782 
-1.260121693333983 1:0.18197 2:0.989975 3:0.27212 4:0.924812 
-0.0360786655615825 1:-0.522538 2:-0.378446 3:0.933222 4:-0.313283 
-0.669477534666122 1:-0.131886 2:-0.629073 3:-0.278798 4:-0.548872 
-0.01132895642986129 1:0.519199 2:-0.283208 3:-0.986644 4:0.0275689 
-0.6522372754980196 1:-0.00834725 2:0.674185 3:-0.412354 4:-0.684211 
-0.0129557223074548 1:-0.923205 2:0.513784 3:0.595993 4:-0.358396 
-0.2720631528165637 1:-0.312187 2:-0.969925 3:-0.322204 4:0.934837 
-1.262433973013513 1:-0.582638 2:-0.373434 3:-0.479132 4:-0.418546 
-2 1:-0.505843 2:-0.343358 3:-0.976628 4:0.66416 
-1.57148724946761 1:0.27212 2:-0.288221 3:0.475793 4:-0.634085 
-0.05983554909231576 1:-0.392321 2:-0.403509 3:0.33222 4:0.152882 
-2 1:-0.609349 2:-0.654135 3:-0.405676 4:0.709273 
-0.4937075534093428 1:-0.00166945 2:0.779449 3:-0.398998 4:-0.538847 
-0.1840211478088624 1:-0.445743 2:0.483709 3:0.00834725 4:0.353383 
-1.14347552365358 1:0.459098 2:0.303258 3:0.318865 4:-0.24812 
-1.409299805504499 1:-0.131886 2:-0.418546 3:-0.365609 4:-0.398496 
-2 1:-0.843072 2:-0.278195 3:-0.409015 4:0.769424 
-1.449305142340795 1:-0.198664 2:-0.588972 3:0.409015 4:0.358396 
-1.055464132696036 1:0.472454 2:-0.117794 3:-0.161937 4:-0.924812 
-0.0659143853897485 1:0.255426 2:-0.588972 3:-0.298831 4:-1 
-2 1:-0.105175 2:0.313283 3:-0.145242 4:0.288221 
-2 1:0.0116861 2:-0.994987 3:-0.015025 4:0.674185 
-2 1:-0.445743 2:0.328321 3:-0.512521 4:-0.203008 
-1.427576506227144 1:-0.929883 2:0.929825 3:-0.799666 4:0.62406 
-0.5312517586268504 1:0.225376 2:0.654135 3:0.0784641 4:-0.258145 
-2 1:0.806344 2:0.298246 3:0.823038 4:0.16792 
-0.02345856275618179 1:0.8798 2:-0.588972 3:-0.806344 4:-0.513784 
-0.6305684664678635 1:-0.402337 2:-0.784461 3:0.0617696 4:0.117794 
-0.7146771993662733 1:-0.328881 2:0.824561 3:-0.0217028 4:-0.438596 
-0.1343484552155776 1:0.27212 2:0.944862 3:0.979967 4:0.0275689 
-0.3141368228174918 1:-0.125209 2:0.243108 3:-0.873122 4:-0.443609 
-0.3811829344178148 1:0.305509 2:-0.739348 3:0.235392 4:-0.458647 
-0.3467703617568988 1:0.365609 2:-0.609023 3:0.856427 4:-0.744361 
-0.02991526439591208 1:0.465776 2:-0.553885 3:-0.903172 4:0.974937 
-2 1:0.275459 2:-0.16792 3:0.0918197 4:-0.233083 
-0.7359167260180313 1:-0.178631 2:0.97995 3:0.599332 4:-0.162907 
-2 1:0.529215 2:0.328321 3:0.622705 4:-0.859649 
-0.7293423668351597 1:0.686144 2:-0.804511 3:0.716194 4:0.874687 
-0.06195946445431141 1:0.482471 2:1 3:-0.262104 4:-0.9599 
-0.5398733866038743 1:0.492487 2:0.864662 3:0.205342 4:0.443609 
-0.7333109298610255 1:-0.388982 2:-0.729323 3:-0.0684474 4:0.12782 
-2 1:-0.118531 2:-0.348371 3:0.191987 4:-0.368421 
-0.1842841131465633 1:-1 2:-0.157895 3:-0.125209 4:-0.764411 
-0.01905292345446691 1:-1 2:-0.233083 3:0.459098 4:-0.468672 
-1.148077108954494 1:0.54591 2:-0.213033 3:0.322204 4:0.102757 
-2 1:-0.749583 2:0.954887 3:-0.449082 4:-0.894737 
-0.03738857902555552 1:-0.886477 2:-0.769424 3:0.979967 4:-0.834586 
-0.7295267297926915 1:-0.676127 2:0.192982 3:-0.195326 4:-0.949875 
-0.04166860601114078 1:-0.48581 2:0.233083 3:0.993322 4:-0.58396 
-0.9375234503786339 1:0.746244 2:-0.789474 3:0.796327 4:0.804511 
-2 1:-0.479132 2:0.0526316 3:-0.472454 4:-0.97995 
-1.09435965769453 1:-0.0217028 2:0.964912 3:0.188648 4:-0.954887 
-0.1084398180500043 1:-0.953255 2:-0.694236 3:-0.0317195 4:0.373434 
-2 1:0.355593 2:0.368421 3:-0.131886 4:-0.117794 
-0.03009106891452593 1:-0.268781 2:-0.00250627 3:0.419032 4:-0.443609 
-2 1:-0.215359 2:0.293233 3:-0.0116861 4:-0.308271 
-2 1:-0.0383973 2:0.598997 3:0.0317195 4:-0.518797 
-1.130631135167952 1:0.856427 2:0.313283 3:0.826377 4:-0.734336 
-0.004914219165982897 1:0.843072 2:-0.919799 3:-0.823038 4:0.493734 
-0.612525197680085 1:-0.33222 2:-0.278195 3:0.392321 4:0.93985 
-0.01445342161179163 1:0.926544 2:0.784461 3:-0.602671 4:0.493734 
-0.01969378186846042 1:-0.913189 2:-0.478697 3:0.612688 4:0.513784 
-2 1:0.833055 2:0.799499 3:0.639399 4:-0.162907 
-1.094559955635662 1:0.0550918 2:0.0325815 3:-0.36227 4:0.799499 
-2 1:0.762938 2:-0.729323 3:0.989983 4:0.137845 
-0.2251823613738265 1:-0.198664 2:0.58396 3:-0.398998 4:-0.16792 
-2 1:-0.716194 2:-0.157895 3:-0.33222 4:-0.64411 
-2 1:-0.355593 2:0.779449 3:-0.18197 4:-0.558897 
-1.105655747909185 1:0.549249 2:-0.66416 3:0.449082 4:0.303258 
-0.02929666389595605 1:-1 2:-0.789474 3:0.722871 4:-0.0125313 
-2 1:0.432387 2:-0.0175439 3:0.21202 4:0.0827068 
-0.8329515146879051 1:0.382304 2:0.22807 3:-0.335559 4:-0.809524 
-0.5074423025739014 1:-0.378965 2:-0.192982 3:-0.709516 4:0.14787 
-0.03925111467044751 1:0.779633 2:0.944862 3:-0.923205 4:-0.313283 
-0.01927148361341405 1:0.569282 2:0.794486 3:-0.936561 4:-0.749373 
-0.05606996554101903 1:0.853088 2:0.97995 3:-0.178631 4:-0.729323 
-0.5434391490394997 1:0.245409 2:-0.634085 3:-0.33222 4:-0.699248 
-0.00331028588194794 1:0.21202 2:0.634085 3:-0.963272 4:0.964912 
-0.1071450541604349 1:0.57596 2:-0.994987 3:0.619366 4:0.553885 
-0.410459471377274 1:-0.482471 2:0.994987 3:-0.682805 4:-0.774436 
-0.0533996146615856 1:0.18197 2:0.568922 3:0.432387 4:0.984962 
-1.635691778856593 1:-0.322204 2:0.58396 3:-0.268781 4:-0.137845 
-0.92159518305933 1:-0.45576 2:-0.368421 3:-0.295492 4:0.568922 
-0.01585188101380645 1:-0.385643 2:0.12782 3:0.986644 4:0.834586 
-0.3406414602505386 1:-0.395659 2:0.037594 3:0.178631 4:0.157895 
-1.375988359367623 1:0.048414 2:-0.774436 3:-0.195326 4:-0.994987 
-0.00582299346650589 1:0.869783 2:0.368421 3:-0.856427 4:-0.0526316 
-0.0748347890292777 1:-0.228715 2:-0.834586 3:-0.789649 4:0.513784 
-2 1:0.215359 2:-0.453634 3:-0.00834725 4:-0.859649 
-1.094900204583666 1:-0.749583 2:-0.719298 3:-0.161937 4:0.598997 
-1.276041140493156 1:0.779633 2:-0.62406 3:0.719533 4:0.884712 
-1.622063827735739 1:-0.893155 2:0.18797 3:-0.215359 4:-0.779449 
-0.02356318960639609 1:0.652755 2:0.794486 3:-0.853088 4:0.839599 
-0.3605584733821705 1:-0.382304 2:0.273183 3:0.358932 4:-0.518797 
-2 1:-0.746244 2:0.659148 3:-0.262104 4:-0.598997 
-0.03806588435358085 1:-0.90985 2:-0.112782 3:0.883139 4:0.879699 
-2 1:0.0417362 2:0.102757 3:0.081803 4:-0.513784 
-0.9169269144647541 1:0.168614 2:-0.879699 3:0.255426 4:-0.97995 
-0.8931500177103242 1:0.512521 2:0.16792 3:0.138564 4:-0.478697 
-0.8070226707876607 1:0.325543 2:0.844612 3:0.529215 4:-0.0075188 
-0.4289666336996061 1:-0.248748 2:0.989975 3:-0.165275 4:0.909774 
-2 1:-0.522538 2:-0.854637 3:-0.525876 4:-0.182957 
-0.2672210638828026 1:-0.682805 2:-0.343358 3:-0.422371 4:-0.107769 
-0.03493496879796337 1:0.115192 2:0.784461 3:0.949917 4:0.929825 
-0.4679737317615829 1:-0.282137 2:-0.047619 3:-0.569282 4:0.994987 
-0.04516718039134044 1:-0.956594 2:0.172932 3:0.679466 4:0.308271 
-1.646492318312298 1:-0.325543 2:0.463659 3:-0.592654 4:-0.0325815 
-0.0159713757776681 1:0.442404 2:0.969925 3:0.00834725 4:-0.97995 
-1.156109365293587 1:0.833055 2:0.20802 3:0.809683 4:-0.989975 
-0.6294795855998175 1:0.338898 2:0.388471 3:0.335559 4:0.0075188 
-2 1:0.976628 2:-0.679198 3:0.993322 4:-0.453634 
-0.05424882703093796 1:-0.993322 2:-0.478697 3:0.993322 4:0.894737 
-0.2169759307937723 1:-0.372287 2:-0.66416 3:-0.0951586 4:0.568922 
-2 1:-1 2:-0.107769 3:-0.692821 4:-0.117794 
-0.6829672499442362 1:0.365609 2:0.463659 3:0.048414 4:0.218045 
-2 1:0.105175 2:-0.989975 3:0.178631 4:-0.12782 
-1.264334515547553 1:0.325543 2:0.383459 3:-0.308848 4:0.649123 
-0.03173455252722891 1:-0.398998 2:-0.493734 3:0.983306 4:-0.789474 
-0.048287419437939 1:-0.889816 2:0.974937 3:0.54591 4:0.60401 
-1.859284890733305 1:-0.0684474 2:0.298246 3:0.502504 4:-0.0426065 
-0.18911757003133 1:-0.0751252 2:-0.9599 3:0.535893 4:-0.26817 
-2 1:-0.268781 2:-0.433584 3:0.285476 4:0.112782 
-0.3838934998519697 1:0.762938 2:0.598997 3:0.472454 4:-0.784461 
-2 1:0.0784641 2:0.403509 3:0.308848 4:0.233083 
-0.7883953203443607 1:-0.555927 2:0.263158 3:-0.429048 4:0.809524 
-0.03216075415247188 1:-0.0250417 2:0.0175439 3:0.562604 4:0.739348 
-2 1:0.118531 2:0.0175439 3:0.509182 4:-0.283208 
-2 1:-0.833055 2:0.854637 3:-0.33222 4:-0.684211 
-0.07608508344833989 1:-0.933222 2:0.328321 3:-0.716194 4:-0.97995 
-0.02193916122599601 1:0.739566 2:-0.588972 3:-0.936561 4:-0.97995 
-1.293564289203469 1:0.191987 2:-0.0626566 3:0.188648 4:0.819549 
-0.01297771438625881 1:0.813022 2:-0.12782 3:-0.846411 4:-0.303258 
-2 1:0.185309 2:0.363409 3:0.155259 4:-0.393484 
-0.1303727376137832 1:-0.823038 2:0.413534 3:-0.402337 4:0.964912 
-1.466688046346674 1:0.111853 2:0.749373 3:0.335559 4:-0.223058 
-0.03829447250892208 1:0.986644 2:0.724311 3:-0.482471 4:0.924812 
-0.0005264483210033977 1:0.642738 2:0.634085 3:-0.953255 4:0.598997 
-0.01857192793179019 1:-0.843072 2:-0.679198 3:0.946578 4:-0.243108 
-0.003411099709868986 1:-0.442404 2:-0.14787 3:0.846411 4:0.889724 
-0.5738335808778673 1:-0.786311 2:0.629073 3:-0.993322 4:0.97995 
-0.036237255224937 1:-0.979967 2:-0.243108 3:0.325543 4:0.914787 
-2 1:0.262104 2:0.989975 3:0.0350584 4:0.0075188 
-0.2043518296359411 1:-0.348915 2:0.343358 3:0.435726 4:-0.0827068 
-0.2146824515723647 1:-0.188648 2:0.473684 3:-0.592654 4:0.639098 
-0.4264176428741958 1:0.198664 2:0.503759 3:0.0651085 4:0.924812 
-2 1:0.686144 2:0.16792 3:0.542571 4:-0.919799 
-0.03691364657221684 1:0.559265 2:-0.428571 3:-1 4:0.117794 
-0.04180958856009268 1:0.555927 2:0.859649 3:-0.973289 4:0.182957 
-0.0285318954330689 1:0.619366 2:-0.949875 3:-0.933222 4:0.669173 
-0.6932301598482915 1:0.338898 2:-0.804511 3:0.352254 4:0.619048 
-2 1:0.305509 2:-0.954887 3:-0.308848 4:-0.804511 
-2 1:-0.295492 2:-0.964912 3:-0.786311 4:-0.0426065 
-0.6409776474939928 1:0.762938 2:-0.528822 3:1 4:0.338346 
-1.640948990217335 1:0.69616 2:0.288221 3:0.709516 4:-0.0927318 
-2 1:0.282137 2:0.12782 3:0.125209 4:0.52381 
-0.7093898198635005 1:-0.232053 2:-0.609023 3:-0.75626 4:-0.944862 
-0.04311510741293714 1:-0.722871 2:-0.889724 3:0.973289 4:0.448622 
-1.491660321561709 1:-0.415693 2:0.388471 3:-0.459098 4:0.66416 
-0.2205115323134567 1:0.60601 2:0.934837 3:-0.335559 4:-0.283208 
-2 1:-0.963272 2:-0.974937 3:-0.766277 4:0.263158 
-2 1:0.375626 2:-0.493734 3:0.439065 4:0.0827068 
-0.03080775147300611 1:0.532554 2:-0.463659 3:-0.983306 4:0.684211 
-2 1:0.101836 2:-0.669173 3:0.21202 4:-0.759398 
-0.1628466899991569 1:-0.499165 2:0.989975 3:-0.161937 4:-0.924812 
-2 1:-0.388982 2:0.864662 3:-0.342237 4:-0.614035 
-1.086277968779595 1:0.00166945 2:-0.363409 3:0.135225 4:0.764411 
-2 1:0.512521 2:-0.0125313 3:-0.0116861 4:0.598997 
-2 1:0.813022 2:-0.478697 3:0.772955 4:0.137845 
-2 1:-0.0417362 2:-0.328321 3:0.318865 4:0.243108 
-1.086046801069138 1:0.669449 2:-0.0726817 3:0.318865 4:-0.809524 
-0.5517609704584509 1:-0.489149 2:-0.192982 3:-0.789649 4:-0.704261 
-0.155639136332275 1:-0.165275 2:0.58396 3:0.378965 4:0.273183 
-0.002250413873678558 1:-0.742905 2:-0.784461 3:0.926544 4:0.864662 
