svm_type c_svc
kernel_type rbf
gamma 8
nr_class 2
total_sv 1252
rho -0.525524
label 1 2
nr_sv 656 596
SV
32 1:-0.238261 2:-0.296588 3:-0.0278746 4:-0.906005 
26.91983909864571 1:-0.453913 2:-0.307087 3:-0.752613 4:-0.35248 
4.158462348563373 1:0.933913 2:0.475066 3:0.637631 4:0.921671 
32 1:-0.892174 2:0.753281 3:-0.644599 4:0.947781 
3.225189458064503 1:-0.44 2:0.00787402 3:-0.43554 4:-0.394256 
32 1:-0.130435 2:-0.0813648 3:-0.494774 4:-0.394256 
28.09785045115187 1:-0.14087 2:-0.375328 3:-0.135889 4:-0.550914 
11.41107429369385 1:-0.530435 2:0.92126 3:-0.452962 4:0.347258 
2.802295366900687 1:0.864348 2:0.884514 3:0.501742 4:0.535248 
28.08239587255225 1:0.053913 2:0.385827 3:0.010453 4:0.498695 
0.1766922208177806 1:0.565217 2:-0.0393701 3:0.212544 4:-0.519582 
2.723044163503033 1:-0.575652 2:0.51706 3:-0.466899 4:0.425587 
16.08686362552104 1:-0.488696 2:0.868766 3:-0.637631 4:0.472585 
32 1:0.558261 2:-0.590551 3:0.348432 4:-0.697128 
29.83737200541809 1:-0.0365217 2:-0.858268 3:-0.797909 4:-0.979112 
1.038137581145786 1:-0.154783 2:-0.380577 3:-0.0557491 4:-0.190601 
5.070071689130165 1:-0.829565 2:-0.685039 3:-1 4:-0.67624 
32 1:-0.513043 2:0.910761 3:-0.585366 4:0.164491 
6.569150218934512 1:0.366957 2:-0.254593 3:0.236934 4:-0.97389 
12.47703177115866 1:0.495652 2:-0.511811 3:0.149826 4:-0.738903 
32 1:-0.773913 2:-0.711286 3:-0.0801394 4:-0.83812 
8.483079903943308 1:-0.38087 2:0.0341207 3:-0.770035 4:-0.326371 
3.856689849833497 1:0.332174 2:-0.448819 3:0.222997 4:-0.451697 
17.82646132556972 1:-0.68 2:-0.0603675 3:-0.146341 4:-0.655352 
32 1:-0.492174 2:-0.375328 3:-0.0209059 4:-0.906005 
32 1:-0.488696 2:-0.490814 3:-0.0836237 4:-0.592689 
32 1:-0.791304 2:-0.0918635 3:-0.937282 4:-0.577023 
4.161147207491883 1:-0.624348 2:-0.67979 3:-0.240418 4:-0.331593 
32 1:0.547826 2:-0.60105 3:0.578397 4:-0.24282 
27.30486785515664 1:-0.492174 2:-0.564304 3:-0.787456 4:-0.963446 
32 1:-0.76 2:-0.412073 3:-0.759582 4:-0.681462 
8.45631377241426 1:-0.429565 2:0.595801 3:-0.536585 4:0.665796 
23.22043898815309 1:0.113043 2:-0.0761155 3:0.376307 4:-0.775457 
32 1:-0.52 2:-0.490814 3:-0.69338 4:-0.310705 
26.90905504592292 1:-0.0226087 2:-0.805774 3:-0.627178 4:-0.644909 
1.843599928534813 1:-0.993043 2:-0.674541 3:-0.0696864 4:-0.00261097 
6.555467090737189 1:-0.443478 2:0.590551 3:-0.491289 4:0.874674 
19.7724013147696 1:0.485217 2:0.52231 3:0.836237 4:0.148825 
32 1:-0.286957 2:-0.391076 3:-0.271777 4:-0.253264 
19.52185932856605 1:0.276522 2:-0.0656168 3:0.365854 4:-0.409922 
3.244109966208848 1:0.464348 2:-0.685039 3:0.254355 4:-0.947781 
11.18400798628877 1:-0.172174 2:-0.259843 3:-0.320557 4:-0.399478 
18.10238133295839 1:-0.707826 2:-0.259843 3:-0.808362 4:-0.0182768 
22.8811118188122 1:0.41913 2:-0.343832 3:0.15331 4:-0.571802 
5.039369138855867 1:0.182609 2:-0.75853 3:0.571429 4:-0.926893 
32 1:-0.412174 2:-0.259843 3:-0.783972 4:-0.70235 
24.04674521402998 1:-0.766957 2:-0.144357 3:-0.780488 4:-0.718016 
28.22484844461592 1:-0.544348 2:-0.648294 3:-0.599303 4:-0.577023 
32 1:0.398261 2:-0.595801 3:0.574913 4:-0.0339426 
11.90294081361698 1:-0.947826 2:-0.690289 3:-0.0174216 4:-0.81201 
32 1:0.613913 2:-0.826772 3:0.341463 4:-0.665796 
3.519440791431905 1:-0.516522 2:0.454068 3:-0.878049 4:0.759791 
32 1:0.391304 2:-0.732283 3:0.574913 4:-0.0548303 
26.11232754577532 1:-0.0504348 2:-0.889764 3:-0.714286 4:0.0339426 
17.0141593114092 1:0.523478 2:0.469816 3:0.787456 4:0.942559 
18.00853650163168 1:-0.666087 2:-0.800525 3:-0.724739 4:-0.681462 
30.18356360707876 1:0.624348 2:0.270341 3:0.738676 4:0.937337 
7.31602835434276 1:0.123478 2:0.816273 3:0.0383275 4:0.326371 
29.97203632602992 1:-0.457391 2:-1 3:-0.0557491 4:-0.697128 
32 1:0.255652 2:-0.826772 3:0.567944 4:-0.869452 
0.3584115176193629 1:-0.544348 2:-0.454068 3:-0.891986 4:-0.911227 
32 1:0.624348 2:0.249344 3:0.864111 4:0.436031 
32 1:-0.165217 2:-0.51706 3:-0.487805 4:-0.305483 
5.520221903952371 1:0.478261 2:0.0288714 3:0.554007 4:-0.154047 
0.3687508547284158 1:0.474783 2:-0.559055 3:0.327526 4:-0.4047 
6.258500988230949 1:-0.798261 2:0.496063 3:-0.449477 4:0.472585 
20.21263672640026 1:-0.273043 2:-0.0971129 3:-0.84669 4:-0.394256 
32 1:0.269565 2:-0.748031 3:0.536585 4:-0.467363 
18.27738655860071 1:0.252174 2:-0.459318 3:0.15331 4:-0.953003 
12.77276455436899 1:-0.853913 2:-0.700787 3:-0.310105 4:-0.895561 
8.799553241252719 1:0.909565 2:0.816273 3:0.658537 4:0.503916 
32 1:-0.794783 2:-0.375328 3:-0.0452962 4:-0.0130548 
0.1277167897585937 1:-0.231304 2:-0.35958 3:-0.470383 4:0.0287206 
4.245434715115348 1:-0.742609 2:0.19685 3:-0.449477 4:0.347258 
32 1:-0.638261 2:-0.0603675 3:-0.470383 4:-0.545692 
0.4282018653588 1:-0.0330435 2:-0.433071 3:-0.125436 4:-0.0652742 
14.42432969787986 1:0.881739 2:0.490814 3:0.902439 4:0.686684 
32 1:-0.812174 2:-0.270341 3:-0.324042 4:-0.373368 
2.336098155592486 1:-0.97913 2:-0.459318 3:-0.937282 4:-0.984334 
7.346046445065617 1:-0.471304 2:0.616798 3:-0.662021 4:0.577023 
32 1:-0.248696 2:-0.863517 3:-0.703833 4:-0.67624 
32 1:0.41913 2:-0.480315 3:0.571429 4:-0.577023 
32 1:-0.44 2:-0.580052 3:-0.54007 4:-0.822454 
32 1:-0.68 2:-0.28084 3:-0.937282 4:-0.67624 
0.5990274529477004 1:-0.906087 2:0.259843 3:-0.958188 4:0.618799 
15.37893587812081 1:-0.923478 2:-0.695538 3:-0.519164 4:-0.263708 
32 1:-0.572174 2:0.669291 3:-0.473868 4:0.613577 
32 1:-0.325217 2:-0.805774 3:-0.477352 4:-0.430809 
10.71059819622373 1:0.158261 2:-0.19685 3:0.686411 4:-0.947781 
32 1:-0.443478 2:-0.931759 3:-0.473868 4:-0.556136 
3.303558670527603 1:-0.12 2:-0.989501 3:-0.898955 4:-0.796345 
29.08162499449572 1:-0.753043 2:0.175853 3:-0.529617 4:0.749347 
32 1:-0.62087 2:-0.784777 3:-0.655052 4:-0.613577 
32 1:-0.547826 2:-0.296588 3:-0.442509 4:-0.634465 
32 1:0.00869565 2:0.574803 3:-0.0487805 4:0.754569 
13.13702955490718 1:0.54087 2:-0.175853 3:0.491289 4:-0.608355 
32 1:-0.0747826 2:-0.779528 3:-0.341463 4:-0.331593 
22.40938079560747 1:-0.808696 2:-0.401575 3:-0.508711 4:-0.0234987 
10.68385703843692 1:0.273043 2:-0.863517 3:0.54007 4:-0.644909 
32 1:-0.57913 2:-0.349081 3:-0.254355 4:-0.362924 
23.1015235718254 1:-0.0156522 2:-0.637795 3:-0.787456 4:-0.0913838 
32 1:0.453913 2:-0.238845 3:0.557491 4:-0.159269 
29.33787269584875 1:-0.370435 2:-0.989501 3:0.0278746 4:-0.963446 
0.8503368713982099 1:-0.106087 2:-0.616798 3:-0.0522648 4:0.0339426 
11.98905306110824 1:-0.846957 2:0.590551 3:-0.853659 4:0.535248 
10.75917737612108 1:0.283478 2:0.0183727 3:0.609756 4:-0.958225 
19.77335922549035 1:-0.0678261 2:-0.690289 3:-0.874564 4:-0.817232 
2.196657245666009 1:0.586087 2:-0.895013 3:0.1777 4:-0.879896 
2.26707651909911 1:-0.353043 2:-0.00787402 3:-0.0278746 4:-0.665796 
32 1:0.565217 2:-0.160105 3:0.348432 4:-0.900783 
32 1:0.297391 2:-0.259843 3:0.425087 4:-0.843342 
14.34307068991318 1:0.523478 2:0.711286 3:0.550523 4:0.248042 
22.80949292557648 1:-0.0713043 2:-0.417323 3:-0.777003 4:-0.0182768 
32 1:-0.467826 2:-0.569554 3:-0.627178 4:-0.305483 
22.80525343378408 1:-0.307826 2:-0.753281 3:-0.61324 4:-0.180157 
32 1:-0.457391 2:-0.632546 3:-0.0209059 4:-0.420366 
32 1:0.241739 2:-0.716535 3:0.602787 4:-0.164491 
32 1:-0.453913 2:-0.721785 3:-0.87108 4:-0.436031 
17.19162221607029 1:-0.513043 2:-0.0813648 3:-0.655052 4:-0.603133 
20.42579306751267 1:-0.613913 2:-0.627297 3:-0.689895 4:-0.859008 
18.65185437894563 1:-0.04 2:0.795276 3:0.0836237 4:0.556136 
32 1:0.46087 2:-0.469816 3:0.787456 4:-0.21671 
29.83716415756114 1:-0.526957 2:-0.485564 3:0.00696864 4:-0.597911 
5.276513974621826 1:-0.474783 2:0.385827 3:-0.439024 4:0.874674 
11.85338591338491 1:-0.986087 2:0.0183727 3:-0.243902 4:-0.174935 
32 1:0.370435 2:-0.0761155 3:0.317073 4:-0.420366 
8.899065125321918 1:-0.00173913 2:0.51706 3:0.240418 4:0.577023 
0.585356214806944 1:-0.843478 2:0.485564 3:-0.491289 4:0.190601 
24.77509120629008 1:-0.49913 2:0.396325 3:-0.655052 4:1 
32 1:-0.293913 2:-0.784777 3:-0.508711 4:-0.498695 
7.323627799630338 1:0.227826 2:-0.0656168 3:0.139373 4:-0.697128 
7.753731286560308 1:0.766957 2:-0.952756 3:0.28223 4:-0.81201 
5.632148073041463 1:0.366957 2:-0.889764 3:0.710801 4:-0.926893 
6.030210900219354 1:0.12 2:0.0341207 3:0.637631 4:-0.232376 
32 1:0.485217 2:-0.412073 3:0.581882 4:-0.608355 
9.7109685057767 1:-0.666087 2:0.0971129 3:-0.811847 4:0.143603 
0.5478859385336141 1:-0.666087 2:-0.700787 4:-0.232376 
32 1:-0.704348 2:-0.958005 3:-0.425087 4:-0.665796 
21.39335660542311 1:-0.196522 2:-0.732283 3:-0.0174216 4:-0.953003 
2.068311349641332 1:-0.0747826 2:-0.784777 3:-0.912892 4:-0.885117 
4.607556434870181 1:-0.770435 2:-0.354331 3:-0.170732 4:-0.86423 
19.43086504200577 1:0.269565 2:-0.805774 3:0.54007 4:-0.00261097 
3.150365631440495 1:-0.624348 2:1 3:-0.69338 4:0.305483 
32 1:-0.161739 2:-0.83727 3:-0.930314 4:-0.561358 
6.431816454715782 1:0.262609 2:-0.0393701 3:0.783972 4:-0.879896 
32 1:-0.165217 2:-0.742782 3:-0.759582 4:-0.357702 
32 1:0.627826 2:0.826772 3:0.703833 4:0.723238 
24.0024903241665 1:-0.624348 2:0.595801 3:-0.888502 4:0.629243 
13.06758323178747 1:0.245217 2:-0.501312 3:0.425087 4:-0.4047 
7.600588756263187 1:-0.735652 2:-0.244094 3:-0.874564 4:-0.425587 
1.524817247922314 1:-0.49913 2:-0.296588 3:-0.181185 4:-0.70235 
32 1:0.617391 2:-0.863517 3:0.1777 4:-0.279373 
20.49426340386416 1:0.206957 2:-0.879265 3:0.763066 4:-0.885117 
15.48558810819731 1:0.450435 2:-0.716535 3:0.264808 4:-0.56658 
32 1:0.44 2:-0.874016 3:0.473868 4:-0.660574 
32 1:-0.161739 2:-0.412073 3:-0.494774 4:-0.54047 
32 1:0.523478 2:-0.690289 3:0.170732 4:-0.472585 
32 1:-0.846957 2:-0.333333 3:-0.547038 4:-0.556136 
32 1:-0.631304 2:-0.322835 3:-0.198606 4:-0.733681 
1.620732372610105 1:-0.76 2:0.548556 3:-0.71777 4:0.530026 
2.462195255030688 1:0.186087 2:-0.11811 3:0.25784 4:-0.801567 
11.24882315112941 1:-0.433043 2:-0.800525 3:-0.508711 4:-0.535248 
31.79818592307166 1:0.457391 2:-0.181102 3:0.512195 4:-0.707572 
26.6855041020339 1:0.356522 2:-0.868766 3:0.289199 4:-0.785901 
32 1:0.262609 2:-0.480315 3:0.644599 4:-0.874674 
7.008636721306457 1:0.766957 2:-0.937008 3:0.477352 4:-0.0391645 
7.556129953883633 1:-0.933913 2:-0.0498688 3:-0.533101 4:-0.56658 
6.00996138378316 1:0.0573913 2:0.721785 3:-0.00348432 4:0.718016 
4.617365353993783 1:0.158261 2:-0.396325 3:0.567944 4:-0.655352 
32 1:0.276522 2:-0.585302 3:0.439024 4:-1 
3.728436177826088 1:0.286957 2:0.653543 3:-0.0313589 4:0.274151 
19.67757498062863 1:0.30087 2:-0.658793 3:0.167247 4:-0.874674 
26.87279420264341 1:0.366957 2:-0.748031 3:0.69338 4:-0.926893 
32 1:-0.73913 2:-0.406824 3:-0.0487805 4:-0.383812 
32 1:-0.311304 2:-0.181102 3:-0.442509 4:-0.451697 
30.56123436949911 1:0.627826 2:-0.884514 3:0.271777 4:-0.921671 
1.652145774939496 1:-0.711304 2:0.979003 3:-0.940767 4:0.530026 
14.7299880100028 1:0.565217 2:-0.412073 3:0.41115 4:-0.258486 
32 1:-0.718261 2:-0.364829 3:-0.898955 4:-0.697128 
3.223056916148022 1:-0.17913 2:-0.60105 3:-0.944251 4:-0.785901 
32 1:0.763478 2:0.669291 3:0.902439 4:0.415144 
32 1:-0.0469565 2:-0.727034 3:-0.418118 4:-0.650131 
32 1:-0.70087 2:0.979003 3:-0.937282 4:0.524804 
32 1:-0.697391 2:-0.648294 3:-0.69338 4:-0.258486 
32 1:-0.648696 2:-0.574803 3:-0.111498 4:-0.0600522 
17.09436631654518 1:0.25913 2:-0.238845 3:0.135889 4:-0.785901 
32 1:-0.412174 2:0.548556 3:-0.891986 4:0.686684 
22.95045833470133 1:0.506087 2:-0.580052 3:0.487805 4:-0.72846 
32 1:0.613913 2:-0.175853 3:0.498258 4:-0.472585 
23.60964374295366 1:-0.446957 2:-0.412073 3:0.00348432 4:-0.117493 
32 1:-0.335652 2:-0.774278 3:-0.491289 4:-0.624021 
9.251726782190234 1:-0.697391 2:0.0183727 3:-0.108014 4:-0.383812 
32 1:-0.565217 2:-0.244094 3:-0.69338 4:-0.373368 
28.24584342830216 1:-0.516522 2:0.564304 3:-0.505226 4:0.848564 
32 1:-0.516522 2:-0.501312 3:-0.89547 4:-0.284595 
32 1:0.0330435 2:-0.574803 3:-0.965157 4:-0.00261097 
20.67979004509697 1:0.551304 2:-0.611549 3:0.578397 4:-0.362924 
25.73364579250901 1:0.666087 2:-0.926509 3:0.655052 4:-0.984334 
32 1:0.554783 2:-0.616798 3:0.149826 4:-0.644909 
6.049641392344262 1:0.485217 2:0.60105 3:0.930314 4:0.765013 
32 1:0.506087 2:0.700787 3:0.766551 4:0.227154 
32 1:-0.17913 2:-0.595801 3:-0.916376 4:-0.263708 
32 1:-0.714783 2:-0.853018 3:-0.770035 4:-0.436031 
14.51014452837418 1:0.603478 2:0.454068 3:0.752613 4:0.650131 
5.100357835062185 1:-0.123478 2:-0.942257 3:-0.351916 4:-0.284595 
10.83778047174834 1:0.412174 2:-0.926509 3:0.341463 4:-0.97389 
32 1:-0.596522 2:0.721785 3:-0.898955 4:0.368146 
12.16331121034761 1:-0.572174 2:0.611549 3:-0.773519 4:0.530026 
8.793027638946356 1:-0.638261 2:-0.653543 3:-0.602787 4:-0.634465 
32 1:0.506087 2:-0.128609 3:0.599303 4:-0.895561 
6.421939873027171 1:-0.704348 2:0.349081 3:-0.522648 4:0.906005 
32 1:-0.822609 2:-0.779528 3:-0.829268 4:-0.389034 
1.240861867603715 1:-0.725217 2:0.19685 3:-0.442509 4:0.26893 
32 1:-0.603478 2:-0.343832 3:-0.087108 4:-0.780679 
32 1:-0.711304 2:-0.590551 3:-0.181185 4:-0.148825 
19.2267966289403 1:0.81913 2:0.501312 3:0.606272 4:0.848564 
32 1:-0.429565 2:0.249344 3:-0.358885 4:0.56658 
32 1:0.321739 2:-0.412073 3:0.285714 4:-0.451697 
32 1:-0.158261 2:-0.511811 3:-0.101045 4:-0.916449 
32 1:-0.231304 2:-0.12336 3:-0.174216 4:-0.624021 
22.40890836798449 1:-0.0643478 2:-0.312336 3:-0.930314 4:-0.571802 
26.02695094305366 1:-0.582609 2:0.732283 3:-0.686411 4:0.947781 
19.10390822063969 1:-0.97913 2:-0.627297 3:-0.592334 4:-0.0182768 
5.913297076822108 1:-0.533913 2:0.889764 3:-0.958188 4:0.456919 
23.85157239901217 1:0.342609 2:-0.427822 3:0.334495 4:-0.629243 
10.27357159777762 1:-0.624348 2:0.0813648 3:-0.644599 4:0.953003 
32 1:0.41913 2:-0.889764 3:0.226481 4:-0.430809 
10.08896448698745 1:-0.822609 2:-0.76378 3:-0.675958 4:-0.953003 
5.610937053601327 1:-0.0747826 2:0.19685 3:-0.0487805 4:0.81201 
28.3661864813567 1:-0.676522 2:0.0183727 3:-0.801394 4:-0.733681 
32 1:-0.398261 2:-0.711286 3:-0.780488 4:-0.315927 
32 1:0.30087 2:0.00787402 3:0.320557 4:-0.67624 
17.75564217677062 1:-0.895652 2:-0.695538 3:-0.857143 4:-0.295039 
32 1:-0.436522 2:-0.585302 3:-0.428571 4:-0.190601 
32 1:-0.871304 2:-0.952756 3:-0.114983 4:-0.671018 
6.374224967262787 1:0.0330435 2:-0.496063 3:-0.087108 4:-0.707572 
19.09142921897483 1:-0.853913 2:0.380577 3:-0.641115 4:0.592689 
2.998221798124852 1:0.252174 2:-0.910761 3:0.536585 4:-0.0600522 
1.223160747193694 1:0.113043 2:-0.595801 3:0.522648 4:-0.681462 
32 1:-0.0573913 2:-0.874016 3:-0.261324 4:-0.72846 
32 1:-0.673043 2:-0.611549 3:-0.087108 4:-0.900783 
32 1:-0.00173913 2:0.51706 3:-0.0452962 4:0.232376 
13.09797102233903 1:-0.582609 2:-0.989501 3:-0.700348 4:-0.655352 
32 1:0.575652 2:-0.716535 3:0.585366 4:-0.618799 
18.04098531159913 1:-0.593043 2:-0.107612 3:-0.982578 4:-0.0496084 
32 1:-0.645217 2:-0.595801 3:-0.658537 4:-0.603133 
0.2881759061226773 1:0.349565 2:-0.0498688 3:0.254355 4:-0.389034 
14.96952558924466 1:0.366957 2:-0.847769 3:0.602787 4:-0.989556 
5.044630705083754 1:-0.00521739 2:0.270341 3:-0.0487805 4:0.843342 
32 1:-0.269565 2:-0.322835 3:-0.533101 4:-0.347258 
9.81803531862575 1:-0.206957 2:-0.385827 3:-0.606272 4:-0.237598 
6.16747156522475 1:-0.933913 2:-0.91601 3:-0.1777 4:-0.530026 
0.5865584187641477 1:-0.14087 2:-0.00262467 3:-0.989547 4:-0.718016 
9.639757546506861 1:0.603478 2:-0.889764 3:0.195122 4:-0.0182768 
14.46776417477231 1:-0.944348 2:-0.35958 3:-0.428571 4:-0.383812 
32 1:0.0191304 2:0.632546 3:0.010453 4:0.430809 
7.670732573787327 1:-0.975652 2:-0.947507 3:0.0348432 4:-0.984334 
32 1:0.68 2:0.333333 3:0.780488 4:0.571802 
17.85302314889447 1:0.189565 2:-0.580052 3:0.578397 4:-0.994778 
32 1:-0.513043 2:-0.244094 3:-0.445993 4:-0.545692 
12.99452374933296 1:-0.57913 2:-0.648294 3:-0.979094 4:-0.0182768 
32 1:0.509565 2:-0.254593 3:0.114983 4:-0.895561 
3.883448936047888 1:0.113043 2:-0.895013 3:0.156794 4:-0.274151 
14.69919867483249 1:0.68 2:0.328084 3:0.536585 4:0.785901 
32 1:0.735652 2:0.270341 3:0.644599 4:0.582245 
9.860939196544882 1:-0.70087 2:-0.35958 3:-0.850174 4:-0.0548303 
10.45533142269993 1:-0.895652 2:0.480315 3:-0.512195 4:0.754569 
19.53696524006888 1:-0.450435 2:-0.632546 3:-0.857143 4:-0.263708 
29.53972163590838 1:-0.492174 2:0.370079 3:-0.519164 4:0.70235 
8.914163791082519 1:0.561739 2:-0.0288714 3:0.519164 4:-0.436031 
27.51494128487922 1:-0.391304 2:-0.343832 3:-0.689895 4:-0.00261097 
32 1:0.638261 2:0.548556 3:0.770035 4:0.190601 
32 1:0.196522 2:-0.217848 3:0.602787 4:-0.796345 
26.88034591451921 1:0.154783 2:-0.83727 3:0.195122 4:-0.817232 
2.430080911820569 1:-0.467826 2:-0.690289 3:-0.505226 4:-0.624021 
32 1:0.561739 2:-0.895013 3:0.477352 4:-0.195822 
25.27415473225739 1:-0.433043 2:-0.926509 3:-0.759582 4:-0.399478 
12.44067811826247 1:0.582609 2:-0.580052 3:0.400697 4:-0.00261097 
1.873366355996489 1:-0.648696 2:0.00262467 3:-0.275261 4:-0.0652742 
24.89846757994667 1:-0.634783 2:-0.669291 3:-0.543554 4:-0.462141 
32 1:0.843478 2:0.538058 3:0.724739 4:0.190601 
15.56853220475172 1:0.158261 2:-0.385827 3:0.15331 4:-0.744125 
3.538333053563974 1:0.269565 2:-0.343832 3:0.181185 4:-0.21671 
32 1:-0.603478 2:-0.643045 3:-0.355401 4:-0.791123 
32 1:0.530435 2:-0.328084 3:0.623693 4:-0.900783 
30.09673582791035 1:-0.613913 2:-0.616798 3:-0.400697 4:-1 
30.97047247675294 1:-0.568696 2:-0.160105 3:-0.881533 4:-0.718016 
32 1:-0.62087 2:0.84252 3:-0.905923 4:0.665796 
8.773664994484649 1:0.123478 2:-0.690289 3:0.557491 4:-0.498695 
32 1:-0.662609 2:-0.301837 3:-0.926829 4:-0.441253 
0.2123930771761195 1:-1 2:-0.947507 3:-0.602787 4:-0.253264 
32 1:-0.753043 2:-0.858268 3:0.0313589 4:-0.686684 
32 1:-0.554783 2:-0.958005 3:-0.707317 4:-0.603133 
4.055161540111988 1:-0.937391 2:-0.0446194 3:-0.118467 4:-0.624021 
16.60302561909375 1:-0.196522 2:-0.779528 3:-0.944251 4:0.0130548 
32 1:0.586087 2:-0.606299 3:0.714286 4:-0.97389 
25.09140686797835 1:0.0226087 2:-0.19685 3:-0.797909 4:-0.383812 
30.95386365629076 1:0.478261 2:-0.700787 3:0.313589 4:-0.749347 
32 1:-0.453913 2:-0.0551181 3:-0.682927 4:-0.587467 
12.03463431366165 1:-0.526957 2:-0.711286 3:-0.216028 4:-0.775457 
32 1:-0.589565 2:-0.60105 3:-0.878049 4:-0.785901 
32 1:0.728696 2:0.611549 3:0.599303 4:0.441253 
31.85442520627953 1:-0.634783 2:-0.343832 3:-0.557491 4:-0.279373 
17.61285927254011 1:-0.526957 2:-0.527559 3:-0.278746 4:-0.0443864 
0.9616477505695364 1:-0.210435 2:-0.28084 3:-0.947735 4:-0.430809 
22.24221479541719 1:-0.25913 2:-0.286089 3:-0.149826 4:-0.493473 
7.906100537554875 1:0.196522 2:-0.790026 3:0.219512 4:-0.138381 
8.785051187249183 1:0.33913 2:-0.133858 3:0.571429 4:-0.389034 
32 1:-0.892174 2:0.370079 3:-0.644599 4:0.906005 
5.556662202366968 1:0.547826 2:0.795276 3:0.58885 4:0.853786 
19.35537856865807 1:-0.533913 2:0.952756 3:-0.522648 4:0.629243 
22.25252107915621 1:-0.54087 2:-0.947507 3:-0.944251 4:-0.603133 
32 1:0.812174 2:0.711286 3:0.66899 4:0.545692 
12.14210327225156 1:-0.947826 2:-0.475066 3:-0.149826 4:-0.10705 
12.56068350733877 1:-0.906087 2:0.343832 3:-0.745645 4:0.519582 
32 1:-0.394783 2:-0.181102 3:-0.271777 4:-0.383812 
18.49185496979303 1:-0.812174 2:-0.742782 3:-0.891986 4:-0.0496084 
3.514307399299703 1:-0.290435 2:-0.0656168 3:-0.285714 4:-0.4047 
32 1:0.429565 2:-0.816273 3:0.404181 4:-0.4047 
32 1:0.551304 2:0.0393701 3:0.58885 4:-0.556136 
12.73423937404149 1:-0.874783 2:-0.307087 3:-0.15331 4:-0.67624 
4.500964200405241 1:-0.46087 2:0.391076 3:-0.857143 4:0.399478 
24.73678031682629 1:0.815652 2:0.721785 3:0.770035 4:0.587467 
32 1:-0.746087 2:-0.433071 3:-0.414634 4:-0.127937 
21.99422875548333 1:0.686957 2:0.317585 3:0.839721 4:0.796345 
15.87032547887213 1:-0.822609 2:-0.427822 3:-0.756098 4:-0.759791 
21.75789695792503 1:0.0330435 2:0.391076 3:0.0383275 4:0.947781 
32 1:0.544348 2:0.00262467 3:0.313589 4:-0.399478 
9.191383758773176 1:-0.401739 2:-0.364829 3:-0.466899 4:-0.749347 
32 1:-0.526957 2:-0.595801 3:-0.1777 4:-0.456919 
32 1:-0.17913 2:-0.611549 3:-0.0731707 4:-0.180157 
2.781995489088684 1:-0.283478 2:-0.774278 3:-0.839721 4:-0.0391645 
32 1:0.655652 2:0.60105 3:0.773519 4:0.718016 
9.888452615367163 1:0.154783 2:-0.475066 3:0.501742 4:-0.0391645 
32 1:0.65913 2:0.370079 3:0.731707 4:0.70235 
32 1:-0.815652 2:0.422572 3:-0.644599 4:0.942559 
32 1:-0.746087 2:-0.406824 3:-0.313589 4:-0.853786 
32 1:0.269565 2:-0.506562 3:0.181185 4:-0.796345 
14.83643882171155 1:-0.224348 2:-0.11811 3:-0.156794 4:-0.749347 
9.446352645748503 1:0.00521739 2:0.427822 3:0.247387 4:0.37859 
32 1:0.558261 2:-0.249344 3:0.407666 4:-0.524804 
3.407547994841587 1:-0.349565 2:-0.847769 3:-0.860627 4:-0.72846 
7.869142159847792 1:-0.652174 2:0.270341 3:-0.557491 4:0.697128 
32 1:-0.78087 2:-0.91601 3:-0.30662 4:-0.718016 
15.73944603848477 1:0.113043 2:-0.322835 3:0.38676 4:-0.953003 
20.17481705719416 1:-0.73913 2:0.0131234 3:-0.156794 4:-0.953003 
11.84691763596996 1:-0.370435 2:0.632546 3:-0.41115 4:0.671018 
32 1:-0.17913 2:-0.538058 3:-0.794425 4:-0.979112 
7.580774129358432 1:-0.325217 2:-0.0498688 3:-0.00348432 4:-0.984334 
11.25395771855905 1:0.916522 2:0.391076 3:0.505226 4:0.467363 
32 1:0.502609 2:-0.511811 3:0.372822 4:-0.926893 
17.39182310963154 1:0.328696 2:-0.19685 3:0.606272 4:-0.942559 
13.92339357213658 1:0.857391 2:0.501312 3:0.58885 4:0.72846 
16.06398259939338 1:-0.384348 2:0.653543 3:-0.867596 4:0.503916 
8.539526790422384 1:-0.151304 2:-0.653543 3:-0.0731707 4:-0.300261 
6.218631209116153 1:0.252174 2:-0.275591 3:0.466899 4:-0.362924 
3.661475636649415 1:-0.951304 2:-0.627297 3:-0.170732 4:-0.780679 
3.759279567199964 1:-0.982609 2:-0.685039 3:-0.484321 4:-0.817232 
13.02248339991148 1:-0.787826 2:-0.165354 3:-0.860627 4:-0.697128 
32 1:-0.0678261 2:-0.511811 3:-0.700348 4:-0.597911 
32 1:0.572174 2:-0.816273 3:0.250871 4:-0.519582 
32 1:0.297391 2:-0.380577 3:0.526132 4:-0.263708 
17.64944959115804 1:0.878261 2:0.874016 3:0.850174 4:0.67624 
12.76465879837006 1:-0.0608696 2:0.223097 3:0.0522648 4:0.624021 
10.01832145673563 1:0.993043 2:0.553806 3:0.853659 4:0.493473 
32 1:-0.165217 2:-0.706037 3:-0.8223 4:-0.174935 
30.38986020741861 1:-0.0678261 2:-0.795276 3:-0.313589 4:-0.759791 
15.83272885084942 1:-0.930435 2:-0.0551181 3:-0.355401 4:-0.744125 
32 1:-0.794783 2:-0.427822 3:-0.881533 4:-0.686684 
32 1:-0.732174 2:0.569554 3:-0.745645 4:0.561358 
2.350792682988923 1:0.182609 2:-0.706037 3:0.533101 4:-0.143603 
32 1:-0.881739 2:-0.401575 3:-0.794425 4:-0.394256 
5.758081665096288 1:0.433043 2:-0.0446194 3:0.362369 4:-0.900783 
32 1:-0.662609 2:0.333333 3:-0.696864 4:0.958225 
32 1:-0.182609 2:-0.611549 3:0.0243902 4:-0.665796 
32 1:0.68 2:-0.879265 3:0.25784 4:-0.415144 
32 1:-0.982609 2:-0.795276 3:-0.442509 4:-0.582245 
0.2775999093284897 1:-0.843478 2:-0.905512 3:-0.470383 4:-0.707572 
10.76804130093998 1:-0.933913 2:-0.0918635 3:-0.56446 4:-0.342037 
9.850679418400572 1:-0.711304 2:0.291339 3:-0.881533 4:0.848564 
7.602295730092703 1:-0.17913 2:0.0393701 3:-0.878049 4:-0.4047 
8.080492801628205 1:-0.0782609 2:0.233596 3:0.139373 4:0.780679 
32 1:0.54087 2:-0.501312 3:0.773519 4:-0.916449 
26.1715651564039 1:-0.46087 2:0.43832 3:-0.891986 4:0.691906 
32 1:-0.836522 2:-0.67979 3:-0.874564 4:-0.796345 
7.322300317423661 1:0.526957 2:-0.391076 3:0.118467 4:-0.164491 
32 1:-0.770435 2:-0.317585 3:-0.421603 4:-0.493473 
32 1:0.554783 2:-0.480315 3:0.501742 4:-0.0600522 
0.5746492013701747 1:-0.648696 2:0.553806 3:-0.470383 4:0.237598 
23.84794724038548 1:0.0121739 2:-0.67979 3:-0.191638 4:-0.37859 
32 1:-0.186087 2:-0.391076 3:-0.655052 4:-0.300261 
26.68969245317342 1:-0.871304 2:0.464567 3:-0.512195 4:0.926893 
32 1:-0.314783 2:-0.874016 3:-0.135889 4:-0.603133 
32 1:-0.0434783 2:0.00262467 3:-0.609756 4:-0.624021 
32 1:-0.168696 2:-0.286089 3:-0.641115 4:-0.603133 
17.39041243163636 1:0.283478 2:-0.0603675 3:0.30662 4:-0.56658 
32 1:-0.97913 2:-0.653543 3:-0.146341 4:-0.56658 
32 1:0.154783 2:-0.900262 3:0.56446 4:-0.67624 
16.28064829942794 1:-0.871304 2:0.616798 3:-0.61324 4:0.56658 
1.246551702784017 1:0.544348 2:-0.538058 3:0.163763 4:-0.258486 
14.08943642040853 1:-0.686957 2:0.989501 3:-0.58885 4:0.483029 
1.583928094479232 1:0.266087 2:-0.648294 3:0.114983 4:-0.295039 
32 1:0.829565 2:0.51706 3:0.944251 4:0.420366 
18.06545863836977 1:0.617391 2:0.475066 3:0.557491 4:0.467363 
32 1:0.711304 2:-0.963255 3:0.581882 4:-0.556136 
4.347908760254411 1:-0.0713043 2:-0.217848 3:-0.407666 4:-0.744125 
25.98920348791148 1:-0.509565 2:-0.454068 3:-0.00696864 4:-0.503916 
32 1:0.41913 2:-0.910761 3:0.501742 4:-0.0548303 
32 1:-0.878261 2:0.67979 3:-0.536585 4:0.686684 
11.73364008764347 1:-0.885217 2:-0.984252 3:-0.738676 4:-0.0391645 
32 1:0.293913 2:-0.496063 3:0.202091 4:-0.185379 
32 1:-0.14087 2:-0.569554 3:-0.369338 4:0.0130548 
32 1:0.812174 2:0.737533 3:0.648084 4:0.503916 
32 1:-0.349565 2:-0.385827 3:-0.292683 4:-0.801567 
16.87910171298681 1:-0.603478 2:0.963255 3:-0.898955 4:0.827676 
32 1:0.530435 2:-0.559055 3:0.567944 4:-0.075718 
32 1:-0.777391 2:-0.380577 3:-0.247387 4:-0.806789 
32 1:0.25913 2:-0.490814 3:0.233449 4:-0.0913838 
15.99613924614276 1:0.57913 2:-0.433071 3:0.167247 4:-0.0548303 
27.72336377432122 1:-0.850435 2:0.905512 3:-0.58885 4:0.383812 
32 1:-0.742609 2:-0.67979 3:-0.501742 4:-0.796345 
32 1:-0.544348 2:-0.511811 3:-0.425087 4:-0.51436 
32 1:0.36 2:-0.548556 3:0.547038 4:-0.733681 
24.38006988194552 1:0.568696 2:-0.217848 3:0.125436 4:-0.550914 
10.05340810800319 1:0.186087 2:-0.181102 3:0.484321 4:-0.67624 
32 1:-0.909565 2:-0.884514 3:-0.418118 4:-0.488251 
12.52453435581229 1:0.217391 2:-0.286089 3:0.526132 4:-0.0704961 
24.78780166184629 1:0.544348 2:-0.0761155 3:0.470383 4:-0.409922 
0.9699897837681167 1:-0.224348 2:-0.0131234 3:-0.512195 4:-0.357702 
11.58191934493392 1:-0.026087 2:-0.585302 3:-0.679443 4:0.0339426 
26.22513814963672 1:0.857391 2:0.853018 3:0.560976 4:0.817232 
3.432087520462168 1:-0.52 2:-0.637795 3:-0.595819 4:-0.0234987 
16.99167153440425 1:0.144348 2:-0.926509 3:0.202091 4:-0.97389 
32 1:-0.867826 2:-0.0183727 3:-0.111498 4:-0.885117 
32 1:-0.568696 2:0.480315 3:-0.432056 4:0.394256 
16.38398252336262 1:-0.993043 2:-0.669291 3:-0.651568 4:-0.274151 
8.215090729218119 1:-0.763478 2:-0.380577 3:-0.61324 4:-0.921671 
14.71379321736223 1:0.304348 2:-0.459318 3:0.756098 4:-1 
5.29274481720886 1:0.516522 2:-0.312336 3:0.174216 4:-0.248042 
32 1:0.137391 2:-0.690289 3:0.254355 4:-0.749347 
27.19560872410966 1:0.867826 2:0.43832 3:0.487805 4:0.4047 
11.54488754561339 1:0.513043 2:-0.375328 3:0.135889 4:-0.806789 
32 1:-0.106087 2:-0.926509 3:-0.648084 4:-0.592689 
32 1:-0.641739 2:-0.700787 3:-0.167247 4:-0.655352 
2.062683495132061 1:-0.972174 2:-0.559055 3:-0.0487805 4:-0.885117 
30.68025709298935 1:0.686957 2:0.590551 3:0.599303 4:0.785901 
32 1:-0.81913 2:-0.984252 3:-0.797909 4:-0.430809 
28.98038802959158 1:0.676522 2:0.191601 3:0.662021 4:0.237598 
4.397249025634743 1:-0.54087 2:-0.338583 3:-0.38676 4:-0.953003 
32 1:0.506087 2:-0.690289 3:0.592334 4:-0.35248 
32 1:0.453913 2:-0.627297 3:0.285714 4:-0.26893 
3.756651721994686 1:-0.638261 2:-0.685039 3:-0.944251 4:-0.963446 
32 1:-0.147826 2:-0.496063 3:-0.452962 4:-0.650131 
32 1:0.6 2:-0.858268 3:0.41115 4:-0.932115 
2.144665365958654 1:-0.0782609 2:-0.406824 3:-0.372822 4:-0.723238 
3.485198300489571 1:-0.266087 2:-0.144357 3:-0.0278746 4:-0.806789 
32 1:0.363478 2:-0.595801 3:0.372822 4:-0.263708 
32 1:0.415652 2:-0.223097 3:0.58885 4:-0.738903 
15.70772263893656 1:-0.798261 2:-0.706037 3:-0.135889 4:-0.0600522 
17.89279672888207 1:0.25913 2:-0.611549 3:0.303136 4:-0.530026 
25.62574642424086 1:0.474783 2:-0.307087 3:0.69338 4:-0.890339 
10.83874306331964 1:0.168696 2:-0.800525 3:0.484321 4:-0.253264 
32 1:-0.833043 2:-0.690289 3:-0.801394 4:-0.817232 
32 1:-0.446957 2:-0.748031 3:0.0348432 4:-0.958225 
32 1:-0.65913 2:-0.00787402 3:-0.369338 4:-0.274151 
16.8760235587265 1:0.172174 2:-0.853018 3:0.397213 4:-0.258486 
26.2342522315447 1:-0.0852174 2:-0.606299 3:-0.947735 4:-0.51436 
3.549549607601183 1:-0.0121739 2:-0.427822 3:-0.574913 4:-0.686684 
1.387938471883782 1:0.0886957 2:0.648294 3:0.12892 4:0.921671 
32 1:-0.613913 2:0.947507 3:-0.425087 4:0.315927 
18.98616694915634 1:0.193043 2:-0.92126 3:0.686411 4:-0.942559 
18.39502695516571 1:0.00173913 2:-0.979003 3:-0.0209059 4:-0.399478 
32 1:0.561739 2:-0.0288714 3:0.299652 4:-0.613577 
32 1:0.54087 2:-0.480315 3:0.254355 4:-0.806789 
1.364346778099323 1:-0.405217 2:0.296588 3:-0.616725 4:0.54047 
7.166623718775726 1:0.144348 2:-0.994751 3:0.452962 4:-0.0339426 
32 1:-0.33913 2:-0.727034 3:-0.163763 4:-0.796345 
28.61565774956081 1:-0.467826 2:0.286089 3:-0.508711 4:0.848564 
5.03188938566963 1:-0.321739 2:-0.721785 3:-0.0487805 4:-0.681462 
32 1:-0.937391 2:-0.0131234 3:-0.0348432 4:-0.733681 
27.01867875516129 1:-0.248696 2:-0.727034 3:-0.12892 4:-0.221932 
32 1:-0.38087 2:-0.307087 3:-0.0383275 4:-0.926893 
32 1:-0.248696 2:-0.721785 3:-0.69338 4:-0.143603 
32 1:0.311304 2:-0.769029 3:0.58885 4:-0.248042 
9.575794480650391 1:-0.972174 2:-0.0288714 3:-0.69338 4:-0.592689 
32 1:-0.0713043 2:-0.485564 3:-0.229965 4:-0.744125 
32 1:-0.370435 2:-0.0656168 3:-0.1777 4:-0.477807 
13.63189762593888 1:-0.965217 2:-0.00262467 3:-0.28223 4:-0.843342 
32 1:-0.151304 2:-0.559055 3:-0.515679 4:-0.634465 
25.55652046875452 1:-0.182609 2:-0.349081 3:-0.480836 4:-0.660574 
6.239132182659457 1:-0.363478 2:-0.328084 3:-0.909408 4:-0.712794 
32 1:-0.123478 2:-0.800525 3:-0.174216 4:-0.368146 
32 1:0.582609 2:0.811024 3:0.860627 4:0.503916 
9.449925439378658 1:-0.874783 2:0.653543 3:-0.397213 4:0.54047 
3.370999411032678 1:-0.0295652 2:-0.900262 3:-0.236934 4:-0.801567 
32 1:-0.610435 2:0.380577 3:-0.61324 4:0.70235 
31.77679269845331 1:0.826087 2:0.475066 3:0.543554 4:0.618799 
32 1:0.784348 2:-0.212598 3:0.195122 4:-0.738903 
32 1:-0.958261 2:-0.580052 3:-0.0313589 4:-0.650131 
25.68233905071886 1:-0.443478 2:-0.175853 3:0.0383275 4:-0.707572 
32 1:-0.384348 2:-0.370079 3:-0.662021 4:-0.571802 
32 1:0.596522 2:-0.973753 3:0.45993 4:-0.561358 
25.42244166564664 1:-0.718261 2:-0.0603675 3:-0.341463 4:-0.81201 
32 1:-0.353043 2:-0.349081 3:-0.766551 4:-0.0496084 
32 1:-0.17913 2:-0.0866142 3:-0.933798 4:-0.597911 
25.34093948011978 1:-0.436522 2:-0.501312 3:-0.923345 4:-0.775457 
11.31863897076799 1:-0.902609 2:-0.706037 3:-0.780488 4:-0.712794 
32 1:0.57913 2:-0.732283 3:0.229965 4:-0.681462 
32 1:-0.488696 2:-0.900262 3:-0.731707 4:-0.436031 
9.884168380869241 1:-0.422609 2:-0.181102 3:-0.299652 4:-0.733681 
9.616672868583786 1:-0.318261 2:-0.711286 3:-0.0209059 4:-0.112272 
32 1:0.561739 2:0.0183727 3:0.310105 4:-0.83812 
32 1:0.328696 2:-0.454068 3:0.515679 4:-0.707572 
0.9234960784712236 1:-0.815652 2:-0.35958 3:-0.780488 4:-0.691906 
32 1:0.276522 2:-0.28084 3:0.529617 4:-0.122715 
7.539722626985874 1:-0.937391 2:-0.905512 3:-0.623693 4:-0.0130548 
32 1:-0.641739 2:0.973753 3:-0.843206 4:0.35248 
32 1:-0.12 2:-0.275591 3:-0.432056 4:-0.56658 
32 1:-0.78087 2:-0.43832 3:-0.860627 4:-0.122715 
0.5793510268016282 1:0.502609 2:-0.00262467 3:0.184669 4:-0.190601 
12.201281307836 1:0.28 2:-0.385827 3:0.303136 4:-0.759791 
32 1:-0.49913 2:0.265092 3:-0.66899 4:0.968668 
26.16077901479858 1:-0.0921739 2:-0.35958 3:-0.8223 4:-0.691906 
32 1:-0.426087 2:-0.511811 3:-0.226481 4:-0.0339426 
32 1:-0.398261 2:-0.35958 3:-0.372822 4:-0.895561 
32 1:-0.812174 2:-0.349081 3:-0.567944 4:-0.300261 
32 1:0.686957 2:0.312336 3:0.644599 4:0.300261 
20.17758628261167 1:0.116522 2:-0.0131234 3:0.191638 4:-0.822454 
5.073717218206338 1:-0.189565 2:0.00262467 3:-0.972125 4:-0.535248 
10.34839215275579 1:-0.878261 2:-0.433071 3:0.0383275 4:-0.26893 
22.70273359397429 1:0.551304 2:-0.475066 3:0.313589 4:-0.765013 
32 1:-0.78087 2:-0.343832 3:-0.0905923 4:-0.613577 
7.303250957419339 1:-0.0852174 2:-0.606299 3:-0.132404 4:-0.0809399 
11.57080435047274 1:-0.412174 2:0.0393701 3:-0.836237 4:-0.744125 
0.8939771900053463 1:-0.892174 2:-0.800525 3:-0.637631 4:-0.0809399 
19.97181696025627 1:-0.161739 2:-0.616798 3:-0.393728 4:-0.817232 
32 1:-0.450435 2:0.322835 3:-0.815331 4:0.545692 
7.893118057168856 1:-0.610435 2:-0.653543 3:-0.0418118 4:-0.712794 
32 1:-0.850435 2:-0.700787 3:-0.505226 4:-0.425587 
1.100091718069976 1:-0.492174 2:-0.606299 3:-0.0243902 4:0.0182768 
27.15925772121438 1:-0.04 2:-0.102362 3:-0.135889 4:-0.639687 
17.31851357645936 1:-0.930435 2:-0.44357 3:-0.0452962 4:-1 
20.53186717471225 1:0.766957 2:0.721785 3:0.843206 4:0.72846 
2.824929398451466 1:-0.735652 2:-0.0551181 3:-0.526132 4:0.0287206 
32 1:-0.923478 2:-0.469816 3:-0.735192 4:-0.0966057 
30.36588312751848 1:-0.41913 2:-0.76378 3:-0.463415 4:-0.420366 
10.19058304427982 1:-0.123478 2:-0.532808 3:-0.804878 4:-0.279373 
6.633423239030527 1:0.506087 2:-0.207349 3:0.550523 4:-0.169713 
13.38340294540419 1:0.693913 2:-0.937008 3:0.278746 4:-0.148825 
32 1:-0.544348 2:0.0183727 3:-0.15331 4:-0.681462 
7.531412808413106 1:0.335652 2:-0.627297 3:0.508711 4:-0.21671 
7.42305627215469 1:-0.516522 2:-0.585302 3:-0.87108 4:-0.227154 
28.16890510882829 1:-0.986087 2:-0.385827 3:-0.937282 4:-0.383812 
8.300816469525859 1:0.175652 2:-0.753281 3:0.362369 4:-0.248042 
12.1627503133394 1:0.610435 2:0.75853 3:0.533101 4:0.655352 
9.961127717949314 1:-0.530435 2:0.0288714 3:-0.0348432 4:-0.686684 
2.676868795493477 1:0.0156522 2:0.737533 3:0.0905923 4:0.232376 
5.852418734496084 1:-0.217391 2:-0.737533 3:-0.87108 4:-0.942559 
32 1:-0.366957 2:-0.023622 3:-0.418118 4:-0.54047 
32 1:-0.655652 2:-0.60105 3:-0.28223 4:-0.916449 
2.456583722895648 1:-0.913043 2:-0.900262 3:0.0243902 4:-0.67624 
32 1:-0.0956522 2:-0.490814 3:-0.533101 4:-0.35248 
32 1:-0.693913 2:-0.590551 3:-0.8223 4:-0.357702 
32 1:0.554783 2:-0.417323 3:0.397213 4:-0.754569 
27.46951393790771 1:-0.481739 2:-0.427822 3:-0.770035 4:-0.785901 
20.8999127098956 1:-0.17913 2:-0.585302 3:-0.33101 4:-0.900783 
32 1:0.586087 2:-0.228346 3:0.264808 4:-0.24282 
1.877410812169453 1:-0.502609 2:0.900262 3:-0.655052 4:0.148825 
23.42651715517645 1:-0.641739 2:-0.0288714 3:-0.797909 4:-0.0443864 
32 1:0.610435 2:0.868766 3:0.658537 4:0.671018 
32 1:-0.172174 2:-0.469816 3:-0.00348432 4:-0.691906 
2.640745561455921 1:-0.0295652 2:-0.958005 3:-0.714286 4:-0.362924 
32 1:0.593043 2:-0.910761 3:0.268293 4:-0.608355 
14.12772475577714 1:-0.878261 2:0.496063 3:-0.45993 4:0.300261 
3.837610793744514 1:0.172174 2:0.265092 3:0.0348432 4:0.190601 
18.80905632862403 1:0.293913 2:-0.706037 3:0.132404 4:-0.535248 
32 1:0.283478 2:-0.706037 3:0.191638 4:-0.707572 
17.07840983808118 1:0.770435 2:-0.952756 3:0.463415 4:-0.409922 
25.17957045412659 1:-0.530435 2:0.60105 3:-0.466899 4:0.300261 
32 1:-0.65913 2:-0.674541 3:-0.89547 4:-0.723238 
26.49681568570006 1:-0.711304 2:-0.700787 3:-0.407666 4:0.0182768 
17.41344432068292 1:-0.210435 2:-0.35958 3:-0.0139373 4:0.0234987 
5.298838550989564 1:-0.728696 2:-0.343832 3:-0.428571 4:-0.0078329 
32 1:0.558261 2:-0.296588 3:0.452962 4:-0.342037 
32 1:-0.526957 2:-0.569554 3:-0.648084 4:0.00261097 
23.93556408874017 1:0.457391 2:-0.275591 3:0.320557 4:-0.879896 
31.65870109080412 1:-0.026087 2:0.270341 3:0.10453 4:0.54047 
23.23310981596638 1:0.328696 2:-0.989501 3:0.56446 4:-0.342037 
32 1:0.026087 2:-0.685039 3:-0.655052 4:-0.373368 
5.777149502179587 1:-0.52 2:0.753281 3:-0.627178 4:0.10705 
25.68393154196922 1:-1 2:0.0131234 3:-0.808362 4:-0.681462 
32 1:-0.843478 2:-0.695538 3:-0.536585 4:-0.467363 
11.74811286439385 1:-0.22087 2:-0.35958 3:-0.498258 4:-0.963446 
0.1165266680893144 1:-0.0504348 2:-0.238845 3:-0.954704 4:-0.67624 
32 1:0.54087 2:-0.732283 3:0.170732 4:-0.0966057 
32 1:-0.46087 2:-0.685039 3:-0.867596 4:-0.712794 
22.34746219526018 1:-0.547826 2:-0.695538 3:-0.97561 4:-0.582245 
32 1:-0.245217 2:-0.19685 3:-0.376307 4:-0.718016 
32 1:0.224348 2:0.643045 3:-0.0209059 4:0.613577 
32 1:-0.54087 2:-0.543307 3:-0.637631 4:-0.827676 
32 1:-0.509565 2:-0.464567 3:-0.494774 4:-0.362924 
32 1:-0.495652 2:-0.559055 3:-0.41115 4:-0.185379 
1.965742247908089 1:0.165217 2:-0.952756 3:0.355401 4:-0.942559 
10.04077968621126 1:0.17913 2:0.884514 3:-0.00348432 4:0.56658 
32 1:-0.690435 2:-0.259843 3:-0.240418 4:-0.4047 
1.415278131347878 1:0.405217 2:-0.790026 3:0.536585 4:-0.577023 
32 1:-0.172174 2:-0.700787 3:-0.714286 4:-0.697128 
32 1:-0.123478 2:0.207349 3:0.0522648 4:0.295039 
22.22326789067725 1:-0.213913 2:0.0393701 3:-0.351916 4:-0.723238 
20.62786026841362 1:-0.86087 2:-0.0656168 3:-0.648084 4:-0.174935 
32 1:-0.492174 2:-0.52231 3:-0.874564 4:-0.258486 
32 1:0.366957 2:-0.496063 3:0.515679 4:-0.634465 
32 1:0.290435 2:-0.385827 3:0.299652 4:-0.926893 
8.611454578586837 1:-0.638261 2:0.128609 3:-0.891986 4:0.691906 
7.671795687739967 1:0.634783 2:0.19685 3:0.912892 4:0.446475 
24.80057279451144 1:-0.293913 2:-0.790026 3:-0.735192 4:-0.791123 
32 1:-0.568696 2:-0.590551 3:-0.477352 4:-0.56658 
13.38897481348792 1:-1 2:-0.0498688 3:-0.738676 4:-0.0182768 
32 1:-0.154783 2:-0.611549 3:-0.292683 4:-0.279373 
12.74295910114549 1:-0.871304 2:0.727034 3:-0.84669 4:0.425587 
32 1:-0.450435 2:-0.427822 3:-0.348432 4:-0.35248 
8.17968079213831 1:0.787826 2:-0.952756 3:0.25784 4:-0.691906 
32 1:0.575652 2:-0.748031 3:0.142857 4:-0.859008 
27.7071747111813 1:0.276522 2:-0.900262 3:0.132404 4:-0.305483 
32 1:-0.853913 2:0.301837 3:-0.87108 4:0.72846 
10.79726599863811 1:-0.25913 2:-0.92126 3:-0.452962 4:-0.618799 
32 1:-0.874783 2:0.643045 3:-0.463415 4:0.906005 
32 1:-0.123478 2:-0.83727 3:-0.0940767 4:-0.608355 
14.61336619500302 1:0.561739 2:-0.301837 3:0.515679 4:-0.467363 
32 1:-0.575652 2:-0.611549 3:-0.696864 4:-0.629243 
32 1:-0.366957 2:0.674541 3:-0.644599 4:0.587467 
32 1:-0.933913 2:-0.637795 3:-0.547038 4:-0.571802 
4.824477200769615 1:-0.725217 2:-0.721785 3:-0.0174216 4:0.0130548 
32 1:0.349565 2:-0.107612 3:0.581882 4:-0.519582 
17.33479581285503 1:0.624348 2:0.44357 3:0.944251 4:0.550914 
32 1:-0.495652 2:-0.501312 3:-0.905923 4:-0.0913838 
32 1:-0.815652 2:-0.265092 3:-0.735192 4:-0.37859 
1.511233029078588 1:0.65913 2:0.223097 3:0.543554 4:0.295039 
32 1:-0.471304 2:-0.590551 3:-0.480836 4:-0.989556 
24.44740213458405 1:0.84 2:0.427822 3:0.933798 4:0.70235 
16.47111947779295 1:-0.913043 2:-0.685039 3:-0.0418118 4:-0.310705 
18.94000057861085 1:-0.52 2:-0.963255 3:-0.240418 4:-0.749347 
2.044422245687184 1:-0.0921739 2:-0.884514 3:-0.289199 4:0.00261097 
32 1:-0.784348 2:0.963255 3:-0.581882 4:0.21671 
17.99783796437213 1:-0.335652 2:-0.307087 3:-0.958188 4:0.0182768 
32 1:-0.52 2:-0.43832 3:-0.087108 4:-0.733681 
1.049819231483277 1:-0.297391 2:-1 3:-0.317073 4:-0.357702 
23.06580000878034 1:-0.721739 2:-0.952756 3:-0.393728 4:-0.394256 
32 1:-0.933913 2:-0.527559 3:-0.243902 4:-0.295039 
2.884778560033295 1:0.126957 2:0.259843 3:0.00696864 4:0.185379 
7.710873732341081 1:0.422609 2:-0.160105 3:0.320557 4:-0.26893 
10.77211534510025 1:0.373913 2:-0.181102 3:0.121951 4:-0.148825 
21.35540958345897 1:-0.0817391 2:0.826772 3:0.125436 4:0.671018 
7.155914808432861 1:-0.853913 2:-0.742782 3:-0.554007 4:-0.248042 
32 1:-0.808696 2:-0.385827 3:-0.937282 4:-0.0548303 
32 1:0.266087 2:-0.753281 3:0.303136 4:-0.900783 
-8.593544182408717 1:0.627826 2:-0.532808 3:0.634146 4:-0.195822 
-6.152201257643195 1:-0.686957 2:-0.401575 3:-0.344948 4:-0.70235 
-32 1:-0.0678261 2:0.753281 3:0.135889 4:0.707572 
-32 1:-0.206957 2:-0.874016 3:-0.731707 4:-0.67624 
-32 1:0.22087 2:-0.737533 3:0.202091 4:-0.248042 
-32 1:-0.391304 2:-0.695538 3:-0.749129 4:-0.24282 
-28.59065208416762 1:-0.603478 2:-0.469816 3:-0.452962 4:-0.921671 
-20.8961094041676 1:-0.794783 2:-0.154856 3:-0.71777 4:-0.409922 
-26.02175787960771 1:-0.00869565 2:-0.900262 3:-0.149826 4:-0.315927 
-32 1:-0.547826 2:-0.732283 3:-0.620209 4:-0.446475 
-32 1:0.144348 2:-0.317585 3:0.512195 4:-0.916449 
-21.10493648786273 1:-0.826087 2:0.28084 3:-0.857143 4:0.723238 
-26.79559667101771 1:-0.54087 2:0.853018 3:-0.480836 4:0.315927 
-32 1:-0.433043 2:-0.75853 3:0.0348432 4:-0.906005 
-32 1:0.735652 2:0.475066 3:0.745645 4:0.691906 
-32 1:-0.193043 2:-0.506562 3:-0.445993 4:-0.848564 
-9.888636575416191 1:0.558261 2:-0.847769 3:0.261324 4:-0.425587 
-32 1:-0.773913 2:0.380577 3:-0.54007 4:0.911227 
-12.83902066213636 1:0.0434783 2:0.380577 3:-0.135889 4:0.801567 
-32 1:-0.846957 2:-0.643045 3:-0.686411 4:-0.754569 
-0.1067269650936672 1:0.516522 2:-0.433071 3:0.763066 4:-0.263708 
-9.44222563654135 1:-0.394783 2:-0.585302 3:-0.473868 4:-0.180157 
-32 1:0.314783 2:-0.485564 3:0.327526 4:-0.0652742 
-32 1:-0.412174 2:-0.0446194 3:-0.205575 4:-0.456919 
-32 1:-0.773913 2:0.643045 3:-0.487805 4:0.665796 
-32 1:-0.547826 2:-0.191601 3:-0.710801 4:-0.37859 
-32 1:0.41913 2:-0.480315 3:0.484321 4:-0.937337 
-3.134935543437143 1:-0.0817391 2:0.60105 3:0.0766551 4:0.409922 
-32 1:0.634783 2:0.375328 3:0.721254 4:0.524804 
-7.750754528737361 1:0.516522 2:-0.821522 3:0.581882 4:-0.279373 
-10.85560678818729 1:-0.0991304 2:-0.721785 3:-0.825784 4:-0.582245 
-32 1:-0.704348 2:-0.947507 3:-0.860627 4:-0.451697 
-3.624380873391728 1:0.624348 2:-0.653543 3:0.567944 4:0.0287206 
-32 1:-0.975652 2:-0.811024 3:-0.599303 4:-0.389034 
-32 1:-0.14087 2:-0.0603675 3:-0.735192 4:-0.634465 
-1.988768407244745 1:-0.756522 2:-0.165354 3:-0.337979 4:-0.462141 
-12.30155965072606 1:-0.76 2:-0.664042 3:-0.905923 4:-0.399478 
-16.07280832621487 1:-0.638261 2:0.0393701 3:-0.355401 4:-0.472585 
-25.78535487892822 1:-0.526957 2:0.606299 3:-0.425087 4:0.4047 
-32 1:0.318261 2:-0.485564 3:0.132404 4:-0.0913838 
-32 1:-0.603478 2:-0.527559 3:-0.888502 4:-0.143603 
-7.176696550732054 1:0.787826 2:0.228346 3:0.832753 4:0.295039 
-25.71530240843623 1:-0.297391 2:-0.454068 3:-0.296167 4:-0.274151 
-14.89752670236064 1:-0.102609 2:-0.590551 3:-0.191638 4:-0.571802 
-32 1:-0.593043 2:-0.2021 3:-0.912892 4:0.0234987 
-24.26154603024778 1:-0.972174 2:-0.112861 3:0.0209059 4:-0.791123 
-32 1:0.224348 2:-0.753281 3:0.550523 4:-0.10705 
-16.26207361919393 1:-0.217391 2:-0.92126 3:-0.825784 4:-0.51436 
-32 1:-0.624348 2:-0.559055 3:-0.61324 4:-0.83812 
-12.27478589274004 1:-0.690435 2:-0.265092 3:-0.773519 4:-0.655352 
-13.94588339520155 1:-0.558261 2:-0.538058 3:-0.222997 4:-0.336815 
-32 1:-0.41913 2:0.433071 3:-0.923345 4:0.519582 
-1.745264875675411 1:0.203478 2:0.406824 3:-0.163763 4:0.785901 
-0.9682739249657824 1:0.801739 2:-0.979003 3:0.696864 4:-0.0339426 
-7.490340586317228 1:0.52 2:-0.291339 3:0.526132 4:-0.963446 
-32 1:0.495652 2:-0.784777 3:0.358885 4:-0.83812 
-32 1:-0.624348 2:-0.51706 3:-0.902439 4:-0.127937 
-32 1:-0.398261 2:-0.67979 3:-0.989547 4:-0.310705 
-32 1:0.373913 2:-0.333333 3:0.212544 4:-0.890339 
-32 1:-0.791304 2:-0.112861 3:-0.857143 4:-0.644909 
-32 1:-0.732174 2:-0.643045 3:-0.390244 4:-0.0809399 
-32 1:-0.829565 2:-0.931759 3:-0.390244 4:-0.441253 
-9.470204611454459 1:0.881739 2:0.44357 3:0.804878 4:0.785901 
-32 1:-0.412174 2:-0.632546 3:-0.766551 4:-0.832898 
-0.3459632790093363 1:0.46087 2:-0.44357 3:0.721254 4:-0.237598 
-32 1:-0.742609 2:-0.51706 3:-0.56446 4:-0.618799 
-32 1:-0.516522 2:-0.622047 3:-0.41115 4:-0.577023 
-32 1:-0.937391 2:0.595801 3:-0.536585 4:0.859008 
-32 1:-0.137391 2:-0.832021 3:-0.780488 4:0.0339426 
-32 1:-0.446957 2:-0.259843 3:-0.56446 4:-0.4047 
-32 1:-0.565217 2:-0.490814 3:-0.0139373 4:-0.592689 
-32 1:-0.481739 2:-0.370079 4:-0.765013 
-9.989338141373462 1:0.648696 2:-0.585302 3:0.404181 4:-0.556136 
-17.98691147815572 1:-0.773913 2:0.459318 3:-0.707317 4:0.932115 
-8.821596862922586 1:-0.00173913 2:-0.863517 3:-0.10453 4:-0.148825 
-32 1:0.227826 2:-0.779528 3:0.149826 4:-0.691906 
-16.60257989075608 1:0.245217 2:0.433071 3:-0.0418118 4:0.357702 
-32 1:-0.62087 2:-0.496063 3:-0.797909 4:-0.723238 
-10.3863498654837 1:-0.871304 2:-0.506562 3:-0.804878 4:-0.138381 
-2.719011633788923 1:-0.812174 2:0.396325 3:-0.829268 4:0.843342 
-2.08774704126531 1:-0.662609 2:-0.559055 3:-0.634146 4:-0.201044 
-5.841663678985658 1:0.130435 2:-0.238845 3:0.641115 4:-0.195822 
-6.253856466447616 1:-0.965217 2:-0.19685 3:-0.278746 4:-0.472585 
-26.5975942653913 1:-0.683478 2:-0.464567 3:-0.108014 4:-0.577023 
-25.57003069944536 1:-0.196522 2:-0.480315 3:-0.581882 4:-0.075718 
-32 1:-0.116522 2:-0.401575 3:-0.341463 4:-0.618799 
-7.610893670836803 1:-0.846957 2:0.0393701 3:-0.745645 4:-0.0652742 
-14.58501789251711 1:0.652174 2:-0.469816 3:0.125436 4:0.0130548 
-25.77343651683746 1:-0.89913 2:-0.637795 3:0.0313589 4:-0.488251 
-32 1:0.676522 2:0.790026 3:0.735192 4:0.671018 
-13.20466473268717 1:0.777391 2:-0.884514 3:0.240418 4:-0.859008 
-32 1:-0.596522 2:-0.538058 3:-0.00348432 4:-0.519582 
-32 1:-0.673043 2:0.674541 3:-0.554007 4:0.890339 
-0.9661685491968126 1:0.57913 2:0.0183727 3:0.118467 4:-0.879896 
-32 1:-0.582609 2:0.91601 3:-0.547038 4:0.21671 
-2.2130974522071 1:0.436522 2:-0.889764 3:0.484321 4:-0.86423 
-32 1:-0.829565 2:-0.139108 3:-0.752613 4:0.00261097 
-32 1:0.506087 2:-0.186352 3:0.487805 4:-0.979112 
-23.78166818641416 1:-0.593043 2:-0.67979 3:-0.292683 4:-0.493473 
-32 1:-0.0747826 2:-0.674541 3:-0.898955 4:-0.493473 
-26.71243655735693 1:-0.561739 2:-0.259843 3:-0.00348432 4:-0.859008 
-12.74769934807352 1:-0.742609 2:-0.165354 3:-0.881533 4:-0.613577 
-13.47118602494075 1:0.655652 2:-0.0498688 3:0.571429 4:-0.336815 
-19.657800314319 1:-0.871304 2:-0.989501 3:-0.00348432 4:-0.712794 
-32 1:-0.648696 2:-0.700787 3:-0.770035 4:-0.634465 
-32 1:0.22087 2:-0.753281 3:0.463415 4:-0.832898 
-11.77293863602605 1:0.596522 2:-0.501312 3:0.226481 4:-0.467363 
-8.777336612343731 1:-0.210435 2:-0.149606 3:-0.233449 4:-0.556136 
-32 1:-0.801739 2:-0.175853 3:-0.25784 4:-0.70235 
-32 1:-0.474783 2:0.364829 3:-0.714286 4:0.947781 
-6.788487414270225 1:0.144348 2:-0.769029 3:0.637631 4:-0.51436 
-7.458286079468728 1:-0.89913 2:0.0288714 3:-0.815331 4:-0.953003 
-32 1:-0.714783 2:-0.632546 3:-0.857143 4:-0.822454 
-18.21859793569262 1:-0.273043 2:-0.67979 3:-0.383275 4:-0.300261 
-20.06508882061195 1:0.721739 2:0.863517 3:0.916376 4:0.498695 
-32 1:0.412174 2:-0.364829 3:0.620209 4:-0.571802 
-26.95862479578312 1:-0.655652 2:-0.863517 3:-0.00696864 4:-0.926893 
-32 1:-0.812174 2:-0.454068 3:-0.0243902 4:-0.169713 
-7.957125325375531 1:-0.478261 2:-0.821522 3:-0.299652 4:-0.681462 
-32 1:0.606957 2:-0.790026 3:0.226481 4:-0.822454 
-0.3204180390524272 1:0.673043 2:0.83727 3:0.477352 4:0.524804 
-32 1:-0.648696 2:-0.895013 3:-0.637631 4:-0.430809 
-11.6926266701697 1:-0.89913 2:-0.00787402 3:-0.585366 4:-0.237598 
-32 1:-0.00521739 2:-0.76378 3:-0.522648 4:-0.389034 
-16.6854198218706 1:-0.36 2:-0.947507 3:-0.738676 4:-0.644909 
-16.4431943698224 1:-0.398261 2:0.312336 3:-0.372822 4:0.686684 
-32 1:-0.269565 2:-0.354331 3:-0.574913 4:-0.383812 
-3.782159988969466 1:-0.193043 2:-0.464567 3:-0.226481 4:-0.383812 
-32 1:0.509565 2:-0.753281 3:0.229965 4:-0.51436 
-6.273563869879862 1:0.749565 2:-0.853018 3:0.623693 4:-0.989556 
-32 1:0.596522 2:-0.333333 3:0.114983 4:-0.608355 
-32 1:0.252174 2:-0.0761155 3:0.317073 4:-0.535248 
-20.9638356249496 1:-0.558261 2:-0.527559 3:-0.184669 4:-0.81201 
-15.63297453633834 1:0.65913 2:0.307087 3:0.818815 4:0.441253 
-32 1:0.763478 2:0.364829 3:0.550523 4:0.744125 
-4.701914783250039 1:-0.12 2:0.779528 3:0.132404 4:0.389034 
-28.11876159378355 1:-0.697391 2:-0.532808 3:-0.135889 4:-0.859008 
-0.8384220747792451 1:0.0956522 2:0.559055 3:-0.0766551 4:0.597911 
-18.71178081373903 1:-0.62087 2:0.769029 3:-0.888502 4:0.561358 
-32 1:-0.874783 2:-0.464567 3:-0.912892 4:-0.138381 
-3.209246366998675 1:0.582609 2:-0.160105 3:0.662021 4:-0.509138 
-1.141598582446089 1:-0.613913 2:-0.485564 3:0.00696864 4:-0.331593 
-1.374969945960083 1:-0.290435 2:-0.417323 3:-0.595819 4:-0.937337 
-32 1:0.502609 2:0.574803 3:0.836237 4:0.832898 
-32 1:0.603478 2:-0.632546 3:0.327526 4:-0.712794 
-15.2634436477539 1:-0.46087 2:-0.606299 3:-0.84669 4:0.0339426 
-32 1:-0.154783 2:-0.385827 3:-0.787456 4:0.0078329 
-32 1:0.210435 2:-0.952756 3:0.763066 4:-0.97389 
-16.00444314783473 1:0.603478 2:-0.139108 3:0.261324 4:-0.963446 
-12.95433248950267 1:-0.94087 2:-0.905512 3:-0.33101 4:-0.608355 
-32 1:-0.196522 2:-0.417323 3:-0.627178 4:-0.655352 
-13.68993747592085 1:0.551304 2:-0.958005 3:0.501742 4:-0.749347 
-32 1:0.353043 2:-0.270341 3:0.491289 4:-0.775457 
-4.724788062981181 1:-0.241739 2:-0.217848 3:-0.397213 4:-0.592689 
-32 1:-0.52 2:0.0393701 3:0.0209059 4:-0.723238 
-32 1:-0.206957 2:-0.469816 3:-0.56446 4:-0.618799 
-32 1:-0.613913 2:-0.480315 3:-0.637631 4:-0.342037 
-7.939723723046473 1:-0.826087 2:0.00787402 3:-0.369338 4:-0.0600522 
-32 1:0.113043 2:-0.900262 3:0.351916 4:-0.357702 
-32 1:0.370435 2:-0.616798 3:0.529617 4:-0.749347 
-32 1:0.332174 2:-0.569554 3:0.501742 4:-0.24282 
-11.66992045310197 1:0.196522 2:-0.244094 3:0.644599 4:-0.603133 
-32 1:0.624348 2:-0.333333 3:0.505226 4:-0.274151 
-32 1:0.286957 2:-0.774278 3:0.627178 4:-0.342037 
-30.66491864688093 1:-0.0226087 2:-0.133858 3:-0.912892 4:-0.519582 
-32 1:-0.913043 2:-0.611549 3:-0.585366 4:-0.0391645 
-27.72566788111093 1:-0.54087 2:0.496063 3:-0.404181 4:0.441253 
-32 1:-0.582609 2:0.254593 3:-0.700348 4:0.932115 
-32 1:0.377391 2:-0.19685 3:0.334495 4:-0.362924 
-21.70525469276289 1:-0.76 2:-0.559055 3:-0.275261 4:-1 
-27.93470736079852 1:0.526957 2:-0.790026 3:0.585366 4:-0.968668 
-32 1:-0.467826 2:0.480315 3:-0.578397 4:0.947781 
-8.185712050280493 1:0.273043 2:-0.0341207 3:0.637631 4:-0.0548303 
-32 1:0.33913 2:-0.380577 3:0.376307 4:-0.937337 
-30.63737532762007 1:-0.84 2:0.00262467 3:-0.296167 4:-0.979112 
-1.07283102563378 1:-0.426087 2:0.732283 3:-0.376307 4:0.409922 
-24.86031778771392 1:0.662609 2:0.585302 3:0.599303 4:0.185379 
-32 1:0.669565 2:0.51706 3:0.66899 4:0.86423 
-2.634057523608724 1:0.551304 2:-0.984252 3:0.271777 4:-0.37859 
-32 1:-0.645217 2:-0.548556 3:-0.139373 4:0.0287206 
-3.896662927004956 1:-0.266087 2:-0.412073 3:-0.240418 4:0.0287206 
-32 1:0.446957 2:-0.91601 3:0.425087 4:0.00261097 
-32 1:-0.391304 2:-0.942257 3:-0.61324 4:-0.467363 
-32 1:0.610435 2:-0.569554 3:0.254355 4:-0.697128 
-32 1:0.554783 2:-0.931759 3:0.487805 4:-0.305483 
-32 1:0.147826 2:-0.0446194 3:0.212544 4:-0.770235 
-32 1:0.610435 2:-0.175853 3:0.358885 4:-0.51436 
-0.1944177850907437 1:-0.944348 2:0.406824 3:-0.623693 4:0.806789 
-17.26231240872794 1:0.787826 2:0.553806 3:0.749129 4:0.775457 
-32 1:-0.94087 2:-0.301837 3:-0.327526 4:-0.451697 
-32 1:0.446957 2:0.0131234 3:0.341463 4:-0.289817 
-32 1:0.513043 2:0.769029 3:0.686411 4:0.347258 
-32 1:0.311304 2:-0.149606 3:0.547038 4:-0.843342 
-12.81900357278381 1:-0.972174 2:-0.926509 3:-0.320557 4:-0.577023 
-32 1:0.568696 2:0.228346 3:0.759582 4:0.817232 
-26.14069067441365 1:0.513043 2:-0.811024 3:0.132404 4:-0.206266 
-32 1:-0.65913 2:-0.784777 3:-0.766551 4:-0.451697 
-17.89624734786968 1:-0.245217 2:-0.480315 3:-0.505226 4:-0.801567 
-28.2118268816901 1:-0.0226087 2:0.375328 3:0.12892 4:0.86423 
-32 1:0.332174 2:-0.333333 3:0.12892 4:-0.24282 
-32 1:0.613913 2:-0.0131234 3:0.432056 4:-0.519582 
-16.787174595013 1:-0.97913 2:-0.427822 3:-0.898955 4:0.0130548 
-21.10862711562599 1:-0.850435 2:0.223097 3:-0.627178 4:0.822454 
-32 1:-0.41913 2:-0.133858 3:-0.334495 4:-0.707572 
-13.92976908472581 1:0.606957 2:-0.328084 3:0.585366 4:-0.665796 
-32 1:0.252174 2:-0.0708661 3:0.456446 4:-0.832898 
-32 1:0.481739 2:-0.396325 3:0.627178 4:-0.138381 
-32 1:-0.203478 2:-0.569554 3:-0.313589 4:-0.211488 
-19.79789994240344 1:-0.471304 2:-0.0446194 3:-0.240418 4:-0.451697 
-0.6076207264700479 1:0.0156522 2:0.92126 3:-0.139373 4:0.624021 
-32 1:-0.572174 2:0.748031 3:-0.930314 4:0.498695 
-32 1:-0.812174 2:0.937008 3:-0.452962 4:0.430809 
-32 1:0.617391 2:0.632546 3:0.829268 4:0.221932 
-32 1:0.318261 2:-0.511811 3:0.794425 4:-0.968668 
-32 1:-0.773913 2:-0.160105 3:-0.243902 4:-0.67624 
-32 1:-0.28 2:-0.643045 3:-0.87108 4:-0.97389 
-32 1:0.252174 2:-0.401575 3:0.229965 4:-0.759791 
-32 1:-0.133913 2:-0.0971129 3:-0.369338 4:-0.467363 
-21.34807399982067 1:-0.627826 2:-0.328084 3:0.0313589 4:-0.723238 
-32 1:0.582609 2:0.769029 3:0.721254 4:0.754569 
-7.687326152503564 1:-0.586087 2:-0.270341 3:-0.317073 4:-0.467363 
-13.18429957255124 1:0.467826 2:-0.223097 3:0.752613 4:-0.785901 
-32 1:-0.728696 2:-0.244094 3:-0.891986 4:-0.535248 
-17.39608161068029 1:-0.495652 2:-0.44357 3:-0.365854 4:-0.707572 
-32 1:-0.384348 2:-0.67979 3:-0.0696864 4:-0.221932 
-32 1:-0.363478 2:-0.244094 3:-0.310105 4:-0.686684 
-32 1:0.443478 2:-0.910761 3:0.480836 4:-1 
-32 1:0.537391 2:0.506562 3:0.804878 4:0.206266 
-1.001783300010962 1:-0.874783 2:-0.496063 3:0.0383275 4:0.0078329 
-32 1:-0.193043 2:-0.238845 3:-0.574913 4:-0.389034 
-32 1:-0.627826 2:-0.406824 3:-0.0557491 4:-0.409922 
-32 1:-0.217391 2:-0.664042 3:-0.0627178 4:-0.305483 
-15.91818893660381 1:-0.624348 2:0.968504 3:-0.843206 4:0.806789 
-13.99146396737905 1:0.78087 2:0.811024 3:0.735192 4:0.749347 
-26.43279941215371 1:-0.565217 2:0.821522 3:-0.432056 4:0.697128 
-4.165100910128904 1:-0.787826 2:-0.742782 3:-0.268293 4:-0.67624 
-14.71356270036213 1:0.704348 2:0.485564 3:0.602787 4:0.195822 
-32 1:-0.44 2:-0.706037 3:-0.89547 4:-0.655352 
-3.111080057452704 1:-0.377391 2:-0.459318 3:-0.212544 4:-0.989556 
-32 1:-0.645217 2:-0.427822 3:-0.979094 4:-0.86423 
-4.687894489272131 1:0.76 2:-0.853018 3:0.233449 4:-0.430809 
-32 1:-0.52 2:-0.223097 3:-0.731707 4:-0.660574 
-2.938257647680656 1:0.248696 2:-0.406824 3:0.560976 4:-0.890339 
-26.20446492021345 1:-0.391304 2:0.506562 3:-0.860627 4:0.686684 
-2.209264642570419 1:-0.787826 2:0.874016 3:-0.442509 4:0.869452 
-32 1:0.78087 2:0.501312 3:0.972125 4:0.587467 
-12.21260633207049 1:-0.794783 2:0.0341207 3:-0.156794 4:-0.185379 
-4.35453263589369 1:0.721739 2:-0.160105 3:0.149826 4:-0.587467 
-3.125668012715412 1:-0.735652 2:-0.863517 3:-0.240418 4:-0.587467 
-8.406217136534975 1:-0.669565 2:0.711286 3:-0.850174 4:0.827676 
-24.72131616756146 1:-0.718261 2:-0.380577 3:-0.226481 4:0.0078329 
-32 1:-0.742609 2:0.52231 3:-0.714286 4:0.577023 
-16.88796836967752 1:-0.916522 2:-0.448819 3:-0.770035 4:-0.315927 
-32 1:-0.822609 2:0.632546 3:-0.609756 4:0.425587 
-32 1:-0.76 2:-0.643045 3:-0.885017 4:-0.832898 
-32 1:0.551304 2:-0.480315 3:0.543554 4:-0.832898 
-11.27697208576429 1:0.742609 2:-0.816273 3:0.121951 4:-0.164491 
-13.5672451948297 1:0.603478 2:-0.653543 3:0.787456 4:-0.937337 
-32 1:-0.909565 2:-0.475066 3:-0.623693 4:-0.279373 
-0.01989605334861963 1:0.572174 2:-0.937008 3:0.595819 4:-0.624021 
-32 1:-0.366957 2:0.706037 3:-0.66899 4:0.644909 
-30.83668356006081 1:0.596522 2:-0.690289 3:0.407666 4:-0.201044 
-32 1:0.373913 2:-0.291339 3:0.114983 4:-0.733681 
-32 1:-0.742609 2:-0.653543 3:-0.243902 4:-0.843342 
-32 1:0.346087 2:-0.12336 3:0.41115 4:-0.441253 
-1.958600269463289 1:0.471304 2:-0.354331 3:0.648084 4:-0.545692 
-1.954046593638014 1:0.377391 2:0.0183727 3:0.759582 4:-0.284595 
-32 1:-0.00869565 2:-0.75853 3:-0.749129 4:-0.122715 
-32 1:-0.321739 2:-0.774278 3:-0.595819 4:-0.545692 
-32 1:0.377391 2:-0.459318 3:0.400697 4:-0.232376 
-13.33584069307307 1:0.266087 2:-0.968504 3:0.61324 4:0.00261097 
-32 1:-0.530435 2:-0.102362 3:-0.780488 4:-0.665796 
-18.76484863558258 1:-0.815652 2:-0.611549 3:-0.188153 4:-0.24282 
-21.15035107423427 1:-0.871304 2:-0.454068 3:-0.15331 4:-0.0704961 
-5.776438868624266 1:-0.958261 2:-0.170604 3:-0.923345 4:0.0287206 
-32 1:-0.297391 2:-0.706037 3:-0.790941 4:-0.237598 
-32 1:-0.353043 2:-0.622047 3:-0.108014 4:-0.942559 
-32 1:-0.683478 2:0.385827 3:-0.595819 4:0.744125 
-32 1:0.172174 2:0.648294 3:-0.0452962 4:0.665796 
-32 1:-0.888696 2:-0.700787 3:-0.571429 4:-0.535248 
-20.78469852273117 1:-0.0608696 2:-0.406824 3:-0.574913 4:-0.467363 
-32 1:-0.0504348 2:-0.401575 3:-0.0139373 4:-0.770235 
-15.19142739144075 1:0.12 2:-0.637795 3:0.449477 4:-0.853786 
-32 1:-0.603478 2:-0.380577 3:-0.898955 4:-0.738903 
-32 1:-0.373913 2:-0.412073 3:-0.69338 4:-0.0287206 
-12.5391170151351 1:-0.763478 2:0.0183727 3:-0.247387 4:-0.26893 
-32 1:-0.373913 2:-0.685039 3:-0.445993 4:-0.37859 
-32 1:0.182609 2:-0.779528 3:0.515679 4:-0.953003 
-16.88558679694126 1:-0.885217 2:-0.475066 3:-0.400697 4:-0.331593 
-32 1:-0.49913 2:-1 3:-0.00348432 4:-0.718016 
-32 1:0.373913 2:-0.669291 3:0.644599 4:-0.0704961 
-32 1:0.596522 2:-0.380577 3:0.216028 4:-0.874674 
-32 1:-0.412174 2:-0.412073 3:-0.198606 4:-0.879896 
-4.312200717810152 1:0.662609 2:-0.51706 3:0.560976 4:-0.456919 
-1.122214271966204 1:0.307826 2:-1 3:0.662021 4:-0.35248 
-32 1:-0.00521739 2:-0.711286 3:-0.365854 4:-0.712794 
-25.16310064334116 1:-0.763478 2:-0.879265 3:0.0243902 4:-0.723238 
-22.38581437834443 1:0.133913 2:-0.144357 3:0.686411 4:-0.806789 
-32 1:0.81913 2:0.732283 3:0.728223 4:0.467363 
-32 1:0.311304 2:-0.548556 3:0.557491 4:-0.498695 
-32 1:-0.784348 2:-0.301837 3:-0.216028 4:-0.425587 
-10.85773573893686 1:-0.773913 2:0.926509 3:-0.777003 4:0.953003 
-32 1:-0.624348 2:-0.380577 3:-0.383275 4:-0.274151 
-32 1:-0.753043 2:0.0288714 3:-0.240418 4:-0.759791 
-12.81221880571682 1:-0.384348 2:0.370079 3:-0.780488 4:0.472585 
-7.955121375014635 1:0.794783 2:-0.968504 3:0.710801 4:-0.420366 
-32 1:-0.986087 2:-0.622047 3:-0.184669 4:-0.493473 
-32 1:-0.568696 2:0.249344 3:-0.372822 4:0.54047 
-32 1:-0.586087 2:0.931759 3:-0.679443 4:0.456919 
-5.38151116432216 1:-1 2:-0.947507 3:-0.634146 4:-0.4047 
-32 1:-0.492174 2:-0.553806 3:-0.66899 4:-0.436031 
-32 1:0.0121739 2:-0.711286 3:-0.843206 4:-0.0652742 
-24.71205069083951 1:-0.206957 2:-0.989501 3:0.0174216 4:-0.942559 
-17.65715939332129 1:0.798261 2:-0.968504 3:0.630662 4:-0.712794 
-19.52988812893145 1:-0.683478 2:-0.595801 3:-0.641115 4:-0.54047 
-32 1:-0.398261 2:-0.769029 3:-0.710801 4:-0.4047 
-16.82412132376415 1:-0.989565 2:-0.380577 3:-0.84669 4:-0.451697 
-32 1:-0.65913 2:-0.748031 3:-0.898955 4:-0.582245 
-32 1:-0.102609 2:-0.779528 3:-0.324042 4:-0.644909 
-32 1:0.433043 2:-0.711286 3:0.606272 4:-0.624021 
-32 1:-0.307826 2:0.023622 3:-0.30662 4:-0.691906 
-32 1:-0.586087 2:-0.616798 3:-0.560976 4:-0.56658 
-32 1:-0.89913 2:0.0288714 3:-0.839721 4:-0.70235 
-32 1:0.485217 2:-0.75853 3:0.264808 4:-0.310705 
-32 1:-0.766957 2:0.291339 3:-0.595819 4:0.932115 
-4.858717247207193 1:0.547826 2:-0.853018 3:0.12892 4:-0.373368 
-32 1:0.172174 2:-0.716535 3:0.212544 4:-0.869452 
-32 1:0.446957 2:-0.784777 3:0.484321 4:-0.321149 
-23.58915170808701 1:-0.46087 2:-0.900262 3:-0.219512 4:-0.509138 
-17.54295549104074 1:0.464348 2:-0.585302 3:0.696864 4:-0.26893 
-20.19430645755002 1:0.645217 2:-0.186352 3:0.12892 4:-0.248042 
-32 1:0.81913 2:0.727034 3:0.745645 4:0.483029 
-32 1:0.450435 2:-0.349081 3:0.58885 4:-0.0809399 
-32 1:0.704348 2:-0.91601 3:0.358885 4:-0.545692 
-15.17804886168122 1:0.04 2:0.811024 3:-0.00348432 4:0.373368 
-30.7606266591835 1:-0.791304 2:0.931759 3:-0.766551 4:0.274151 
-32 1:0.332174 2:-0.527559 3:0.372822 4:-0.221932 
-32 1:0.342609 2:-0.538058 3:0.30662 4:-0.754569 
-30.65733937155139 1:-0.495652 2:-0.2021 3:-0.372822 4:-0.56658 
-31.00250240687695 1:0.735652 2:0.847769 3:0.595819 4:0.686684 
-32 1:0.874783 2:0.564304 3:0.682927 4:0.425587 
-32 1:-0.683478 2:-0.380577 3:-0.811847 4:-0.681462 
-32 1:0.398261 2:-0.43832 3:0.118467 4:-1 
-27.69742005993337 1:-0.231304 2:-0.51706 3:-0.944251 4:-0.232376 
-32 1:-0.401739 2:-0.60105 3:-0.397213 4:-0.0913838 
-15.07348131975932 1:0.00521739 2:-0.396325 3:-0.56446 4:-0.420366 
-3.648675792609799 1:-0.909565 2:-0.931759 3:0.0313589 4:-0.869452 
-8.914171223634144 1:-0.544348 2:0.84252 3:-0.452962 4:0.394256 
-32 1:-0.17913 2:-0.716535 3:-0.219512 4:-0.70235 
-16.62592420039982 1:-0.2 2:-0.674541 3:-0.682927 4:-0.321149 
-32 1:-0.52 2:-0.805774 3:-0.41115 4:-0.707572 
-32 1:0.718261 2:-0.926509 3:0.362369 4:-0.394256 
-18.09243822851584 1:-0.133913 2:-0.832021 3:-0.254355 4:-0.446475 
-16.32969433436103 1:-0.488696 2:0.307087 3:-0.763066 4:0.681462 
-0.2411852969126422 1:0.561739 2:-0.28084 3:0.675958 4:-0.26893 
-32 1:-0.641739 2:0.611549 3:-0.843206 4:0.650131 
-32 1:0.203478 2:-0.254593 3:0.602787 4:-0.148825 
-9.240499312476651 1:-0.123478 2:0.28084 3:0.170732 4:0.169713 
-27.37391747457262 1:0.537391 2:-0.874016 3:0.188153 4:-0.195822 
-0.8115698873924732 1:-0.843478 2:0.863517 3:-0.508711 4:0.697128 
-32 1:-0.227826 2:-0.12336 3:-0.0139373 4:-0.723238 
-27.45979692285722 1:-0.102609 2:-0.690289 3:-0.756098 4:-0.51436 
-1.46519485024745 1:0.916522 2:0.622047 3:0.780488 4:0.357702 
-11.45563127621761 1:-0.328696 2:-0.532808 3:0.0278746 4:-0.0287206 
-32 1:-0.422609 2:0.380577 3:-0.43554 4:0.83812 
-32 1:0.933913 2:0.721785 3:0.721254 4:0.791123 
-32 1:-0.73913 2:-0.658793 3:-0.777003 4:-0.827676 
-27.8607105409665 1:0.693913 2:-0.186352 3:0.240418 4:-0.822454 
-6.642497748469605 1:0.193043 2:-0.674541 3:0.616725 4:0.0130548 
-32 1:-0.746087 2:-0.658793 3:-0.547038 4:-0.832898 
-12.04756376165256 1:-0.742609 2:-0.590551 3:-0.944251 4:-0.289817 
-32 1:-0.0713043 2:-0.511811 3:-0.404181 4:-0.634465 
-32 1:-0.746087 2:-0.19685 3:-0.379791 4:-0.650131 
-1.369066996220888 1:-0.0713043 2:-0.0446194 3:-0.881533 4:-0.67624 
-2.289779694470813 1:-0.137391 2:0.83727 3:-0.181185 4:0.618799 
-32 1:-0.89913 2:-0.611549 3:-0.473868 4:-0.436031 
-32 1:-0.492174 2:-0.748031 3:-0.811847 4:-0.67624 
-32 1:0.488696 2:-0.847769 3:0.407666 4:-0.587467 
-30.29734576072337 1:-0.766957 2:-0.627297 3:-0.0418118 4:-0.0966057 
-32 1:-0.241739 2:-0.338583 3:-0.554007 4:-0.446475 
-32 1:0.401739 2:-0.0761155 3:0.432056 4:-0.456919 
-24.53908932681964 1:-0.0365217 2:0.469816 3:-0.0209059 4:0.159269 
-23.83409638456205 1:-0.575652 2:0.91601 3:-0.550523 4:0.122715 
-26.51930048142304 1:-0.248696 2:-0.469816 3:-0.770035 4:-0.874674 
-27.53303450954729 1:-0.297391 2:-0.538058 3:-0.0662021 4:-0.707572 
-32 1:0.00173913 2:-0.826772 3:-0.874564 4:-0.958225 
-32 1:0.773913 2:0.454068 3:0.930314 4:0.519582 
-22.21965927705427 1:-0.94087 2:0.580052 3:-0.595819 4:0.937337 
-32 1:-0.558261 2:0.165354 3:-0.627178 4:0.785901 
-30.28822869236647 1:0.25913 2:-0.422572 3:0.526132 4:-0.958225 
-14.17772409816872 1:-0.0434783 2:0.475066 3:-0.00348432 4:0.597911 
-27.93063001878208 1:0.516522 2:-1 3:0.54007 4:-0.561358 
-32 1:-0.269565 2:-0.427822 3:-0.797909 4:-0.232376 
-32 1:0.231304 2:-0.0498688 3:0.212544 4:-0.744125 
-32 1:0.537391 2:-0.742782 3:0.195122 4:-0.885117 
-32 1:-0.923478 2:0.0341207 3:-0.0905923 4:-0.822454 
-23.10824923672975 1:-0.363478 2:-0.427822 3:-0.445993 4:-0.994778 
-32 1:-0.349565 2:-0.291339 3:-0.397213 4:-0.430809 
-19.33672889970649 1:-0.0226087 2:-0.0498688 3:-0.393728 4:-0.665796 
-20.4067681520879 1:0.328696 2:-0.475066 3:0.519164 4:0.0234987 
-32 1:0.707826 2:0.249344 3:0.770035 4:0.879896 
-5.941112125449611 1:-0.568696 2:-0.737533 3:0.0383275 4:-0.86423 
-32 1:-0.14087 2:-0.181102 3:-0.198606 4:-0.582245 
-32 1:-0.366957 2:-0.00262467 3:-0.585366 4:-0.409922 
-2.166080609803814 1:0.0817391 2:0.427822 3:-0.0801394 4:0.289817 
-32 1:0.0365217 2:-0.52231 3:-0.930314 4:0.0287206 
-32 1:-0.829565 2:-0.674541 3:-0.752613 4:-0.284595 
-8.870231191351717 1:-0.224348 2:-0.496063 3:-0.0174216 4:-0.357702 
-32 1:-0.666087 2:-0.385827 3:-0.972125 4:-0.483029 
-32 1:-0.28 2:-0.622047 3:-0.0313589 4:-0.456919 
-32 1:0.676522 2:0.349081 3:0.808362 4:0.535248 
-18.98606268747904 1:0.975652 2:0.611549 3:0.839721 4:0.237598 
-2.008376835082069 1:-0.370435 2:-0.585302 3:-0.721254 4:-0.989556 
-32 1:-0.530435 2:-0.0813648 3:-0.912892 4:-0.0078329 
-4.285897510632106 1:0.655652 2:-0.490814 3:0.216028 4:-0.221932 
-31.1938251716796 1:0.596522 2:0.023622 3:0.205575 4:-0.796345 
-27.78636873847348 1:0.453913 2:-0.984252 3:0.219512 4:-0.493473 
-13.75152966853407 1:-0.676522 2:-0.538058 3:-0.376307 4:-0.0966057 
-32 1:-0.353043 2:-0.664042 3:-0.595819 4:-0.738903 
-18.66786163249579 1:-0.196522 2:-0.475066 3:-0.254355 4:-0.0391645 
-32 1:-0.384348 2:-0.685039 3:-0.529617 4:-0.26893 
-0.7767501007532737 1:0.408696 2:-0.868766 3:0.637631 4:-0.248042 
-32 1:-0.92 2:-0.527559 3:-0.902439 4:-0.671018 
-19.10447168793131 1:-0.147826 2:-0.979003 3:-0.71777 4:-0.603133 
-2.503808407933041 1:-0.686957 2:-0.52231 3:-0.864111 4:-0.81201 
-10.50374705067767 1:-0.478261 2:0.910761 3:-0.731707 4:0.780679 
-32 1:0.36 2:-0.690289 3:0.665505 4:-0.843342 
-9.675247461962 1:-0.224348 2:-0.475066 3:0.0174216 4:-0.075718 
-6.332331059714249 1:0.6 2:-0.742782 3:0.341463 4:-0.754569 
-17.45971663156253 1:-0.551304 2:-0.511811 3:-0.358885 4:-0.979112 
-28.97852585013035 1:0.617391 2:-0.632546 3:0.658537 4:-0.451697 
-32 1:-0.053913 2:-0.475066 3:0.0348432 4:-0.843342 
-3.077984924208667 1:-0.147826 2:0.811024 3:0.0662021 4:0.86423 
-5.279972243682362 1:-0.370435 2:-0.44357 3:-0.61324 4:-0.0913838 
-32 1:0.210435 2:-0.858268 3:0.498258 4:-0.164491 
-23.36290927634131 1:-0.805217 2:0.406824 3:-0.390244 4:0.368146 
-29.31416455210366 1:-0.777391 2:0.952756 3:-0.909408 4:0.613577 
-10.22268270747829 1:-0.78087 2:-0.0603675 3:-0.0139373 4:-0.926893 
-3.291594137005808 1:-0.0295652 2:0.52231 3:-0.121951 4:0.206266 
-11.3174403516891 1:0.335652 2:0.0131234 3:0.686411 4:-0.806789 
-32 1:0.429565 2:-0.422572 3:0.738676 4:-0.895561 
-15.30369335128318 1:-0.00521739 2:-0.84252 3:-0.404181 4:-0.968668 
-32 1:0.822609 2:0.364829 3:0.494774 4:0.37859 
-32 1:0.554783 2:-0.889764 3:0.400697 4:-0.660574 
-10.08460785078169 1:-0.683478 2:0.343832 3:-0.801394 4:0.879896 
-32 1:0.474783 2:-0.0288714 3:0.484321 4:-0.738903 
-3.92607598655892 1:-0.867826 2:-0.952756 3:-0.341463 4:-0.644909 
-32 1:-0.25913 2:-0.139108 3:-0.912892 4:-0.545692 
-6.737320290170535 1:-0.763478 2:-0.401575 3:-0.560976 4:-0.535248 
-32 1:0.286957 2:-0.632546 3:0.334495 4:-0.467363 
-32 1:-0.106087 2:-0.364829 3:-0.891986 4:-0.665796 
-32 1:-0.697391 2:-0.412073 3:-0.641115 4:-0.237598 
-32 1:0.513043 2:-0.28084 3:0.379791 4:-0.284595 
-32 1:0.453913 2:-0.286089 3:0.494774 4:-0.749347 
-13.73793946123612 1:-0.241739 2:-0.0288714 3:-0.703833 4:-0.399478 
-27.97182272406422 1:-0.801739 2:-0.826772 3:-0.707317 4:-0.409922 
-12.78988827373241 1:0.871304 2:0.275591 3:0.56446 4:0.524804 
-32 1:-0.210435 2:-0.637795 3:-0.484321 4:-0.305483 
-26.424214824897 1:0.728696 2:0.170604 3:0.578397 4:0.201044 
-32 1:0.784348 2:0.52231 3:0.543554 4:0.624021 
-9.09804872324697 1:-0.394783 2:0.427822 3:-0.797909 4:0.138381 
-32 1:0.366957 2:-0.469816 3:0.407666 4:-0.655352 
-32 1:0.262609 2:-0.900262 3:0.222997 4:-0.885117 
-8.162498419926346 1:0.436522 2:-0.75853 3:0.641115 4:-0.10705 
-19.85074228537635 1:-0.325217 2:-0.674541 3:-0.327526 4:0.0078329 
-32 1:-0.586087 2:-0.889764 3:-0.334495 4:-0.671018 
-22.56905243352503 1:0.728696 2:0.858268 3:0.783972 4:0.571802 
-6.243234335230194 1:0.210435 2:-0.60105 3:0.627178 4:-0.775457 
-8.652922383027535 1:-0.053913 2:0.35958 3:0.0243902 4:0.900783 
-21.98018449675311 1:0.627826 2:-0.238845 3:0.74216 4:-0.911227 
-32 1:-0.0469565 2:0.212598 3:-0.00348432 4:0.493473 
-4.515169774983429 1:-0.0991304 2:0.275591 3:-0.0278746 4:0.932115 
-32 1:0.70087 2:0.800525 3:0.480836 4:0.650131 
-15.83669812849705 1:0.206957 2:0.732283 3:-0.0452962 4:0.571802 
-15.56029582953712 1:-0.00173913 2:-0.380577 3:-0.275261 4:-0.446475 
-32 1:-0.398261 2:0.501312 3:-0.519164 4:0.592689 
-32 1:0.311304 2:-0.574803 3:0.195122 4:-0.707572 
-16.55441643154414 1:0.641739 2:-0.191601 3:0.38676 4:-0.51436 
-32 1:-0.676522 2:-0.490814 3:-0.87108 4:-0.138381 
-17.26287438901022 1:0.551304 2:-0.00262467 3:0.560976 4:-0.759791 
-0.5265309901899804 1:0.65913 2:-0.0708661 3:0.606272 4:-0.472585 
-32 1:-0.732174 2:-0.984252 3:-0.268293 4:-0.707572 
-32 1:-0.151304 2:-0.149606 3:-0.390244 4:-0.70235 
-26.37919328174549 1:-0.415652 2:-0.448819 3:-0.1777 4:-0.221932 
-32 1:-0.624348 2:-0.391076 3:-0.264808 4:-0.35248 
-32 1:-0.203478 2:-0.459318 3:-0.205575 4:-0.911227 
-18.08164344213848 1:-0.394783 2:-0.286089 3:0.00696864 4:-0.869452 
-32 1:0.311304 2:-0.674541 3:0.355401 4:-0.477807 
-32 1:-0.485217 2:-0.160105 3:-0.28223 4:-0.409922 
-32 1:0.481739 2:-0.0866142 3:0.66899 4:-0.451697 
-32 1:0.446957 2:-0.406824 3:0.592334 4:-0.686684 
-14.44681502757686 1:0.631304 2:-0.816273 3:0.142857 4:-0.738903 
-32 1:-0.70087 2:-0.422572 3:-0.205575 4:-0.879896 
-22.46321758609179 1:0.645217 2:-0.485564 3:0.473868 4:-0.0182768 
-32 1:0.544348 2:-0.748031 3:0.142857 4:-0.519582 
-32 1:0.474783 2:-0.538058 3:0.229965 4:-0.718016 
-32 1:0.196522 2:-0.931759 3:0.637631 4:-0.744125 
-17.36880092900257 1:-0.00869565 2:-0.0393701 3:-0.700348 4:-0.389034 
-32 1:-0.596522 2:-0.51706 3:-0.146341 4:-0.738903 
-32 1:-0.829565 2:-0.0918635 3:-0.749129 4:-0.660574 
-32 1:-0.446957 2:-0.774278 3:-0.33101 4:-0.697128 
-17.88952023911402 1:0.686957 2:-0.853018 3:0.337979 4:-0.895561 
-8.664402936808127 1:-0.593043 2:-0.265092 3:-0.616725 4:-0.493473 
-22.2347953089214 1:-0.196522 2:-0.727034 3:-0.829268 4:-0.67624 
-11.04676581240934 1:-0.0434783 2:0.611549 3:0.310105 4:0.477807 
-24.33339996893092 1:-0.947826 2:0.52231 3:-0.763066 4:0.608355 
-32 1:-0.624348 2:-0.396325 3:-0.393728 4:-0.765013 
-32 1:-0.92 2:-0.711286 3:-0.202091 4:-0.624021 
-5.534072870834176 1:-0.206957 2:-0.595801 3:-0.773519 4:-0.984334 
-32 1:0.00173913 2:-0.863517 3:-0.0696864 4:-0.51436 
-32 1:-0.426087 2:-0.926509 3:-0.672474 4:-0.56658 
-2.387936351489317 1:0.857391 2:0.643045 3:0.850174 4:0.315927 
-12.3196487685728 1:0.113043 2:-0.931759 3:0.609756 4:-0.603133 
-32 1:-0.666087 2:-0.44357 3:-0.449477 4:-0.289817 
-27.91842358681835 1:-0.916522 2:0.611549 3:-0.554007 4:0.895561 
-32 1:0.00869565 2:-0.858268 3:-0.543554 4:-0.72846 
-13.49109703898582 1:0.530435 2:0.748031 3:0.947735 4:0.342037 
-28.41035618789231 1:-0.718261 2:-0.664042 3:-0.508711 4:-1 
-3.873589791369936 1:-0.878261 2:-0.501312 3:-0.609756 4:-0.545692 
-32 1:-0.603478 2:0.952756 3:-0.860627 4:0.409922 
-32 1:0.718261 2:0.464567 3:0.574913 4:0.592689 
-1.445796796735944 1:0.102609 2:0.338583 3:-0.0452962 4:0.37859 
-19.81467100343972 1:0.652174 2:-0.669291 3:0.752613 4:-0.984334 
-8.579537926372765 1:0.645217 2:-0.149606 3:0.351916 4:-0.279373 
-23.54584427816693 1:-0.203478 2:-0.580052 3:0.0174216 4:-0.770235 
-32 1:-0.426087 2:0.0341207 3:-0.797909 4:-0.67624 
-32 1:0.0434783 2:0.711286 3:-0.0139373 4:0.451697 
-11.15892657096356 1:-0.0782609 2:-0.811024 3:-0.376307 4:-0.561358 
-32 1:-0.857391 2:-0.175853 3:-0.550523 4:-0.409922 
-32 1:-0.895652 2:-0.501312 3:-0.0592334 4:-0.83812 
-5.161272170830121 1:0.707826 2:0.92126 3:0.651568 4:0.796345 
-0.06125103843169951 1:-0.892174 2:-0.606299 3:-0.752613 4:-0.0130548 
-32 1:0.450435 2:-0.317585 3:0.425087 4:-0.451697 
-21.49436108531961 1:-0.735652 2:-0.905512 3:-0.571429 4:-0.561358 
-26.30442731843316 1:0.426087 2:-0.627297 3:0.672474 4:-0.185379 
-5.608069474593246 1:0.00869565 2:-0.91601 3:-0.69338 4:-0.874674 
-32 1:-0.673043 2:-0.375328 3:-0.592334 4:-0.133159 
-22.00364799717984 1:-0.547826 2:-0.937008 3:-0.874564 4:-0.556136 
-19.96833214932912 1:-0.551304 2:-0.485564 3:-0.609756 4:0.0339426 
-18.44549617554878 1:-0.467826 2:-0.475066 3:-0.557491 4:-0.472585 
-25.87610625585887 1:-0.241739 2:-0.233596 3:-0.28223 4:-0.681462 
-0.958017038657935 1:0.0156522 2:-0.658793 3:-0.752613 4:-0.629243 
-32 1:-0.370435 2:-0.653543 3:-0.557491 4:-0.906005 
-10.95807076804454 1:0.662609 2:-0.706037 3:0.292683 4:-0.0339426 
-16.0168498715687 1:0.714783 2:0.501312 3:0.609756 4:0.415144 
-32 1:0.596522 2:-0.380577 3:0.439024 4:-0.759791 
-32 1:-0.450435 2:0.553806 3:-0.752613 4:0.639687 
-27.23039761606103 1:-0.725217 2:-0.979003 3:-0.731707 4:-0.629243 
-32 1:-0.593043 2:-0.433071 3:-0.515679 4:-0.441253 
-27.19630054894667 1:-0.283478 2:-0.412073 3:-0.0836237 4:-0.0391645 
-14.30910567337128 1:-0.405217 2:-0.480315 3:-0.996516 4:-0.571802 
-8.866915016082618 1:0.86087 2:0.349081 3:0.937282 4:0.597911 
-32 1:-0.266087 2:-0.926509 3:-0.358885 4:-0.509138 
-32 1:-0.363478 2:-0.43832 3:-0.672474 4:-0.759791 
-32 1:-0.102609 2:-0.475066 3:-0.599303 4:-0.37859 
-25.97138128455673 1:-0.0886957 2:0.254593 3:0.170732 4:0.477807 
-6.348504088590302 1:-0.65913 2:-0.448819 3:-0.606272 4:-0.0182768 
-7.007864932229273 1:0.746087 2:0.349081 3:0.801394 4:0.660574 
-32 1:0.49913 2:-0.83727 3:0.209059 4:-0.644909 
-21.78286922139731 1:-0.791304 2:-0.00262467 3:-0.567944 4:-0.195822 
-32 1:-0.328696 2:-0.223097 3:0.0174216 4:-0.947781 
-32 1:-0.026087 2:0.354331 3:0.0557491 4:0.420366 
-32 1:-0.909565 2:-0.784777 3:-0.376307 4:-0.665796 
-32 1:-0.387826 2:-0.469816 3:-0.888502 4:-0.185379 
-2.250863166993384 1:-0.714783 2:-0.616798 3:-0.0662021 4:0.0182768 
-11.24922527933243 1:-0.822609 2:0.905512 3:-0.456446 4:0.227154 
-19.7991689747923 1:-0.826087 2:-0.674541 3:-0.365854 4:-0.0391645 
-0.9325226952001853 1:0.725217 2:-0.228346 3:0.205575 4:-0.806789 
-32 1:0.0156522 2:-0.711286 3:-0.226481 4:-0.164491 
-26.42024793203635 1:-0.551304 2:-0.175853 3:-0.853659 4:-0.665796 
-32 1:-0.276522 2:-0.67979 3:-0.794425 4:-0.164491 
-2.509808370096016 1:-0.36 2:-0.333333 3:-0.721254 4:-0.629243 
-20.74957627066568 1:0.0295652 2:-0.396325 3:-0.74216 4:-0.592689 
-4.869102040647969 1:-0.808696 2:0.632546 3:-0.679443 4:0.169713 
-30.98644350900373 1:-0.902609 2:-0.643045 3:0.010453 4:-0.806789 
-32 1:0.544348 2:-0.0131234 3:0.351916 4:-0.571802 
-32 1:-0.196522 2:-0.853018 3:-0.229965 4:-0.671018 
-32 1:0.227826 2:-0.727034 3:0.226481 4:-0.890339 
-32 1:-0.878261 2:-0.900262 3:-0.777003 4:-0.0130548 
-7.511290421363431 1:0.0365217 2:0.606299 3:-0.0940767 4:0.697128 
-0.782413630194206 1:0.526957 2:-0.984252 3:0.571429 4:-0.075718 
-6.106227731202042 1:0.252174 2:-0.952756 3:0.616725 4:-0.477807 
-32 1:0.530435 2:-0.769029 3:0.547038 4:-0.0600522 
-12.6054965826058 1:0.0121739 2:-0.711286 3:-0.916376 4:-0.718016 
-17.24056811864331 1:-0.398261 2:-0.249344 3:-0.247387 4:-0.451697 
-32 1:-0.951304 2:-0.322835 3:-0.829268 4:-0.467363 
-32 1:-0.826087 2:0.286089 3:-0.787456 4:0.592689 
-18.93411907939219 1:-0.634783 2:0.790026 3:-0.905923 4:0.35248 
-32 1:-0.582609 2:-0.448819 3:-0.808362 4:-0.389034 
-11.25839887015866 1:0.645217 2:-0.742782 3:0.324042 4:-0.582245 
-32 1:0.370435 2:-0.370079 3:0.491289 4:-0.577023 
-32 1:-0.349565 2:-0.422572 3:-0.0940767 4:-0.503916 
-16.54649203232666 1:0.0295652 2:-0.674541 3:-0.679443 4:-0.509138 
-32 1:0.596522 2:0.228346 3:0.839721 4:0.310705 
-32 1:0.335652 2:-0.548556 3:0.198606 4:-0.613577 
-27.4317704319043 1:-0.206957 2:-0.874016 3:0.0348432 4:-0.817232 
